[array([[ 1.84213489e-01, -1.50093183e-01,  2.50392318e-01,
        -6.41752267e-03, -4.08860087e-01, -3.31145465e-01,
         8.78403708e-02,  1.61250874e-01, -1.78373262e-01,
         9.95150879e-02, -2.35468999e-01,  3.16939533e-01,
        -9.62273218e-03,  2.49974012e-01,  2.24499032e-02,
        -4.20911200e-02,  1.21207066e-01, -5.70182055e-02,
        -7.40099326e-02,  1.19000360e-01, -2.63040811e-01,
         5.94274886e-03, -2.00946614e-01,  1.61732629e-01,
        -5.25779352e-02, -2.92684119e-02,  1.98713958e-01,
        -2.08264193e-03,  4.73122627e-01,  6.94652870e-02,
        -7.30267093e-02, -1.43059120e-01, -9.50881317e-02,
         2.69222528e-01, -2.38220960e-01, -5.69178820e-01,
         2.25893334e-01, -1.78646475e-01,  3.84422898e-01,
        -1.25905678e-01,  2.45248303e-01,  1.85534596e-01,
        -2.82781571e-01, -6.43531680e-02, -1.61226481e-01,
        -2.76219426e-03, -1.13544479e-01, -8.90037343e-02,
        -1.31219223e-01,  8.10420886e-03,  3.11708838e-01,
        -1.74332663e-01, -1.17069021e-01, -3.13676596e-01,
        -1.56009451e-01,  2.88684368e-01,  3.42507184e-01,
         1.97909266e-01, -3.16494495e-01,  2.46956006e-01,
         7.78114125e-02, -3.28193516e-01,  1.72162041e-01,
        -4.34383638e-02],
       [ 2.76185215e-01, -2.81547867e-02,  1.77322909e-01,
         1.20004646e-01, -3.40075046e-01, -3.09692413e-01,
         1.15011349e-01,  3.11725378e-01, -2.67936707e-01,
         3.19769382e-01, -7.47811720e-02, -9.30776969e-02,
         2.47138694e-01,  2.76972979e-01,  2.41724655e-01,
         2.39591867e-01,  2.75505692e-01, -4.99918386e-02,
        -2.14678925e-02,  3.56254503e-02, -1.28211424e-01,
        -2.13386305e-02, -5.82475066e-02,  1.83500051e-01,
        -1.98853582e-01, -7.71784633e-02,  4.58157957e-02,
        -4.25721020e-01,  1.54986247e-01,  2.59793580e-01,
         1.17026821e-01,  6.79549128e-02, -3.14611912e-01,
         5.47548104e-03, -1.44102886e-01,  6.37072548e-02,
         2.04664066e-01, -1.85746446e-01,  3.05303752e-01,
        -3.72960903e-02, -2.47852832e-01,  2.03778625e-01,
        -3.27422023e-01,  3.25006425e-01,  7.20115677e-02,
        -5.66728301e-02, -2.41078645e-01, -1.85774267e-02,
         3.06189150e-01,  3.70938808e-01, -1.21031195e-01,
        -5.12883842e-01,  2.32624151e-02,  3.05776745e-01,
        -1.47089839e-01, -1.59338057e-01, -1.19827859e-01,
        -1.91332996e-01,  7.54304081e-02,  2.73551345e-01,
        -3.60242307e-01, -4.49309230e-01, -1.96146190e-01,
         1.61261007e-01],
       [-2.52579629e-01, -4.63829339e-01,  2.40418077e-01,
         1.49076477e-01,  1.46655560e-01, -6.84315085e-01,
        -1.64874241e-01,  8.56168941e-03, -2.29457378e-01,
        -1.07219771e-01, -3.42971087e-01, -1.92910567e-01,
        -3.42866600e-01,  2.20450461e-02,  4.42696512e-01,
        -1.79327894e-02, -1.42744957e-02, -1.07338622e-01,
         9.94067267e-02,  2.53681183e-01, -6.54862463e-01,
        -3.17495823e-01,  2.96052601e-02, -4.32017326e-01,
        -1.15021303e-01,  3.33918601e-01,  1.34574488e-01,
        -2.88335532e-01,  6.17439672e-02,  1.41209826e-01,
        -7.90316910e-02,  3.45848858e-01,  1.50257036e-01,
         3.72305840e-01,  2.50442058e-01, -4.21389580e-01,
        -2.71821886e-01,  6.76710159e-02,  4.03741777e-01,
         1.84328184e-02, -9.08795446e-02,  4.02874500e-02,
        -6.53336868e-02,  2.87857324e-01,  3.96758825e-01,
        -1.61123943e+00, -1.35879800e-01, -3.68655980e-01,
         4.70728606e-01,  5.39657176e-01,  2.79891968e-01,
        -6.76279604e-01,  2.17109267e-02,  1.58720806e-01,
        -1.92482159e-01,  8.79371259e-03, -2.53604442e-01,
        -3.19488794e-02,  3.88787985e-01,  3.14644217e-01,
         1.85073704e-01, -3.91778409e-01, -2.64933348e-01,
        -2.35949699e-02],
       [-2.21843302e-01, -1.20125473e+00, -4.05884385e-01,
        -1.93707809e-01,  3.09769660e-01,  1.21320993e-01,
         2.47572124e-01, -4.46564145e-02,  2.72441451e-02,
        -1.88289806e-01, -1.20880470e-01, -5.80475442e-02,
         3.05148423e-01, -1.05223775e-01, -3.22683513e-01,
        -1.94230825e-01,  5.44554353e-01,  1.57215983e-01,
        -1.83491975e-01, -9.93673280e-02,  3.13603044e-01,
         4.38423939e-02,  3.26613843e-01,  1.02119662e-01,
         1.52353883e-01,  2.38923639e-01,  3.92991513e-01,
         4.36374784e-01,  5.60947776e-01,  5.11952117e-03,
        -4.02060032e-01,  9.33792889e-02,  4.05821562e-01,
         4.53123868e-01,  1.04860052e-01, -7.14253783e-02,
        -1.37543485e-01,  2.72619784e-01, -3.56038421e-01,
         1.91319689e-01,  1.12203911e-01,  2.13725150e-01,
        -4.95449975e-02, -1.66099757e-01,  4.62740362e-02,
         3.14113021e-01,  4.27939087e-01, -3.88617992e-01,
        -1.90672845e-01, -5.20352088e-02, -4.11999673e-01,
        -7.11614937e-02, -2.42465377e-01, -2.64097720e-01,
        -1.47952214e-01, -5.50922267e-02,  1.11507550e-01,
         2.52783448e-01, -2.63540447e-01,  1.54469922e-01,
         3.57079357e-01, -7.79697001e-01,  1.60925955e-01,
        -1.71774641e-01],
       [ 2.88648009e-01,  2.30116963e-01, -5.19482885e-03,
        -1.00490548e-01, -3.54587495e-01,  7.43956417e-02,
         3.69304977e-02, -2.48968259e-01,  1.12829655e-01,
         2.01879695e-01,  9.21687037e-02,  1.65276881e-03,
         6.44452795e-02,  2.25688487e-01,  1.05373502e-01,
         4.98327706e-03, -2.27810189e-01, -9.27382931e-02,
        -2.25223005e-01,  1.00417607e-01, -1.06488124e-01,
        -1.08739063e-01, -3.70697677e-01, -2.78378785e-01,
        -3.98939073e-01,  2.74970889e-01,  3.22581589e-01,
         1.70038372e-01, -1.67446975e-02,  3.88143212e-01,
         3.59448135e-01, -2.14332402e-01, -5.62643372e-02,
        -1.29908130e-01, -1.43506862e-02, -7.42128909e-01,
         2.97026187e-01, -1.27899228e-02,  3.09707373e-01,
         1.05498113e-01, -1.35496289e-01,  6.38678716e-03,
        -1.21069252e-01,  1.99841827e-01, -1.15174092e-02,
         2.21314073e-01, -4.65663113e-02,  3.24354678e-01,
         1.04741774e-01,  7.40351230e-02,  2.90286809e-01,
        -2.90747285e-01, -1.94296077e-01, -7.96812773e-02,
         2.00416192e-01,  3.66811365e-01,  2.92745113e-01,
         1.16995819e-01,  3.71018127e-02, -1.41500115e-01,
        -6.53217286e-02,  1.19254947e-01,  3.66162658e-02,
         3.12527478e-01],
       [ 6.41000926e-01, -3.17005292e-02, -1.55114755e-01,
        -1.45645767e-01, -4.23742771e-01, -2.05975205e-01,
        -8.03689882e-02, -1.01454183e-01, -9.84781832e-02,
         1.30546123e-01,  2.76158541e-01, -1.90555796e-01,
        -2.57495046e-02,  3.21424752e-02,  4.17581201e-01,
         4.23944853e-02, -2.63837993e-01, -6.26556948e-02,
        -1.60228714e-01,  1.90540031e-01,  8.52585882e-02,
         8.69363025e-02, -3.63136083e-01, -1.17462710e-01,
        -6.00909054e-01,  1.42265543e-01,  4.76738103e-02,
         1.13494359e-01,  3.43509138e-01,  2.86409885e-01,
         1.86075166e-01,  1.80986762e-01, -3.41596365e-01,
         5.47538362e-02, -3.78473461e-01, -5.62350154e-01,
         1.98825493e-01, -1.13501951e-01,  1.58929393e-01,
         9.96433944e-02,  2.79442105e-03, -4.99736220e-01,
        -2.03957632e-01,  1.48224697e-01,  6.96041510e-02,
        -2.70689279e-01, -2.09973440e-01,  1.59569606e-01,
         3.51864576e-01,  1.18904196e-01,  1.37555465e-01,
         3.58969867e-02, -1.76778153e-01, -1.44250140e-01,
         2.55527347e-01, -2.12419778e-01, -4.48062196e-02,
        -6.61476748e-03,  4.41860035e-02, -7.09425360e-02,
        -4.75307494e-01,  3.65527093e-01, -2.76212603e-01,
        -4.00989875e-03],
       [ 1.58897743e-01,  1.63119748e-01,  3.17460507e-01,
         3.37353498e-02,  2.17912183e-03,  2.29714647e-01,
        -3.16946983e-01,  4.97303516e-01, -2.24490494e-01,
         1.29323110e-01, -2.01579228e-01, -2.42802402e-04,
        -4.89219278e-01, -1.96706459e-01,  1.33681580e-01,
        -7.15918168e-02, -1.35023326e-01, -1.10237122e-01,
        -3.13678980e-01,  1.43250272e-01, -2.83436000e-01,
        -1.65315405e-01, -1.00440281e-02, -1.96810201e-01,
        -3.58413249e-01,  2.02660337e-01, -1.01536326e-01,
         2.50700772e-01,  5.83044514e-02,  2.56651074e-01,
         8.29499140e-02, -1.24232024e-02, -2.92734653e-01,
         5.47624826e-02,  9.11139175e-02, -2.34822363e-01,
         7.11975098e-02,  3.17028940e-01, -7.61435777e-02,
        -1.58993885e-01, -3.68199408e-01,  2.23314598e-01,
         2.80773472e-02,  4.34910087e-03, -5.27389422e-02,
        -7.57532656e-01, -1.24799952e-01,  4.20247577e-02,
         4.20748293e-02, -2.76602153e-02,  7.83899948e-02,
        -1.79133832e-01,  2.94341534e-01, -1.85974479e-01,
         2.10679919e-01, -4.11909893e-02, -3.29619765e-01,
        -1.63867414e-01, -2.33076140e-02, -1.81591704e-01,
        -7.82473013e-02,  1.14317336e-04,  1.05883546e-01,
         3.01193558e-02],
       [ 2.98315436e-01, -4.14286762e-01, -2.65041322e-01,
        -6.18737876e-01,  2.06698060e-01, -1.52124077e-01,
         2.75860518e-01,  1.26572371e-01, -3.30095999e-02,
         3.83345298e-02, -2.65589029e-01, -2.90515721e-01,
        -2.38553174e-02,  1.22434072e-01,  1.88834071e-01,
        -1.03397518e-02, -1.46975964e-01, -6.36376590e-02,
        -1.51229396e-01,  8.23117793e-02, -1.94837153e-01,
        -1.17613994e-01, -5.60850203e-01,  3.03785622e-01,
        -2.13385187e-02,  5.71517572e-02, -6.31773844e-02,
         4.23984416e-02,  2.25499377e-01,  2.43438989e-01,
        -7.40109459e-02, -2.45895814e-02,  3.54116380e-01,
         7.15504467e-01,  3.12891841e-01, -7.24890053e-01,
        -7.69999996e-02,  4.95449640e-02,  2.59068459e-01,
        -1.93512499e-01,  1.52793288e-01,  2.52059907e-01,
        -3.72423172e-01,  1.02671199e-01, -6.27122968e-02,
         1.54059023e-01, -1.19448192e-01, -4.41081971e-02,
        -8.40833336e-02,  7.51433149e-02,  3.79928619e-01,
         4.16844934e-02,  4.08576010e-03, -6.49833456e-02,
         1.83167662e-02,  3.20592672e-01,  4.17523444e-01,
         2.80670077e-01,  1.72826052e-01,  4.41329300e-01,
         2.73659259e-01, -1.06050689e-02,  2.10452061e-02,
         1.16364747e-01],
       [ 3.20576340e-01, -1.37064993e-01, -7.97367394e-02,
         7.26014376e-02, -9.06037688e-02,  3.54769081e-01,
        -6.44131824e-02,  6.26194850e-03, -1.95122927e-01,
         3.72319609e-01,  7.07391426e-02,  9.45968702e-02,
         1.70670137e-01,  5.07739067e-01, -3.01921397e-01,
        -8.59184004e-03, -1.64518774e-01,  2.54018635e-01,
        -9.98280868e-02, -5.64369142e-01,  2.01760873e-01,
         3.74342017e-02, -4.20596898e-01,  2.51938015e-01,
        -3.36530924e-01, -1.20952755e-01,  6.82389364e-02,
         2.11947978e-01,  1.29711062e-01,  4.92847385e-03,
         1.41885459e-01, -1.20448560e-01, -4.37666252e-02,
         8.36352557e-02, -1.78124592e-01, -4.85372424e-01,
         4.50815521e-02,  1.57592177e-01, -1.83329821e-01,
        -2.44703919e-01,  2.05223441e-01, -7.15003461e-02,
        -4.16531693e-03,  2.68030167e-01,  2.25541785e-01,
         2.44696334e-01, -4.29370522e-01,  8.63731802e-02,
         6.89121708e-02,  1.04787745e-01,  1.26761511e-01,
         3.20899993e-01, -7.87981451e-02,  4.82044369e-02,
         1.04583681e-01,  3.32010925e-01,  9.72557291e-02,
         7.97282010e-02, -1.02162592e-01, -6.41677141e-01,
         3.85657459e-01,  1.04737990e-01, -2.63201557e-02,
         1.58943281e-01],
       [ 1.67065024e-01, -2.55158782e-01,  1.70402125e-01,
         1.20674141e-01,  5.55955470e-02,  2.37131253e-01,
        -3.21242452e-01, -1.81121320e-01,  3.53547595e-02,
         3.81046802e-01,  2.60166824e-01, -6.52792007e-02,
        -7.01549202e-02,  5.02758324e-01, -1.11923262e-01,
         4.04064432e-02, -2.58361310e-01,  5.82846627e-02,
        -2.68666968e-02, -5.01411438e-01,  1.08009376e-01,
        -1.30648658e-01, -2.05597118e-01,  1.76306650e-01,
        -3.80041838e-01, -1.90377697e-01,  1.48054346e-01,
        -2.55614314e-02, -2.16209650e-01, -1.11771576e-01,
         4.64075893e-01,  2.37726554e-01, -1.42724663e-01,
         2.64644027e-01, -6.57759309e-02, -5.41097045e-01,
        -2.23979115e-01,  2.14973912e-01, -1.18581899e-01,
        -7.25297257e-02, -2.06713349e-01, -3.74802202e-01,
         2.34117117e-02,  5.90460077e-02,  2.13466641e-02,
         1.64321482e-01, -4.76854384e-01, -9.20475088e-03,
         1.06901757e-01,  3.63507837e-01, -7.34249130e-02,
         3.14706385e-01,  2.15805262e-01, -4.10526916e-02,
         3.46106917e-01,  3.09479028e-01,  2.39098087e-01,
         5.35276718e-02,  5.29771149e-01, -9.68993828e-02,
         2.39656314e-01,  1.50459304e-01, -3.42299700e-01,
         2.87656695e-01],
       [-1.73323661e-01,  1.17924511e-01,  1.19753920e-01,
         8.84751752e-02,  5.78964725e-02,  1.79224744e-01,
        -2.15691045e-01,  1.92695871e-01,  4.13557850e-02,
         1.03109352e-01,  2.63520271e-01,  1.14311627e-03,
        -5.37589312e-01, -2.67573565e-01, -1.70358062e-01,
        -1.64785281e-01, -8.82412121e-02,  1.92096084e-01,
         7.33913928e-02, -1.65598273e-01, -4.24277559e-02,
         1.07517153e-01, -1.81706995e-01,  4.81664985e-01,
         1.03958445e-02, -1.08786672e-01, -1.74587399e-01,
         3.21613580e-01, -1.87499657e-01,  2.17011541e-01,
         4.81859773e-01, -1.16864309e-01, -1.26632392e-01,
         1.66157216e-01, -7.41505399e-02, -2.79691778e-02,
        -1.12163343e-01, -7.40921404e-03, -1.89265400e-01,
        -2.97397412e-02, -1.77315399e-02,  4.89438139e-02,
        -3.39590728e-01,  1.84998033e-03, -1.35168701e-01,
        -2.62491256e-01,  1.21980809e-01,  1.70697668e-03,
        -1.79242969e-01,  1.10759027e-01,  2.64494866e-01,
         1.76278189e-01,  4.11628485e-01, -2.35510126e-01,
         4.81413156e-01,  3.14964533e-01, -5.70527725e-02,
         1.16083004e-01, -1.55899478e-02,  1.27152115e-01,
         6.95632026e-02,  1.02181338e-01,  4.96353395e-02,
         1.01918422e-01],
       [-3.03214528e-02,  9.16501731e-02,  1.75693989e-01,
        -2.32040331e-01, -1.72229841e-01, -1.88356236e-01,
        -2.89141655e-01,  1.60684571e-01, -2.02337205e-01,
        -3.71925719e-02, -1.20575808e-01, -4.81204838e-01,
         1.48000956e-01, -8.85143727e-02,  2.51123141e-02,
         9.60943177e-02,  8.18771422e-02,  5.52376397e-02,
        -1.57975033e-01, -3.12846899e-01, -3.60034802e-03,
        -6.05082989e-01, -3.32332462e-01, -1.24915458e-01,
        -1.14158094e-01,  8.63678679e-02,  1.00305647e-01,
         9.01538283e-02,  8.96226391e-02,  1.96114078e-01,
         1.65475756e-01,  5.13021313e-02, -1.39185891e-01,
         2.65260756e-01,  1.60273880e-01, -4.70481187e-01,
         1.98141895e-02,  1.46776557e-01,  3.15915585e-01,
         1.08518533e-01, -2.94349998e-01,  1.91801582e-02,
         8.76333416e-02, -1.12122953e-01, -8.79373178e-02,
         3.08316767e-01, -2.68252999e-01, -4.57542092e-02,
        -9.11957864e-03, -3.40567231e-01,  4.54397142e-01,
        -1.06160685e-01, -7.36779571e-01, -2.95698434e-01,
         8.92826319e-02,  1.89637750e-01, -1.72921017e-01,
        -2.12794527e-01, -7.36880153e-02, -7.80016601e-01,
         3.38293940e-01,  1.28855839e-01, -5.33782952e-02,
        -2.08605349e-01],
       [ 3.21813285e-01, -3.21447551e-01,  2.68993348e-01,
        -1.04600973e-01,  4.60401252e-02,  2.89399862e-01,
        -3.91897976e-01,  2.93514170e-02,  6.62347004e-02,
         1.52905270e-01,  1.32467030e-02,  4.84266281e-01,
         1.93300605e-01, -9.98083577e-02, -1.77747592e-01,
         5.61489388e-02,  2.43984252e-01,  1.35931388e-01,
         1.80768013e-01, -7.51568019e-01, -2.07966357e-01,
         3.21719417e-04, -1.03862032e-01,  5.15332222e-01,
         1.94541708e-01, -5.44650946e-03,  1.20549873e-01,
         5.29706255e-02, -4.05650698e-02,  3.03402096e-02,
        -2.81964034e-01,  2.81488270e-01,  5.05811274e-02,
        -9.67197716e-02, -2.74678022e-01, -4.47039455e-02,
         3.11888218e-01, -2.33299448e-03,  3.02261323e-01,
        -2.11900324e-01,  3.84284377e-01, -3.31650227e-01,
        -6.14605844e-02,  8.98198560e-02, -1.25289917e-01,
         3.32257211e-01,  5.00026286e-01,  5.32443941e-01,
         1.38617754e-01, -1.35529488e-02, -2.23757550e-02,
         2.38038525e-01,  2.92638302e-01,  1.65455192e-01,
        -1.35187596e-01, -1.56305924e-01,  8.50846320e-02,
         1.22852340e-01, -1.49905530e-03,  2.50450283e-01,
        -4.29787576e-01,  9.29749012e-02, -9.57481004e-03,
         6.11110292e-02],
       [ 3.44965199e-04, -1.01523004e-01, -1.79908887e-01,
        -1.53491631e-01,  5.91566078e-02,  2.32075915e-01,
        -7.45268822e-01, -2.71124337e-02, -2.49366298e-01,
         1.52815729e-01, -2.39756793e-01,  2.54123420e-01,
        -3.50818962e-01, -6.55096024e-02,  4.40828025e-01,
         1.21683059e-02,  9.91676971e-02,  1.20695025e-01,
         1.02825634e-01,  1.78130239e-01, -1.29178405e-01,
        -4.57766265e-01,  2.20791146e-01,  3.21693212e-01,
         1.57636508e-01,  2.22258225e-01, -8.09404941e-04,
         2.07643867e-01, -1.79144546e-01,  2.53453553e-01,
        -2.45547101e-01,  7.21928895e-01,  1.53414607e-01,
         1.79158375e-01,  2.42039412e-01,  1.11557722e-01,
        -6.49514079e-01, -7.14003965e-02,  2.08582468e-02,
        -1.13993406e-01,  8.40707868e-02, -4.40845609e-01,
         3.50015014e-02,  8.58756453e-02, -1.29419357e-01,
         1.93529293e-01,  2.94837207e-01, -1.84824929e-01,
        -7.35690296e-02,  1.46277368e-01, -3.58131617e-01,
        -7.58593604e-02, -1.11775827e-02, -1.95752054e-01,
        -4.32124794e-01, -3.34597856e-01,  8.16653669e-02,
        -3.33172716e-02,  5.05179524e-01, -3.44323575e-01,
        -2.48479456e-01,  1.50418535e-01, -1.00157909e-01,
        -1.95412442e-01],
       [-7.16270149e-01,  1.36225820e-01,  1.70227850e-03,
         1.35201558e-01,  1.34782083e-02, -9.88835935e-04,
        -1.19933061e-01,  1.97877571e-01,  4.70753349e-02,
        -1.43733546e-01,  1.15206972e-01, -3.96786898e-01,
        -9.40544903e-02, -5.90733469e-01,  2.73244027e-02,
         9.63889882e-02, -4.31069225e-01,  4.30415273e-02,
         3.13873798e-01,  3.17605942e-01, -9.50932801e-02,
         5.32126948e-02,  5.99410608e-02, -1.33622149e-02,
        -2.30187982e-01,  1.69139028e-01,  5.95018342e-02,
         1.79404244e-01, -1.56649768e-01,  1.48497030e-01,
         2.46079236e-01, -2.26733446e-01, -2.22519964e-01,
         3.33949775e-01,  1.65002093e-01,  1.31347433e-01,
        -4.84354854e-01,  1.04075462e-01, -8.73882547e-02,
        -9.44830924e-02,  1.26260757e-01,  4.56121899e-02,
         6.58815950e-02, -4.03174050e-02,  1.58209085e-01,
         1.55505866e-01, -1.28740087e-01,  4.43514645e-01,
         6.81437328e-02,  2.26775691e-01,  1.64020479e-01,
         2.19382495e-02,  1.65940195e-01,  1.21589690e-01,
         2.08423510e-02,  1.82572603e-01,  4.84510586e-02,
         3.39235395e-01, -4.81114119e-01, -5.27716279e-01,
         5.00029922e-01, -2.09614467e-02, -1.65530205e-01,
        -2.30649754e-01],
       [ 3.15325439e-01, -2.41425931e-01, -6.63199350e-02,
        -1.69239849e-01, -1.53924851e-03, -2.26369929e-02,
        -3.42809483e-02,  5.73883206e-02,  1.68700784e-01,
        -6.34999946e-02,  2.38798633e-01, -1.98165402e-01,
         2.03695539e-02, -6.97985338e-03, -2.22647086e-01,
        -8.71166885e-02,  2.22958386e-01,  2.09862202e-01,
        -1.09449744e-01, -4.21391279e-01, -2.82862484e-01,
        -1.63589478e-01, -1.05300999e+00, -1.07497461e-02,
        -2.49813408e-01, -1.71934545e-01, -1.14972234e-01,
         2.45540932e-01,  6.21746294e-02,  3.04644525e-01,
         1.69821799e-01,  3.76374453e-01, -1.09212601e+00,
        -1.18379250e-01,  1.43574728e-02,  3.75448346e-01,
         3.11344564e-01,  3.03470362e-02,  3.00022483e-01,
        -1.29056096e-01,  3.87719482e-01,  3.49818379e-01,
        -3.45206894e-02, -3.59253213e-02,  3.12709175e-02,
        -1.71736807e-01,  3.36042866e-02,  9.46847070e-03,
        -6.33207336e-02, -1.60643116e-01,  5.55493772e-01,
         1.16417661e-01,  1.09203167e-01,  1.82872534e-01,
        -2.05306038e-01,  2.55088001e-01, -2.59702414e-01,
        -4.33244482e-02, -3.04671466e-01, -2.56052673e-01,
         4.15194511e-01,  2.01970205e-01, -9.56405878e-01,
        -1.91891156e-02],
       [-1.66634191e-02,  1.39809325e-01, -3.22176248e-01,
        -2.72374600e-02, -3.38331014e-01,  3.63859594e-01,
         4.72216047e-02, -2.04278216e-01,  5.85340485e-02,
        -2.52148092e-01, -1.38696685e-01,  9.33917090e-02,
        -4.05141652e-01,  1.51278615e-01, -5.08362800e-02,
        -2.33684480e-01, -2.37832382e-01, -1.34919539e-01,
        -1.58320874e-01,  2.67923325e-02,  5.65432291e-03,
        -6.82662800e-02,  7.64532089e-02, -2.83000648e-01,
         2.55287111e-01, -6.91629574e-03, -1.40444502e-01,
        -3.76059227e-02, -1.98963702e-01,  1.03076175e-01,
        -2.38722503e-01,  8.39168653e-02, -2.65446246e-01,
         1.22742973e-01, -9.37599167e-02,  1.36082977e-01,
         2.20778093e-01, -8.21904615e-02,  2.60477751e-01,
        -2.30781347e-01,  3.60959202e-01, -1.63673192e-01,
         2.43869349e-01,  3.09210807e-01, -3.20773154e-01,
        -6.93793595e-01,  4.37716097e-01,  2.57956564e-01,
        -7.28611410e-01, -9.53914374e-02,  3.04239720e-01,
        -2.97585934e-01, -3.82505715e-01, -9.13094804e-02,
        -1.12749510e-01, -1.19275101e-01,  2.18464509e-01,
        -5.91969304e-03,  1.71338126e-01, -3.43348205e-01,
        -3.02152932e-01,  6.46368787e-02,  5.87325767e-02,
         2.94778228e-01],
       [-3.50033224e-01, -2.41713643e-01, -1.73284821e-02,
         1.09150805e-01,  3.83200459e-02, -3.45277220e-01,
        -2.69520491e-01,  7.94985816e-02, -1.29689714e-02,
        -2.80023456e-01, -6.69452325e-02,  1.11545123e-01,
        -1.27733380e-01,  1.74414530e-01,  7.59429939e-04,
         7.69332573e-02, -4.12653774e-01, -2.63447434e-01,
         1.48872867e-01,  6.37657940e-02,  7.75494799e-02,
        -2.51515228e-02, -1.31629780e-01,  1.66276619e-01,
        -1.97287366e-01, -1.76736429e-01,  1.63728938e-01,
        -2.19834417e-01, -1.39028400e-01,  1.07059710e-01,
         1.25185564e-01,  1.75822824e-02,  7.06229061e-02,
        -1.71932355e-01, -1.14173725e-01,  2.90140100e-02,
         1.43219903e-01,  1.78748712e-01,  4.40393478e-01,
        -5.29848412e-02,  2.32108951e-01,  1.39952034e-01,
        -3.13907236e-01,  1.91189006e-01, -1.10689029e-01,
         2.34525517e-01, -9.74825695e-02, -1.70395598e-01,
         2.46351495e-01,  1.92080304e-01, -6.88503608e-02,
        -4.13894266e-01, -7.33198151e-02,  4.34611261e-01,
         3.81130666e-01, -2.33001150e-02, -3.77521992e-01,
        -3.02677035e-01,  1.67414472e-02,  8.31378438e-03,
        -1.96147084e-01, -2.30377197e-01,  1.32578790e-01,
         2.17667773e-01],
       [ 5.15265130e-02, -5.80516979e-02,  2.08392486e-01,
         3.00932467e-01,  2.87988603e-01, -4.52209860e-01,
         1.69745028e-01, -7.74249554e-01, -2.25565866e-01,
        -3.66019964e-01, -4.63697780e-03, -9.54993844e-01,
         3.59387584e-02, -1.79212242e-01,  8.00822303e-02,
         5.14999665e-02, -3.85825425e-01, -2.97413439e-01,
        -5.97613640e-02, -5.73948249e-02,  4.90456112e-02,
        -1.18033811e-02, -2.20934272e-01, -3.17951947e-01,
         3.56101662e-01, -2.22341269e-01,  1.66884169e-01,
        -4.32057500e-01, -6.31290525e-02, -7.61034846e-01,
        -3.49667460e-01, -2.56269872e-01, -1.10937111e-01,
        -5.03463328e-01,  4.53009814e-01, -3.89959328e-02,
        -3.83685887e-01,  1.23065375e-01, -4.00939792e-01,
        -5.73286675e-02,  5.06113702e-03,  2.73177922e-01,
         3.93526435e-01, -6.92500845e-02, -6.43880069e-02,
         6.13617718e-01, -7.47252464e-01, -7.97536597e-02,
         5.84001303e-01, -1.10820919e-01,  1.53829291e-01,
        -2.65997052e-01,  8.18679035e-02,  1.83820114e-01,
        -5.79381846e-02,  3.88104737e-01, -4.01606053e-01,
        -2.22791284e-01,  5.28312981e-01, -3.87421787e-01,
         1.72091618e-01,  2.87477206e-02,  8.03717151e-02,
        -6.53316855e-01],
       [-4.15397063e-03,  1.37624279e-01, -7.35219896e-01,
        -1.35003746e-01,  1.78726930e-02,  3.79376888e-01,
        -1.64795086e-01, -1.66481197e-01, -4.96192127e-02,
        -3.77448440e-01, -1.48296580e-01,  4.51631218e-01,
        -6.30633116e-01,  9.02690142e-02, -6.03268981e-01,
         3.95693518e-02,  9.95451286e-02,  6.60563931e-02,
         1.17625698e-01,  2.13702358e-02,  3.79114747e-02,
         2.16057990e-02,  2.99735546e-01, -2.51901466e-02,
         2.89012372e-01,  4.62748334e-02, -6.53541923e-01,
        -5.97816035e-02, -1.75892740e-01,  2.77764350e-02,
        -5.34362853e-01, -1.63006186e-02,  7.39154220e-02,
         6.35576785e-01, -2.94698142e-02, -4.85127062e-01,
         1.13286392e-03,  1.13643669e-01, -3.53464782e-02,
        -2.59405881e-01, -9.35266390e-02,  2.05677375e-01,
         2.21575856e-01,  6.73101917e-02, -3.70524466e-01,
        -4.38757807e-01,  2.34890267e-01,  3.93585980e-01,
        -1.34452152e+00,  2.14341268e-01,  2.66962230e-01,
         8.56119022e-02, -9.81406748e-01, -1.49687201e-01,
        -2.09697425e-01, -1.85904518e-01,  4.64201778e-01,
         4.57943141e-01, -1.49653196e-01,  1.56358499e-02,
         5.75616248e-02,  6.52187318e-02, -2.31009675e-03,
        -1.93494588e-01],
       [ 1.17107682e-01, -1.95255727e-01, -8.69745016e-02,
         4.00891006e-01,  4.30460900e-01, -2.32324034e-01,
         3.61047536e-02,  2.40209587e-02, -1.21862523e-01,
        -4.34974968e-01, -3.35357003e-02,  4.38628018e-01,
        -1.26987353e-01,  2.13313531e-02, -4.40953672e-01,
        -4.14734632e-02, -1.76049292e-01,  2.08089799e-02,
        -1.29850045e-01, -1.78588286e-01,  2.75536597e-01,
         1.35010257e-01, -1.24190859e-02,  4.28932682e-02,
        -3.97233874e-01,  1.02624267e-01, -1.03754930e-01,
         1.50786400e-01, -2.92520434e-01, -4.64430451e-02,
         5.95458448e-02, -6.23155385e-02,  1.28297448e-01,
         5.88509673e-03,  3.18830997e-01,  1.18218608e-01,
         8.38223696e-02, -1.64606765e-01, -2.01105520e-01,
         1.45139679e-01, -1.97967663e-02, -7.28477463e-02,
        -1.69103250e-01, -1.74153984e-01,  2.45640635e-01,
        -1.42084882e-01, -1.07459445e-02, -3.25945318e-02,
        -1.46320492e-01, -2.45939896e-01, -3.34392525e-02,
        -1.66395769e-01,  1.75086170e-01, -1.53392991e-02,
        -1.44569814e-01,  2.33644441e-01, -1.24590203e-01,
         6.98234839e-03, -6.66723549e-02,  1.50844723e-01,
        -1.15150914e-01, -6.01675734e-02,  1.82542145e-01,
         1.20418333e-01],
       [-4.17202294e-01, -3.08406264e-01,  1.37008995e-01,
        -8.67626742e-02,  1.77597508e-01, -2.52112687e-01,
        -4.93262321e-01, -1.60018727e-02,  5.48158959e-03,
        -3.06195289e-01, -1.85930021e-02,  1.16843686e-01,
        -6.60706162e-01,  8.32476467e-02, -2.21568778e-01,
        -1.23974688e-01,  3.18538472e-02,  8.76395777e-03,
        -1.45602539e-01,  1.30092993e-01, -1.16468081e-02,
         3.72657855e-03, -4.63015437e-01, -1.37492180e-01,
        -6.72764361e-01, -2.86600649e-01,  4.77487534e-01,
         1.64446115e-01, -2.83417087e-02, -1.39642105e-01,
        -2.03369007e-01,  1.85307160e-01,  1.42895550e-01,
         1.15035564e-01,  1.11345723e-01,  2.54252162e-02,
         5.50348833e-02, -1.66265994e-01,  4.07860689e-02,
        -2.02014633e-02, -4.64831382e-01,  4.30039585e-01,
         1.08950064e-02, -8.67447481e-02,  1.85743645e-01,
         2.25684777e-01, -1.34298816e-01, -5.54955125e-01,
         3.63718808e-01, -2.84933820e-02,  3.60285640e-02,
        -2.02462506e-02,  4.84879166e-02,  2.31470019e-01,
         1.84063002e-01,  3.27229232e-01,  2.08185092e-01,
        -8.34033489e-02,  1.68418184e-01,  2.22508926e-02,
        -1.29552037e-01, -1.48635551e-01,  2.65857488e-01,
        -2.85608739e-01],
       [ 3.70358407e-01,  5.88397356e-03,  1.21316323e-02,
         1.17459819e-02,  1.89333305e-01,  2.44856238e-01,
         4.10277545e-01, -4.46627736e-01, -2.43448213e-01,
         5.23545817e-02,  3.60302478e-02, -2.54429847e-01,
        -2.67932285e-02,  1.02975667e-01,  2.72596210e-01,
        -8.00027773e-02,  2.51526590e-02, -1.07091010e-01,
        -2.13729385e-02, -6.74473271e-02, -2.62416542e-01,
         9.02647451e-02,  2.35748306e-01,  3.30850296e-02,
         1.84436128e-01, -1.37080088e-01,  7.83935711e-02,
         3.57842356e-01,  5.82170635e-02,  4.38114181e-02,
        -2.12320402e-01, -2.88150191e-01, -3.52960825e-01,
        -3.68104905e-01, -7.18709230e-02,  3.43799055e-01,
        -2.13652208e-01, -3.68558586e-01, -6.82738543e-01,
        -2.10130215e-02, -1.29438743e-01,  3.39809030e-01,
         4.01562393e-01, -2.23529831e-01,  1.20965131e-01,
         9.38941836e-02,  3.98270003e-02,  1.22527950e-01,
        -7.78402314e-02, -3.89350384e-01,  9.24311802e-02,
         2.42036760e-01, -3.87917578e-01,  3.41817528e-01,
         2.37395172e-03,  8.09285343e-02, -2.30786487e-01,
         6.07401691e-02,  3.97038072e-01,  2.90731162e-01,
        -6.82743415e-02, -1.45559326e-01, -3.20201367e-01,
        -2.63221860e-01],
       [-2.09986586e-02,  2.90499896e-01, -2.01886132e-01,
         3.18024457e-01,  2.01983556e-01,  4.00081836e-02,
         3.56045626e-02,  1.70340054e-02, -2.26857200e-01,
        -3.48239660e-01, -1.00646332e-01,  5.03920078e-01,
        -1.68773130e-01,  1.85989588e-01, -2.12572858e-01,
        -7.67493993e-02,  7.56473616e-02,  4.04990800e-02,
         5.24445958e-02,  5.43350838e-02, -1.74586266e-01,
        -5.04610762e-02, -1.48982599e-01,  1.69780046e-01,
        -1.85893595e-01,  1.02418691e-01, -2.97602296e-01,
        -1.61159918e-01, -2.28206202e-01, -1.47751674e-01,
         3.27440016e-02,  1.54683769e-01,  2.08507642e-01,
         4.03023094e-01,  2.00866550e-01, -1.65462255e-01,
         2.33661637e-01,  9.71454865e-05,  7.67185092e-02,
         9.92759019e-02,  1.86435372e-01,  4.98057939e-02,
         9.33994353e-03,  1.39120251e-01, -1.67072341e-01,
         1.92112643e-02, -2.90938795e-01, -1.10213675e-01,
        -1.38655648e-01,  9.22282636e-02,  3.22356790e-01,
        -1.35192648e-01, -2.26805300e-01,  5.17790653e-02,
        -4.27187374e-03,  1.34952039e-01, -2.58044880e-02,
        -1.62123322e-01,  2.51778692e-01,  4.56429332e-01,
        -1.54037759e-01, -2.72299349e-01, -5.07859513e-02,
         1.88278288e-01],
       [-2.89738894e-01,  1.72266213e-03, -1.54717848e-01,
         1.78481355e-01,  6.72427192e-02, -2.03655437e-01,
        -3.83510709e-01,  8.70225579e-02,  8.42576474e-02,
         7.64982328e-02,  1.66875437e-01,  2.98187733e-01,
        -1.03193812e-01, -4.61068779e-01, -1.24803454e-01,
        -2.91994922e-02,  3.87594849e-01, -5.53825319e-01,
         2.40363404e-02, -4.57448632e-01, -3.05026591e-01,
        -2.25000024e-01, -2.49830529e-01,  7.47760460e-02,
         2.21807405e-01,  1.27957523e-04, -3.77504639e-02,
         3.45426261e-01,  1.18044145e-01, -1.76654115e-01,
         3.10118139e-01, -9.71268043e-02,  3.00504684e-01,
        -4.58548516e-01, -4.25340950e-01,  2.34608173e-01,
         3.48297685e-01, -8.88884962e-02,  1.17621437e-01,
        -2.15838179e-01,  2.10876092e-01,  1.71178728e-01,
         1.13913842e-01, -3.13865319e-02,  3.38728547e-01,
         1.95049420e-01,  3.85104045e-02,  1.62307978e-01,
        -1.74581222e-02, -4.82263923e-01,  9.33747888e-02,
         3.84309851e-02, -1.96909711e-01, -3.11817098e-02,
        -1.32283926e-01,  3.80885869e-01, -9.84777929e-04,
        -7.67030893e-03, -4.06186767e-02, -7.01699317e-01,
         9.23382565e-02, -1.52874906e-02, -1.01985753e-01,
         3.10201377e-01],
       [-1.56890929e-01,  1.32821798e-01, -4.42791171e-02,
         8.70331675e-02,  1.20972745e-01,  1.16626136e-01,
         9.49200094e-02, -8.18305314e-02, -2.29453877e-01,
         1.85515538e-01,  1.95192903e-01,  9.51219164e-03,
        -5.70803285e-01, -4.32696790e-01,  5.13013937e-02,
        -1.67172000e-01,  3.20410401e-01, -2.35909805e-01,
         1.82997867e-01, -3.75561595e-01, -2.02846557e-01,
         1.53803542e-01,  3.47365856e-01,  3.64600480e-01,
         1.31854728e-01, -1.04537688e-01, -9.01233107e-02,
        -1.51583955e-01, -2.95084435e-02, -1.81822270e-01,
         7.97908232e-02, -2.91930944e-01,  2.00103745e-01,
         1.50237560e-01,  2.44119927e-01,  2.79380381e-01,
         2.33381346e-01, -3.51911306e-01, -8.84323865e-02,
        -9.68900993e-02, -2.48281643e-01,  2.60156125e-01,
         7.35059008e-02,  2.80440986e-01,  8.80039707e-02,
         4.47394848e-01,  1.58806980e-01,  4.97732610e-01,
        -4.25255954e-01, -2.28424713e-01,  3.57381292e-02,
         2.45130733e-01,  1.81214735e-01,  1.35252357e-01,
        -2.68694341e-01,  1.35610104e-01,  5.26271015e-02,
         1.84196949e-01, -1.40657783e-01, -3.85845810e-01,
         3.88581157e-01,  5.18877059e-03,  1.02916278e-01,
        -1.12216607e-01],
       [ 4.00182337e-01,  1.10071339e-01, -3.35361250e-02,
         1.90761253e-01,  4.56065983e-01,  1.01355560e-01,
         2.30932757e-01, -2.40407705e-01, -1.57059520e-01,
         8.45898911e-02,  1.91419914e-01, -4.55958173e-02,
        -1.42418340e-01,  4.55591828e-02, -7.71572590e-02,
        -2.33128265e-01,  3.21994834e-02, -6.54305443e-02,
        -1.48404911e-01,  8.23759437e-02, -2.50411704e-02,
         2.64455136e-02, -2.11658496e-02, -9.85052288e-02,
        -2.23090854e-02, -1.98845416e-01, -1.87689103e-02,
        -6.41728565e-02, -5.86574897e-02, -3.01161349e-01,
         4.79044951e-02, -1.72205403e-01, -1.98252991e-01,
        -1.09765403e-01,  1.96226183e-02,  3.71843725e-02,
        -1.12965824e-02, -3.42696905e-01, -4.22433794e-01,
        -1.92021117e-01, -2.53198177e-01,  4.04237628e-01,
        -3.29283662e-02, -1.10991634e-01,  3.17280173e-01,
         6.10875301e-02,  4.18691933e-01, -1.62377059e-01,
        -3.97012651e-01, -1.68476671e-01,  9.32895392e-02,
         1.74693942e-01,  2.26014853e-01,  9.96625423e-02,
         1.05602413e-01, -5.89641510e-04, -3.45299929e-01,
         1.61891773e-01,  5.86858690e-02,  5.74591100e-01,
        -7.32687950e-01, -1.07070684e-01, -7.26677924e-02,
        -1.63049996e-01],
       [-1.47432722e-02, -1.49452314e-01, -1.69546813e-01,
         1.09685466e-01, -3.78561057e-02, -2.24116459e-01,
        -9.90379974e-02,  1.72209516e-01,  1.28959447e-01,
        -1.15451954e-01, -1.24879427e-01,  7.08671883e-02,
         7.40827993e-02,  3.01702656e-02, -5.85333779e-02,
        -7.87630975e-02,  3.73696953e-01, -7.81521872e-02,
        -1.98562711e-01,  1.05740398e-01, -1.37478039e-01,
        -1.49139613e-01, -3.16876233e-01, -2.64873356e-01,
        -2.43381411e-01,  3.86337936e-01, -2.82028109e-01,
        -1.67905554e-01, -2.66777799e-02, -1.21934824e-01,
         3.06820851e-02,  4.65445668e-02, -1.42210901e-01,
        -2.70203501e-02,  1.52572647e-01, -4.64942977e-02,
         2.25385711e-01,  2.27837294e-01, -6.88273041e-03,
         9.43486392e-02, -1.71860278e-01,  3.09658080e-01,
        -7.42580220e-02, -2.55477697e-01,  1.52604431e-01,
        -1.21328227e-01, -5.24043918e-01, -6.51431620e-01,
         1.40295550e-01, -2.53267765e-01,  2.62858551e-02,
        -4.00087416e-01,  3.49507034e-02, -7.45862722e-02,
         1.23196661e-01,  2.38519341e-01, -1.51126802e-01,
        -4.48809922e-01,  2.33042657e-01, -1.69904828e-01,
         1.01405270e-01,  1.11427590e-01, -1.98771015e-01,
        -6.00669608e-02],
       [-1.04682708e+00, -2.31981352e-01,  3.06741089e-01,
         3.61122228e-02,  2.49128073e-01,  1.60939261e-01,
        -2.35803470e-01,  4.49370533e-01, -2.63888929e-02,
         7.19194189e-02, -2.19729185e-01, -2.74183542e-01,
         1.77289799e-01, -1.33909613e-01,  2.67829876e-02,
        -1.35700107e-02, -4.16887030e-02,  5.55564873e-02,
        -2.27624848e-01, -5.71950555e-01, -1.07180826e-01,
         4.26468432e-01, -3.03135924e-02, -1.36161447e-01,
        -5.56775071e-02,  3.70170683e-01, -1.83669686e-01,
         1.65338501e-01,  2.21732199e-01,  1.89410269e-01,
        -1.87267169e-01,  4.77253273e-02, -7.63153359e-02,
        -2.32952252e-01,  1.53365970e-01,  5.09182155e-01,
         1.05636269e-01, -1.94180444e-01,  4.14033920e-01,
         1.30478188e-01,  3.65661174e-01,  2.00239107e-01,
         4.81721133e-01,  2.38839537e-02,  1.86186463e-01,
        -5.52992523e-02,  3.41129780e-01, -4.44489121e-02,
         1.89640492e-01,  7.05184489e-02, -2.79104114e-01,
         4.32020962e-01,  2.65319198e-01, -2.65964478e-01,
        -4.95280296e-01, -1.94521517e-01,  1.01273492e-01,
         2.87174672e-01, -7.17556253e-02, -1.74367681e-01,
         6.44698665e-02, -1.90887243e-01, -1.89807907e-01,
         7.83690810e-02],
       [-4.35972363e-01, -1.84106544e-01,  1.58682764e-01,
         3.60833377e-01,  6.99823443e-03,  3.79943959e-02,
         3.46852303e-01,  2.18605652e-01,  1.58694014e-01,
         2.85521179e-01, -3.94333094e-01, -3.56684595e-01,
        -5.65344803e-02, -9.15767312e-01, -1.90267861e-01,
         8.07674043e-03, -2.11090028e-01,  1.89003766e-01,
        -1.60657838e-01, -2.97842622e-01, -1.97555184e-01,
         4.37218964e-01,  9.50709134e-02,  7.73886964e-02,
         9.43949595e-02,  3.00913632e-01, -7.87531510e-02,
         9.57968682e-02, -1.77505538e-01, -2.79955178e-01,
         2.12794334e-01, -5.35292685e-01, -3.03071290e-01,
         1.64238811e-01,  2.18369946e-01,  3.48614454e-01,
         2.15146855e-01, -6.58905923e-01, -3.72028828e-01,
         1.71438262e-01,  3.98762584e-01, -2.75716670e-02,
        -3.56179595e-01, -9.69583839e-02,  7.76470751e-02,
        -2.99947262e-01,  4.59132582e-01,  3.09594750e-01,
        -3.66675526e-01,  2.93199122e-02,  1.51074067e-01,
         2.31868610e-01,  2.89245218e-01,  4.36407179e-02,
        -6.18636847e-01,  2.94680893e-01,  9.86589119e-02,
         9.72213000e-02, -2.92515624e-02, -1.28777698e-01,
        -4.25157547e-02, -2.94673946e-02, -6.53446540e-02,
        -8.60488042e-02],
       [ 4.10946935e-01, -1.31431162e-01, -2.22467557e-01,
         2.05620155e-01,  3.94749522e-01, -1.76616564e-01,
         4.15526092e-01, -3.49411517e-01,  4.35699932e-02,
         5.00365436e-01,  1.59890831e-01, -1.44949451e-01,
         2.34626710e-01, -2.14976341e-01,  1.20824352e-01,
        -2.69927680e-01, -1.85666800e-01, -1.06046826e-01,
         2.16691017e-01,  1.54442653e-01, -3.09993535e-01,
         3.41317683e-01, -3.71635765e-01, -3.31237555e-01,
         4.49466705e-02, -2.38125473e-01,  4.34125662e-01,
         1.71583444e-01,  1.24446794e-01,  2.70832270e-01,
         2.49122843e-01,  2.08527595e-01,  1.16191041e-02,
        -2.56217599e-01, -5.05808406e-02,  4.31756467e-01,
        -3.02027196e-01, -8.61748606e-02, -2.28217527e-01,
         5.04758582e-02,  5.27649410e-02,  1.11364022e-01,
        -3.13520953e-02, -1.39497519e-01,  5.56884587e-01,
        -2.93120593e-01,  5.54006360e-02, -2.99265891e-01,
         1.76734701e-01, -5.35277784e-01, -2.16213450e-01,
        -2.28536680e-01, -9.13425088e-02,  1.41290754e-01,
        -1.01799108e-01,  2.59993020e-02, -9.14841056e-01,
        -6.52268380e-02, -1.20306194e-01, -1.00599471e-02,
        -4.72285509e-01,  1.89132676e-01, -3.19760770e-01,
        -6.47142753e-02],
       [ 4.83869836e-02, -8.16397890e-02, -9.28871706e-02,
         2.02089623e-02,  2.13300884e-02, -9.49292481e-02,
        -4.00671005e-01,  3.37296695e-01,  3.50891985e-02,
         5.76036513e-01,  2.79781610e-01,  4.45029348e-01,
        -2.94784848e-02, -2.37294137e-01, -2.49083579e-01,
        -2.34435230e-01,  3.98466587e-01, -3.25670898e-01,
        -3.00760955e-01, -4.49032187e-01, -3.54357183e-01,
        -1.98235940e-02, -1.02785707e+00, -5.08616507e-01,
         1.40805230e-01, -1.21862732e-01, -5.84501959e-02,
         1.80335771e-02,  6.34918967e-03, -1.50788680e-01,
        -2.52816468e-01,  2.90768951e-01, -8.49348247e-01,
        -2.67744929e-01, -5.72152324e-02,  2.89644063e-01,
         1.82174370e-01,  1.87005162e-01,  3.77248786e-02,
        -1.12723507e-01,  1.14771023e-01,  2.54592240e-01,
         3.15529555e-01, -3.13624442e-01,  2.70721763e-01,
        -1.32948309e-01, -1.40035257e-01, -7.05335438e-02,
         5.33754081e-02, -5.61784923e-01, -2.77877629e-01,
        -8.55855048e-02,  5.91182530e-01, -3.08947444e-01,
        -1.17499784e-01,  2.07884684e-01, -1.50480896e-01,
        -1.41091809e-01,  1.80509716e-01, -3.40841979e-01,
         1.45228401e-01,  3.00124884e-01, -5.46189725e-01,
         3.78921300e-01],
       [ 1.67264745e-01,  2.61876494e-01,  2.20461503e-01,
         3.96322042e-01,  9.86549910e-03,  3.13706584e-02,
         9.19973478e-02,  2.83645511e-01, -1.18178986e-01,
         2.40923375e-01, -4.81123805e-01, -2.22674161e-01,
         2.08834201e-01,  1.75520733e-01,  1.61744788e-01,
         9.98283997e-02,  2.26550654e-01, -3.09336539e-02,
        -2.47212648e-01,  3.66019934e-01, -3.86838317e-02,
        -3.21793646e-01,  6.11636281e-01, -3.64284217e-01,
        -1.97625086e-01,  1.20907731e-01, -3.09012920e-01,
         2.09362619e-03,  5.67700267e-01, -1.96647123e-02,
        -2.74593771e-01, -1.11730024e-01, -2.24116594e-01,
         1.03589371e-01, -9.77331698e-02, -3.67732979e-02,
         1.90276831e-01,  2.35330120e-01, -2.12254569e-01,
         3.16256694e-02,  2.77527153e-01, -2.02830099e-02,
         4.56096865e-02,  3.60237993e-02, -1.25061199e-01,
        -4.03407991e-01,  2.13018343e-01, -2.58791804e-01,
        -2.16616213e-01,  6.88714907e-02, -9.54947770e-02,
        -1.21695898e-01,  1.07517339e-01, -2.45008960e-01,
        -1.36424750e-01, -2.81830430e-02,  2.56150239e-03,
         2.49082536e-01,  1.92827195e-01, -6.34625629e-02,
        -6.30733371e-02,  3.46249074e-01, -1.55320555e-01,
         4.15902883e-01],
       [-8.62723142e-02, -5.34642301e-02, -6.45453483e-02,
        -1.38571590e-01, -3.30936946e-02, -1.94863714e-02,
         1.51609918e-02,  2.96013802e-01, -3.82094942e-02,
        -2.57525206e-01,  1.17001459e-01, -4.05255318e-01,
         9.62719247e-02,  2.73609132e-01, -1.76307425e-01,
        -1.94209129e-01,  1.25684083e-01,  4.49885100e-01,
        -1.06144518e-01,  3.00925970e-01,  4.20323789e-01,
        -2.54150778e-01,  4.18863654e-01, -2.01182589e-01,
         1.25471503e-01,  4.91176136e-02,  1.50394008e-01,
         4.45188195e-01,  4.26039189e-01,  2.39146948e-01,
        -1.86783463e-01, -1.57420173e-01, -1.97853073e-01,
         1.19541995e-01,  2.65072048e-01, -2.31427744e-01,
        -1.93147138e-01,  6.37396336e-01, -1.28733486e-01,
        -2.38810331e-01,  1.87224206e-02, -1.14129797e-01,
         3.20606619e-01, -1.62974283e-01, -1.22510560e-01,
        -2.97763944e-01, -2.55905744e-03, -1.27426550e-01,
         1.46254420e-01,  8.52002501e-02, -1.31889611e-01,
         9.42717344e-02, -2.62083888e-01, -4.84373510e-01,
         1.24746189e-01, -3.03841949e-01,  2.03261990e-02,
        -1.47450104e-01, -2.62260854e-01, -1.86270177e-01,
         1.71580642e-01,  2.58497447e-02, -3.27616967e-02,
        -3.26482147e-01],
       [ 1.31366283e-01, -2.84658950e-02,  4.38756086e-02,
         1.81075200e-01, -9.22563314e-01, -2.70202458e-01,
         1.16943009e-01, -1.26597375e-01,  4.38009985e-02,
         7.82910511e-02, -9.45680290e-02,  2.65334755e-01,
        -4.32848036e-02, -5.37411869e-01,  7.10095912e-02,
        -8.19999278e-02, -1.92725211e-01, -4.70565781e-02,
        -3.08754444e-01, -1.36528850e-01,  9.84002575e-02,
        -3.35181765e-02, -2.95379579e-01, -3.09679925e-01,
         1.04606159e-01, -5.50471693e-02,  3.88101995e-01,
        -5.99911571e-01, -9.12903845e-02, -5.28037846e-01,
        -4.80754137e-01, -1.02946730e-02, -3.11483652e-03,
         3.73735547e-01,  2.10259303e-01,  1.71400726e-01,
        -4.65655252e-02,  6.27956772e-03,  7.57393762e-02,
        -1.63815985e-05,  3.71091008e-01,  1.07024334e-01,
         1.05230726e-01,  9.60592553e-02, -2.32116908e-01,
         2.34439075e-01,  9.89899784e-03, -2.33074158e-01,
         1.76343799e-01, -2.00552009e-02,  1.49240583e-01,
        -1.83987886e-01, -9.64115262e-02, -4.03341502e-01,
        -1.80606976e-01,  5.69701493e-02,  3.80996913e-01,
        -3.06297362e-01, -1.38427153e-01, -1.87274396e-01,
         1.19698338e-01,  5.12796760e-01,  2.12642595e-01,
         6.09061215e-03],
       [ 2.46085450e-02,  7.21710265e-01,  7.49044120e-01,
         2.56015778e-01,  2.65856236e-01,  2.06238300e-01,
        -2.56702662e-01,  3.08553100e-01, -2.25326747e-01,
         3.56708139e-01, -5.59249282e-01, -1.83765721e-02,
        -1.40810624e-01, -2.87249714e-01,  2.81852484e-01,
        -1.95665956e-01,  4.86253411e-01, -3.62888992e-01,
        -2.51122594e-01,  1.96984231e-01, -7.93036744e-02,
         1.85304031e-01,  2.32186437e-01, -1.41386017e-02,
        -1.29596338e-01, -1.32831693e-01, -7.54044652e-01,
        -4.58514899e-01,  3.63222301e-01,  6.39068037e-02,
        -2.19444185e-01, -1.06915943e-01,  1.50151655e-01,
        -1.31606320e-02,  7.36532584e-02, -4.98082712e-02,
        -2.54292022e-02,  1.82192214e-02, -6.34364486e-02,
        -9.03701261e-02,  4.75731313e-01, -2.02819690e-01,
         1.19084688e-02,  4.38875884e-01, -1.74620479e-01,
        -1.80422366e-01, -6.28023669e-02, -1.00201391e-01,
        -1.05926201e-01,  1.47672951e-01, -4.21853736e-02,
        -3.89528722e-01,  3.55706997e-02,  1.58489048e-01,
         2.09305733e-02, -6.03840947e-02, -2.69678563e-01,
         4.67970163e-01,  3.15135509e-01, -1.57067806e-01,
        -1.30444065e-01,  3.69332671e-01, -6.96286336e-02,
         3.00242841e-01],
       [-3.22678596e-01,  2.69399226e-01, -1.95761308e-01,
         2.30540723e-01, -1.42009005e-01,  2.13872567e-01,
         1.57776222e-01, -3.32343668e-01, -2.31018424e-01,
         3.41076434e-01,  8.82365480e-02, -1.19216166e-01,
        -8.30630139e-02,  7.12147430e-02, -2.58616477e-01,
         4.88350652e-02,  8.46894574e-04,  2.28679016e-01,
         1.86560631e-01, -2.73139954e-01, -2.61318624e-01,
        -1.70192167e-01,  1.74928773e-02,  2.70611048e-01,
         2.82213002e-01, -3.08446474e-02, -2.16454357e-01,
        -1.77935079e-01,  1.21331312e-01, -2.31675833e-01,
         4.14620303e-02,  2.72531420e-01,  3.56729478e-01,
         7.07852766e-02,  1.04461476e-01, -6.97964244e-03,
         2.56422460e-01, -4.49386418e-01, -1.77793831e-01,
        -2.01827988e-01,  2.14846000e-01, -1.47339866e-01,
        -1.15694091e-01, -4.52715039e-01, -1.71355978e-01,
         2.45856062e-01, -2.05816701e-01,  3.39160472e-01,
        -1.31802991e-01,  4.96105582e-01, -3.12222224e-02,
         2.90593714e-01,  6.88079894e-02, -2.99459755e-01,
         1.17620870e-01,  2.45227039e-01,  4.79674876e-01,
         2.34737948e-01, -3.43842596e-01, -1.63195446e-01,
        -2.28955485e-02,  2.01573625e-01,  2.96748042e-01,
         3.65054220e-01],
       [-1.96086243e-01,  4.30433117e-02, -2.47643203e-01,
        -1.89194791e-02, -2.15780094e-01, -8.10819045e-02,
         1.57581076e-01, -3.59824389e-01, -1.21391036e-01,
        -2.16896057e-01,  1.70001045e-01, -4.73706245e-01,
        -4.77350175e-01,  3.76149982e-01, -2.21732765e-01,
         5.89688309e-02,  1.66321099e-01,  2.49161497e-01,
        -1.05462305e-01, -2.46143583e-02,  2.34852545e-03,
         8.05798545e-02,  9.00094584e-02,  6.53696060e-01,
         5.50093651e-01, -2.27802947e-01, -1.07606284e-01,
         7.42309242e-02, -4.10248376e-02,  1.22677833e-01,
        -2.40980297e-01, -2.61313096e-02, -6.88492600e-03,
         1.40529752e-01,  1.51926726e-01, -3.77396166e-01,
         6.02749698e-02, -1.53712019e-01, -6.83706403e-02,
        -2.37483129e-01,  4.12480026e-01, -5.26843332e-02,
        -4.13991995e-02, -2.06074014e-01, -3.16708446e-01,
         8.51417556e-02,  1.63974419e-01,  1.16938546e-01,
         2.68077880e-01,  5.71826220e-01,  2.06737876e-01,
         4.10053670e-01,  4.61922511e-02, -6.18997142e-02,
         1.05782025e-01,  9.74872112e-02,  5.76613963e-01,
         4.36953269e-02, -3.88889343e-01,  2.07708150e-01,
         2.16777492e-02, -1.34148479e-01,  1.43181354e-01,
         4.30889167e-02],
       [ 2.29216099e-01, -9.74977668e-03,  4.40395176e-01,
        -1.20012961e-01, -8.91283989e-01, -5.73293082e-02,
        -1.73642188e-01, -2.65113622e-01,  6.85972050e-02,
        -6.63206503e-02,  3.57776046e-01, -1.13503590e-01,
        -1.87115446e-01,  2.42654517e-01,  6.20602727e-01,
        -8.82701054e-02,  2.46100157e-01, -2.21633270e-01,
         2.51508504e-01,  1.33170590e-01,  3.70562375e-02,
         5.07197320e-01,  8.59646648e-02, -3.49111706e-02,
        -1.42205700e-01, -8.95236358e-02,  2.94546187e-01,
         9.70998332e-02,  2.08036184e-01, -1.34258166e-01,
        -1.37422353e-01,  2.73172766e-01,  1.41080484e-01,
        -1.46586403e-01, -2.72221267e-01,  1.28451526e-01,
         1.29031256e-01,  2.08313782e-02, -2.38397822e-01,
        -2.61893660e-01,  2.72939652e-01,  1.09639600e-01,
         1.69408619e-01,  3.02380472e-01, -3.36176127e-01,
         3.57181996e-01, -1.65306255e-01, -1.91941261e-01,
         2.35603914e-01, -4.42112565e-01, -2.38175839e-01,
        -2.84739137e-01, -5.71037456e-02,  1.25431299e-01,
         3.33189107e-02, -2.38313630e-01,  3.97365987e-01,
        -2.06775621e-01, -2.18384579e-01, -7.37126768e-02,
        -2.13539362e-01,  1.12955108e-01, -6.56313151e-02,
        -3.92646939e-01],
       [ 5.14808595e-02,  4.39571887e-01, -2.48228088e-01,
         1.59984156e-01, -9.35564414e-02,  9.55781266e-02,
        -1.53057113e-01, -1.58568308e-01,  1.27419764e-02,
         9.18520764e-02, -2.14749336e-01,  1.14369713e-01,
         7.01595992e-02,  1.19288340e-01, -9.09295902e-02,
        -2.87958413e-01, -3.78186107e-02,  1.77525476e-01,
        -1.33224830e-01, -1.06929630e-01,  2.89872706e-01,
        -2.47537047e-01,  1.78973421e-01, -2.05632046e-01,
        -1.08354697e-02, -1.51669141e-02, -4.26414132e-01,
        -2.32392907e-01,  3.77380937e-01, -1.54278904e-01,
         2.32746944e-01,  7.63604194e-02,  2.74559587e-01,
         3.60182822e-02, -3.34184133e-02,  2.71112591e-01,
         1.10926628e-01,  1.14831731e-01, -2.21408233e-01,
        -9.89937857e-02,  1.85956564e-02, -1.83638081e-01,
        -1.86815947e-01, -5.07723354e-02,  2.33683512e-01,
         2.36237124e-01, -1.38365999e-01, -8.53011757e-02,
        -1.84139125e-02,  1.66440323e-01, -1.15144663e-01,
         3.58601660e-02, -3.29435728e-02,  1.07340761e-01,
         1.30271465e-01, -2.03186706e-01, -1.38764217e-01,
         1.00857615e-01,  6.74505811e-03, -6.36715144e-02,
         3.08857728e-02,  6.45581260e-02,  1.93880737e-01,
         4.59361851e-01],
       [-2.31550056e-02,  6.74230009e-02,  5.11283204e-02,
         3.26682985e-01, -4.42431778e-01, -3.78937781e-01,
        -1.87203586e-01,  1.55176237e-01, -2.21658871e-01,
         9.63409021e-02,  1.43433064e-01, -1.30008578e-01,
         1.24022089e-01, -1.04884259e-01,  1.03738010e-01,
        -4.10573967e-02, -2.37884633e-02,  6.51250780e-02,
        -3.41788940e-02, -2.68979687e-02, -7.73066878e-02,
        -1.75932229e-01,  3.89652669e-01,  2.28424460e-01,
         4.04928215e-02,  2.57870508e-03, -2.17105478e-01,
        -9.80376005e-02,  1.38260245e-01,  2.01927274e-01,
        -3.11396420e-01,  1.09748110e-01, -2.37410411e-01,
        -2.50688381e-02,  1.38645902e-01, -4.32685055e-02,
         1.81171298e-01, -3.43236744e-01,  1.01618402e-01,
        -5.01675755e-02, -1.10507838e-01,  4.12787408e-01,
         1.98639020e-01,  7.93397278e-02,  1.05223291e-01,
        -2.94238210e-01,  2.07530856e-02,  7.53764659e-02,
        -7.23029822e-02,  2.64397293e-01, -2.61800736e-01,
        -1.69136450e-01,  5.92356510e-02, -1.73638061e-01,
        -4.46082383e-01,  7.84482658e-02,  1.33866206e-01,
         1.00060500e-01, -8.46752375e-02, -9.22951698e-02,
         3.90549637e-02, -2.58334965e-01, -1.81533158e-01,
        -1.28848627e-01],
       [-1.25488460e-01,  2.02003390e-01,  4.06155318e-01,
         3.45338970e-01, -3.64393979e-01, -1.52686089e-01,
        -7.42837191e-02, -5.93506657e-02, -9.20329988e-02,
        -1.41071677e-01, -1.24144800e-01,  1.01442009e-01,
        -2.15377375e-01, -5.70913330e-02,  2.74727046e-01,
         4.54565883e-03, -2.45388255e-01, -1.39483422e-01,
         1.69417292e-01,  4.45178628e-01,  2.46258482e-01,
         2.78935611e-01,  4.53378409e-01,  3.83963466e-01,
         1.07962908e-02, -3.79074723e-01,  4.66624461e-02,
        -7.03224540e-02, -6.08980358e-02, -3.53493124e-01,
         2.68402677e-02, -3.51472169e-01, -2.08136037e-01,
        -1.45058177e-04,  2.62054652e-01, -2.57966787e-01,
         8.29481632e-02, -1.85167536e-01,  3.96145552e-01,
        -1.58681750e-01, -3.51477325e-01,  2.32031971e-01,
        -2.56939173e-01,  1.03927933e-01,  2.15267818e-02,
         1.83685962e-02,  3.00660312e-01,  2.99959898e-01,
         9.01095569e-02,  8.21502656e-02, -9.83707532e-02,
        -2.31354147e-01, -2.95055032e-01,  2.70603210e-01,
        -3.29021990e-01,  1.02777012e-01, -4.66463938e-02,
         1.58685252e-01, -3.42489928e-01, -8.47944841e-02,
        -1.65308416e-02, -2.78625429e-01,  1.91499516e-01,
        -4.17451054e-01],
       [-1.70357600e-01, -1.36372030e-01,  3.20246160e-01,
        -4.31466885e-02,  6.05270080e-03,  1.46681771e-01,
         2.28479624e-01, -2.39807457e-01,  7.63792023e-02,
         2.66294509e-01,  1.75633043e-01,  9.75019559e-02,
         8.16041827e-02,  2.80252457e-01,  2.16465130e-01,
         6.98411316e-02,  7.68228024e-02,  3.29494178e-02,
        -1.92575514e-01, -4.52774018e-02,  2.94886947e-01,
        -1.02999553e-01, -3.81565802e-02, -2.11724401e-01,
         5.31690046e-02, -9.97277815e-03,  2.38502279e-01,
        -4.90826041e-01, -2.53269911e-01, -4.75765727e-02,
         2.10693836e-01,  2.96753466e-01, -2.36125365e-02,
         6.10342622e-02,  1.44781932e-01,  2.94697955e-02,
         1.98500394e-03, -1.83376387e-01, -4.05101687e-01,
        -7.13630393e-02,  3.41754407e-01, -1.77980348e-01,
         2.88916618e-01,  3.22996736e-01, -2.96825171e-01,
         9.35951620e-03,  3.25574636e-01, -3.75617407e-02,
         3.81994508e-02,  1.28168985e-01, -2.31415108e-01,
         4.29252893e-01, -1.13552503e-01,  4.00860071e-01,
        -6.50084093e-02, -2.09058180e-01,  3.04358780e-01,
         3.71603936e-01,  9.70029831e-02,  3.15185100e-01,
        -2.40137830e-01, -2.18110271e-02, -3.81442636e-01,
        -2.51355976e-01],
       [-1.50945723e-01,  4.14216816e-02, -2.22953111e-01,
        -1.92266122e-01,  4.50679613e-03, -1.71533734e-01,
         1.51018143e-01, -5.00389338e-01, -3.00001521e-02,
         2.19673038e-01, -7.73425326e-02, -1.27242982e-01,
        -6.94601685e-02, -8.77376366e-03,  1.87742934e-01,
        -1.55615479e-01,  2.89266080e-01,  3.08229208e-01,
         2.60208040e-01, -2.06311405e-01, -5.54131746e-01,
        -5.49819112e-01,  1.25964448e-01, -1.49488002e-01,
        -1.99898437e-01, -2.00272992e-01,  2.33312994e-02,
         2.91567501e-02,  1.84992235e-02, -1.81580052e-01,
        -1.32819489e-01,  5.92782497e-01, -2.69966841e-01,
         4.32797000e-02,  2.46425852e-01, -1.55049652e-01,
        -4.61763181e-02, -1.19404688e-01, -6.15812205e-02,
        -9.48225483e-02, -6.13396466e-01, -1.33127630e-01,
         7.34045431e-02, -3.12559992e-01, -4.74976078e-02,
         7.77000263e-02, -3.42075318e-01, -4.18154188e-02,
         8.68713409e-02, -2.65356034e-01, -1.58007681e-01,
         2.42340028e-01,  2.42675617e-01, -2.12750018e-01,
        -1.31001905e-01,  2.96927616e-02,  3.30187827e-02,
        -1.02510704e-02, -2.14583632e-02,  2.01199889e-01,
         2.68765502e-02,  1.39726862e-01,  1.54159784e-01,
         1.43271700e-01],
       [-2.84978449e-01,  7.32249618e-02,  2.98820615e-01,
        -4.59619872e-02,  2.47958660e-01,  2.87806839e-01,
         4.59299773e-01,  1.54032275e-01, -2.59248149e-02,
         7.91838020e-03,  4.07649517e-01, -4.42299485e-01,
         1.11107066e-01, -1.96170464e-01,  1.88295729e-02,
        -7.20982850e-02, -4.93864231e-02, -2.52427965e-01,
        -3.59831691e-01, -3.88707787e-01,  1.70770302e-01,
         1.59454182e-01, -1.99896827e-01,  1.65329173e-01,
         5.79724498e-02, -2.90475965e-01, -5.41577637e-01,
        -5.63985631e-02, -4.42369282e-02, -2.79691845e-01,
        -1.09009840e-01, -3.12399834e-01, -2.69954894e-02,
         7.09721446e-02,  1.75342530e-01, -6.70578554e-02,
         5.01009151e-02, -1.27539635e-01,  7.27575198e-02,
         7.99651444e-03, -6.54290095e-02,  3.28535050e-01,
         3.23723644e-01,  6.98442608e-02, -2.79710919e-01,
        -2.05452908e-02, -1.61310464e-01, -1.95331007e-01,
        -2.25546882e-01, -3.22974592e-01, -3.66460383e-02,
         7.07461610e-02,  1.83219761e-01,  8.50021243e-02,
        -3.65644664e-01, -3.88773561e-01, -2.27081686e-01,
         7.74322227e-02,  3.21025431e-01,  2.30772406e-01,
         4.84381527e-01, -2.79482335e-01, -8.23379517e-01,
        -4.34150994e-02],
       [-4.43963975e-01,  1.98264509e-01,  5.96672744e-02,
         3.81692499e-01,  3.51643264e-01,  2.58014381e-01,
         1.57158941e-01, -2.29277477e-01,  6.39781356e-02,
        -1.01694271e-01,  2.70191040e-02, -3.50417554e-01,
         1.78200647e-01, -4.04235989e-01, -3.46108079e-01,
         4.82529663e-02, -5.03436387e-01, -3.53064448e-01,
         1.35353372e-01,  1.27804071e-01, -4.72418852e-02,
         3.06323200e-01,  8.88975039e-02, -1.53355137e-01,
         2.60422915e-01, -3.53823788e-02,  1.19210206e-01,
        -2.93907464e-01,  3.67538005e-01, -3.33594382e-01,
        -7.89301544e-02, -7.70350814e-01,  9.40438956e-02,
         1.93210505e-02,  2.74582207e-01,  1.28167331e-01,
        -5.97759485e-01, -8.42131823e-02, -1.92167699e-01,
         5.40915653e-02,  1.22061446e-01,  3.96934748e-01,
        -1.29492491e-01,  6.37177983e-03,  1.42253190e-01,
        -4.00301218e-02,  3.45640093e-01, -1.24192826e-01,
         1.79937243e-01, -3.31326842e-01,  1.90604076e-01,
        -5.92334867e-01, -3.03853422e-01,  2.53011882e-01,
        -2.04860181e-01, -1.62728250e-01, -2.89992809e-01,
        -4.12726402e-02, -2.97341973e-01, -5.72672971e-02,
         2.06317782e-01,  7.06382319e-02, -3.96368295e-01,
        -3.73413712e-01],
       [-2.18467474e-01, -3.51496696e-01, -2.61546701e-01,
        -1.89552471e-01, -2.86060184e-01,  1.51741281e-02,
        -9.69867557e-02, -4.15750593e-01, -2.44434342e-01,
         4.40428220e-02, -4.15997565e-01,  3.11411880e-02,
         2.15443254e-01,  4.39005852e-01, -5.84319718e-02,
        -1.57550633e-01,  1.43416688e-01,  5.37689865e-01,
        -1.17253125e-01, -8.89454857e-02,  1.34449869e-01,
         1.45307228e-01, -2.12426558e-01, -2.62047678e-01,
         1.79405123e-01,  4.83421713e-01,  3.76367152e-01,
        -7.19315708e-02, -5.76824583e-02,  5.15370011e-01,
        -3.04019153e-01,  6.50739610e-01,  1.19508289e-01,
        -1.62072759e-02,  2.10386127e-01, -2.55700648e-01,
         1.13223195e-01, -2.32495502e-01,  1.23134658e-01,
         2.40560099e-02,  1.92425624e-01, -9.29570496e-02,
         1.67314932e-01,  1.23191565e-01, -3.38858336e-01,
        -2.98862398e-01, -1.90562159e-01, -9.18140486e-02,
         6.44933060e-02,  3.98030639e-01, -3.28365952e-01,
         4.26661998e-01, -8.95749703e-02,  3.42746049e-01,
        -5.45570433e-01, -1.93101332e-01, -6.81282133e-02,
         2.50140637e-01, -7.51020014e-02, -3.18529755e-01,
        -6.71103597e-01, -2.71825910e-01, -1.31610319e-01,
        -1.77473336e-01],
       [-1.61455154e-01, -2.00243846e-01,  1.93453521e-01,
        -2.55468190e-01,  2.86058672e-02, -2.05060929e-01,
         1.79967314e-01, -2.63853937e-01, -4.21827734e-02,
        -2.08300903e-01,  4.29946423e-01, -6.19465351e-01,
        -3.54708135e-01,  2.61287957e-01,  4.47077423e-01,
         6.01831935e-02,  2.95391046e-02,  1.32719994e-01,
        -1.13663666e-01, -1.03778012e-01, -3.09921563e-01,
         1.25110298e-01, -6.63072914e-02, -3.50064784e-01,
         2.62799084e-01, -6.77335143e-01, -3.94886404e-01,
        -3.65416594e-02,  3.01321834e-01,  1.08101207e-03,
        -1.72309786e-01,  1.52700543e-01,  1.07386522e-01,
        -6.21950217e-02,  3.94666702e-01, -4.33594257e-01,
        -1.17986903e-01, -1.02971829e-02, -3.53917927e-02,
         1.40240461e-01,  3.89495143e-03,  1.58348918e-01,
         3.05388093e-01, -2.07876578e-01, -1.77850842e-01,
        -5.88481367e-01,  1.13707632e-01, -7.26057496e-03,
        -1.00816421e-01, -5.81757501e-02, -4.38468665e-01,
         1.04881778e-01, -2.42163256e-01, -3.15261483e-01,
        -3.08312744e-01, -6.97192922e-02,  2.10024789e-01,
         1.61754057e-01,  9.77402646e-03,  2.29175225e-01,
         5.75650148e-02, -3.71417254e-02, -1.12621166e-01,
         1.52136564e-01],
       [ 2.18164772e-02, -2.67809540e-01,  2.05902219e-01,
        -3.61327142e-01, -8.89192075e-02,  2.82280594e-01,
         2.82971919e-01,  9.37598497e-02, -9.40042436e-02,
         8.51821825e-02,  8.13455135e-02, -4.42580730e-02,
        -5.52423205e-03,  1.06878087e-01, -4.78694998e-02,
        -1.84127867e-01, -1.75855175e-01, -9.63339433e-02,
         3.11523557e-01, -1.12968028e-01, -1.47437349e-01,
        -1.85112610e-01, -2.69342363e-01, -2.86795497e-01,
        -3.77983488e-02,  1.19366288e-01,  4.35571164e-01,
        -1.74711153e-01, -4.88682151e-01,  2.76084542e-01,
         2.88343310e-01,  2.65931129e-01, -1.16549484e-01,
        -1.67737365e-01,  1.43304110e-01, -1.25133172e-01,
         6.28128275e-02,  2.55035963e-02, -1.07851475e-01,
        -1.07897878e-01, -2.05262169e-01,  2.07573757e-01,
        -6.15246594e-03,  1.12391941e-01,  2.33119026e-01,
         1.53996259e-01,  3.09653342e-01,  1.53070420e-01,
         9.87064764e-02,  2.53251065e-02,  1.28451930e-02,
         8.52123275e-02,  2.98412681e-01,  1.07721545e-01,
         8.97950083e-02,  1.76530778e-01, -2.38529921e-01,
        -1.68497801e-01, -1.54846773e-01,  1.67658829e-04,
        -1.10753402e-01, -1.86781585e-01,  2.93090969e-01,
        -2.61487186e-01],
       [-6.02833629e-02,  1.70540959e-01,  7.02094510e-02,
        -2.54431576e-01, -7.50663728e-02, -1.97566420e-01,
        -2.39225730e-01,  1.76939294e-01,  9.41537097e-02,
         1.60378799e-01,  1.57109529e-01,  1.12745471e-01,
         3.34080867e-02, -1.13046676e-01, -3.31106454e-01,
         2.22715493e-02,  1.26119971e-01,  2.39235774e-01,
         3.50407735e-02,  1.34114593e-01,  4.14245501e-02,
         1.80194780e-01, -1.57103345e-01, -1.27494738e-01,
         3.64159085e-02,  1.61117613e-01,  5.37819788e-02,
         5.54330945e-02,  6.07359130e-03, -3.23588878e-01,
        -1.62293628e-01, -2.49721721e-01,  1.26234780e-03,
        -4.41723131e-02,  1.00350671e-01, -7.21790176e-03,
        -3.77868533e-01,  2.23069802e-01,  1.76509261e-01,
        -1.22170933e-02, -3.49254459e-01, -3.78145352e-02,
         2.56256700e-01,  2.11342946e-01, -1.22102275e-01,
         1.89589500e-01,  2.03174889e-01,  1.21306874e-01,
        -4.01984990e-01, -1.74229309e-01,  6.95263743e-02,
        -2.50875831e-01, -5.59350401e-02, -2.42470741e-01,
        -3.98680642e-02,  3.35014194e-01, -1.58180237e-01,
         3.47650945e-02,  5.26795052e-02, -1.45293549e-01,
        -2.06460029e-01,  3.29140276e-01,  2.62246490e-01,
         1.00866862e-01],
       [ 5.85933104e-02, -8.74223262e-02, -3.31272811e-01,
        -3.28274995e-01, -4.98845696e-01, -2.06316993e-01,
         1.05154812e-01, -1.91831395e-01,  3.45933139e-02,
         2.96863675e-01,  3.31688151e-02,  1.34136051e-01,
         3.17267478e-01,  2.18028739e-01, -1.52180657e-01,
        -2.34144509e-01,  6.81934431e-02,  1.81855679e-01,
         2.57794093e-02, -3.34206223e-01, -1.31636307e-01,
         7.19786733e-02,  1.18266225e-01, -6.62734509e-01,
         6.39459193e-02,  4.88596857e-01, -1.70860946e-01,
        -1.83342099e-01,  1.18462123e-01, -6.67089522e-01,
         6.99133873e-02,  9.14227143e-02,  6.83218658e-01,
         1.82013698e-02, -9.61569130e-01,  3.34744006e-01,
         5.84129274e-01, -1.74709857e-01,  1.28935069e-01,
         6.91281930e-02, -8.07604846e-03, -3.21798265e-01,
        -6.84072003e-02, -6.68393314e-01, -1.78104732e-02,
         1.02103114e-01, -2.26730719e-01, -4.72189538e-04,
         1.29330978e-01, -3.41151021e-02, -4.14501488e-01,
        -5.48819937e-02,  8.58797226e-04, -5.92934251e-01,
         2.30698049e-01,  2.18000785e-01, -5.72613440e-03,
         1.47245929e-01, -4.35077101e-02, -3.59678030e-01,
         4.13843334e-01,  8.72730613e-02,  2.12703701e-02,
         6.84773564e-01],
       [ 4.06074263e-02, -1.26201659e-01,  2.09098265e-01,
        -2.00040922e-01, -2.72971280e-02,  1.83064938e-02,
         4.28161882e-02, -3.89120996e-01, -1.01457737e-01,
         3.31852078e-01, -1.96086764e-01,  7.28779733e-02,
         1.33367896e-01, -3.09319496e-01,  2.20999755e-02,
        -3.66179168e-01, -2.28572413e-02,  1.42369106e-01,
         5.95065653e-01,  3.23263526e-01,  1.34231955e-01,
        -9.12475307e-03,  3.24723385e-02, -2.37226382e-01,
         4.73679043e-02,  2.38616824e-01,  6.37058198e-01,
        -2.11113885e-01, -2.84898996e-01, -1.08460337e-01,
         2.64908344e-01,  4.21796322e-01,  1.13446340e-02,
        -1.07325010e-01,  6.65869862e-02, -1.13979191e-01,
         1.47950202e-01,  3.58415954e-02, -2.17179164e-01,
        -9.38942805e-02, -2.26800353e-03, -2.98335880e-01,
        -1.85558975e-01, -4.52672809e-01,  1.61883295e-01,
         1.71907321e-01, -7.59669915e-02, -2.04387441e-01,
         7.39036426e-02,  2.22511813e-01, -3.75785917e-01,
         5.01769371e-02,  3.82401645e-02, -8.50923732e-02,
         4.15881425e-02, -1.53207451e-01, -2.23837435e-01,
         5.97277991e-02,  1.94730982e-01,  1.22641198e-01,
        -3.48560251e-02,  5.86320460e-02,  2.15449631e-01,
         4.92956564e-02],
       [ 4.08342272e-01,  6.03745729e-02, -2.71260738e-02,
        -2.87550509e-01, -1.44941062e-01,  1.61233589e-01,
         2.98729807e-01,  1.07546851e-01,  3.06189843e-02,
         6.54451028e-02,  2.50057548e-01,  5.91912828e-02,
         2.17925817e-01,  1.93264466e-02, -1.63512349e-01,
        -2.11424567e-02,  1.88901991e-01,  2.42855042e-01,
         2.18831092e-01, -1.47890439e-02,  2.61955917e-01,
         1.15022756e-01, -8.12917599e-04,  6.65471703e-02,
         6.96234331e-02,  1.45979701e-02,  7.75601133e-04,
        -1.41465038e-01, -1.55111238e-01, -1.64226279e-01,
        -6.92179278e-02, -1.34599641e-01,  4.13170129e-01,
         1.51237473e-02, -3.94278079e-01,  3.12453181e-01,
         2.38427147e-01, -1.44451916e-01, -1.79734662e-01,
        -2.54008353e-01,  2.90608257e-01,  8.68315101e-02,
         3.88954207e-02,  6.31798208e-02,  2.89299995e-01,
         7.00633449e-04, -2.10058764e-01,  2.31577978e-01,
        -1.44717917e-01, -2.48158257e-02,  1.17214076e-01,
        -1.67776793e-01, -1.78476974e-01,  1.93046927e-01,
        -2.14411303e-01,  2.06404701e-01, -2.10548360e-02,
        -2.49227196e-01, -5.89023568e-02,  2.30101898e-01,
         1.55453861e-01, -6.67591067e-03,  1.97876602e-01,
        -1.23901628e-01],
       [ 1.43362001e-01, -8.58924836e-02,  8.06796253e-02,
        -7.56260604e-02,  1.18047707e-01, -4.23363112e-02,
         9.66265574e-02,  4.36600037e-02, -1.75750345e-01,
        -9.02231112e-02, -1.55840144e-01,  1.63502485e-01,
         5.61012402e-02,  4.67454046e-02, -4.38763291e-01,
         1.26550645e-02,  2.17052400e-01, -1.95540145e-01,
         1.96990892e-01, -1.42624713e-02,  2.71031976e-01,
         2.61001110e-01, -1.06120825e-01,  2.13430554e-01,
         5.40543795e-02, -1.11359857e-01,  1.06867224e-01,
        -1.80697203e-01, -1.04886994e-01, -3.73289734e-01,
        -1.93261117e-01, -1.98814034e-01,  2.88932770e-01,
        -8.17892887e-03, -1.42310485e-02,  3.41649979e-01,
        -3.33540767e-01,  1.56029925e-01,  1.69842318e-02,
        -2.30890766e-01,  1.91264916e-02, -2.01779291e-01,
         1.91266965e-02,  1.02842651e-01,  1.45138606e-01,
         2.53614187e-01, -1.10914387e-01, -1.19920015e-01,
         5.64350921e-04, -1.28682464e-01,  6.02271073e-02,
        -9.19413567e-02,  4.68495935e-02, -1.17303312e-01,
         1.63697988e-01,  1.00106791e-01, -3.53464246e-01,
        -7.63106644e-02, -6.99854791e-02,  1.73944727e-01,
         2.20078975e-01,  2.91059865e-03,  1.17914639e-01,
        -6.72081709e-02],
       [-1.71466485e-01,  1.26078248e-01, -6.17787316e-02,
        -1.03086114e+00, -1.95107721e-02,  2.66033024e-01,
         1.71448722e-01,  7.64990225e-02,  1.84155516e-02,
         3.64366313e-03,  5.90043008e-01, -2.83286758e-02,
         1.71442777e-01, -4.42563295e-02, -7.97690004e-02,
         3.43944803e-02,  1.08518176e-01,  1.92642570e-01,
        -1.34918183e-01, -3.76425207e-01, -3.80745351e-01,
        -7.65271410e-02, -8.82503152e-01, -1.47422984e-01,
        -1.35382321e-02, -4.47235554e-01,  8.11920464e-02,
         2.91738123e-01, -1.35247931e-01,  2.56964304e-02,
        -7.55271763e-02,  7.09597021e-02, -5.42804264e-02,
        -1.25626819e-02, -7.13807881e-01,  1.56681046e-01,
        -9.91971418e-03,  3.50931436e-01,  4.22224343e-01,
        -1.80707857e-01,  9.89763346e-03,  4.58870798e-01,
         2.87061453e-01,  1.23049363e-01,  3.41599509e-02,
        -1.04999758e-01,  2.58466825e-02,  1.96776032e-01,
         5.43655813e-01, -5.16054928e-01, -2.91218936e-01,
         8.41860920e-02, -9.53155383e-02,  1.36973009e-01,
         3.07724029e-01, -2.75425971e-01,  1.87472239e-01,
        -5.10306835e-01, -7.95248896e-02, -1.47331089e-01,
         1.08625688e-01, -9.33755487e-02,  1.50373861e-01,
        -1.30596235e-01],
       [ 4.52055559e-02, -1.06885768e-01, -1.21785149e-01,
         8.13306943e-02,  7.71741122e-02, -2.89880484e-01,
        -2.85864145e-01,  9.06237960e-02, -2.47357152e-02,
         1.48504842e-02, -3.15506384e-02, -1.33778125e-01,
        -2.41531245e-02, -2.70735741e-01, -3.84159476e-01,
         1.18309902e-02,  1.85903743e-01, -2.24512205e-01,
         1.56093478e-01,  5.05852580e-01,  2.23573446e-01,
        -9.06518027e-02,  2.58657068e-01, -2.12657183e-01,
         7.77303874e-02,  2.08738253e-01,  1.34261787e-01,
        -1.89020053e-01,  3.35668959e-02, -4.02826577e-01,
         1.28070369e-01, -1.64517939e-01,  2.59297311e-01,
        -1.12167850e-01,  1.34654611e-01, -5.54342056e-03,
         1.95730016e-01,  1.40922710e-01, -3.39349717e-01,
         2.61466531e-03, -3.29669029e-01, -1.36561245e-02,
         1.96662635e-01, -3.19620445e-02,  7.84910321e-02,
        -1.40421659e-01, -1.44838868e-02, -1.25760034e-01,
         8.24243352e-02,  2.12981224e-01,  5.23658954e-02,
        -8.98502320e-02,  1.31591186e-01, -3.20073783e-01,
         8.29013065e-02,  1.93117887e-01,  1.61073700e-01,
         1.34424970e-01, -2.33486310e-01,  1.04939207e-01,
         3.11480880e-01,  1.39566973e-01,  7.82634504e-03,
         1.43807262e-01],
       [-6.46013990e-02, -1.60815008e-02, -4.50606853e-01,
        -1.94302395e-01, -4.40461844e-01, -3.63976330e-01,
        -1.22553073e-02,  9.62158889e-02, -4.60041277e-02,
         1.07515946e-01, -1.92110185e-02,  1.18865825e-01,
         2.13897824e-01,  8.71578082e-02, -1.97818220e-01,
        -1.75338641e-01, -1.72724277e-01,  4.88408476e-01,
         2.17561096e-01, -1.92211643e-01,  2.67678678e-01,
        -6.10487275e-02,  8.17967132e-02, -2.61526257e-01,
        -8.48690867e-02, -1.41654626e-01, -1.91342756e-02,
         1.79177225e-01,  5.31948470e-02,  2.82378227e-01,
        -1.41278103e-01,  1.06245115e-01,  1.12906538e-01,
        -2.65849054e-01, -2.46743143e-01,  5.60688190e-02,
        -1.70390636e-01,  2.26120472e-01,  3.88468355e-02,
        -1.43122911e-01, -3.83218192e-02, -2.53664434e-01,
         3.34470391e-01,  2.24709958e-02,  2.42821813e-01,
         5.08319773e-03, -3.19129415e-02, -8.66912212e-03,
         7.95724168e-02, -3.57120037e-01, -4.11575697e-02,
        -1.73293352e-01, -2.69534349e-01,  1.69177741e-01,
         1.49915263e-01,  1.62786305e-01, -1.36958025e-02,
        -2.17318207e-01, -3.77670676e-01,  2.09600121e-01,
         2.32323229e-01, -4.19148318e-02, -1.67669803e-02,
         2.15796068e-01],
       [ 1.46428034e-01, -1.14609137e-01, -2.99150407e-01,
        -1.73191726e-01, -4.05890882e-01, -3.86248142e-01,
         5.15100397e-02, -2.00983509e-02, -1.02375560e-01,
         4.53295201e-01, -5.31835184e-02, -1.49309173e-01,
         1.35329142e-01,  1.22659221e-01, -2.79988110e-01,
        -8.23750719e-02, -1.09491736e-01,  1.46392584e-01,
         1.64683387e-02,  2.77274817e-01,  9.10495520e-02,
         1.13031052e-01, -3.11338365e-01, -1.05219677e-01,
        -1.28430165e-02,  1.33208960e-01,  1.23298638e-01,
         9.39850137e-02, -1.29244030e-01,  2.52885193e-01,
        -8.57616812e-02, -1.52588502e-01, -1.91729605e-01,
         1.52884513e-01, -5.76132476e-01,  3.02882224e-01,
        -1.89818397e-01,  1.79547101e-01, -2.52406985e-01,
         1.73792019e-02, -1.43942591e-02, -1.47700580e-02,
         7.72057846e-02, -3.35648000e-01,  4.35721040e-01,
         1.67536344e-02,  1.64370775e-01, -2.40675449e-01,
         1.01778068e-01, -7.75629058e-02, -1.78532243e-01,
        -1.50842100e-01, -1.53237954e-01,  7.77027607e-02,
        -1.94307568e-03,  7.39063695e-02, -1.51203841e-01,
        -2.96367835e-02, -2.04819158e-01,  7.58258859e-03,
         1.45865351e-01, -1.78428620e-01, -2.20396116e-01,
        -1.17238112e-01],
       [-1.10348485e-01, -3.21114734e-02, -1.92623353e-03,
        -7.96866417e-01,  1.68258414e-01,  4.31802198e-02,
        -2.69648135e-01,  2.87300020e-01, -2.61869133e-01,
        -3.76410306e-01,  5.75444959e-02, -8.34044740e-02,
         2.20727399e-01, -2.35042661e-01,  3.47194910e-01,
         2.85555925e-02,  3.82886827e-01, -3.08112413e-01,
        -2.21212938e-01, -3.34924638e-01,  3.35194498e-01,
         6.03186190e-01, -3.50175530e-01, -6.43884659e-01,
         4.88168329e-01, -4.72270280e-01,  4.88722660e-02,
        -3.05092812e-01, -3.52626443e-01,  1.20390058e-01,
        -5.36997616e-02,  1.59908712e-01,  2.93711454e-01,
         1.65234357e-01, -5.18291235e-01, -2.17943937e-01,
         2.56779611e-01,  1.88825116e-01,  5.67930102e-01,
         1.10284060e-01, -1.50577933e-01,  4.86611016e-02,
         1.10764116e-01,  5.13805561e-02, -2.77493924e-01,
        -1.62937090e-01,  1.97329715e-01, -5.82061186e-02,
        -4.04842138e-01,  1.44437209e-01,  4.85684089e-02,
         3.61059397e-01, -3.62730235e-01,  2.24129871e-01,
         1.38560310e-01, -3.44059110e-01,  3.81964594e-01,
         6.21526241e-02,  3.27240169e-01,  2.89242685e-01,
        -1.28954455e-01, -3.82178165e-02,  1.71149373e-01,
        -2.08862871e-01],
       [ 4.41260971e-02, -1.73573628e-01,  7.75216445e-02,
        -1.50894061e-01, -6.52683824e-02, -1.44831955e-01,
        -1.74225584e-01, -4.88663800e-02,  1.51880682e-02,
        -1.78214878e-01,  1.19000494e-01,  1.56789094e-01,
        -2.41175339e-01,  1.34548679e-01,  3.66543412e-01,
        -5.05024754e-02, -2.72152156e-01,  4.19689119e-01,
         3.11283678e-01, -9.92873982e-02,  1.27614975e-01,
        -9.63619500e-02, -8.10479894e-02,  1.45423263e-01,
         4.47025225e-02,  5.28589487e-02,  2.88363785e-01,
         2.85081893e-01, -4.82949838e-02, -1.67127192e-01,
        -1.96678549e-01,  8.65567327e-02,  4.92729694e-02,
        -1.39375329e-02, -2.49914885e-01,  1.96493238e-01,
         7.24110380e-02,  7.85580352e-02, -4.05538261e-01,
         4.87546623e-03, -1.86595216e-01, -1.52967274e-02,
         2.52094567e-01, -1.01691233e-02, -9.27474201e-02,
        -1.06490582e-01, -3.93306948e-02, -3.53571400e-02,
        -6.82293400e-02,  1.23817876e-01,  8.38190764e-02,
        -3.77986073e-01,  1.30170465e-01, -4.63149734e-02,
        -1.09619617e-01,  4.99887988e-02,  1.81880444e-02,
        -1.60944790e-01, -2.01488152e-01, -7.92348683e-02,
         2.00702101e-02, -1.68361813e-02,  2.99913555e-01,
        -1.42801508e-01],
       [ 9.05737430e-02,  3.07444841e-01, -2.88554784e-02,
        -1.59419760e-01, -2.24081680e-01, -7.67196044e-02,
        -4.27838676e-02, -2.33211920e-01, -3.99709307e-02,
        -1.53125346e-01,  2.95716047e-01, -2.41149619e-01,
         1.23700341e-02,  1.56840175e-01,  1.27776772e-01,
        -3.28388810e-02, -4.41581130e-01, -6.19225837e-02,
         6.23772927e-02, -7.66456425e-01,  3.70849967e-01,
         4.57458645e-02, -1.81876838e-01,  4.52084914e-02,
         3.66713732e-01, -2.10488603e-01, -1.82940364e-01,
        -1.94635317e-01, -2.68968612e-01,  3.24606672e-02,
        -1.40248984e-01, -4.89692986e-01, -1.57981247e-01,
        -4.43933867e-02,  1.02282614e-01,  7.43848458e-02,
        -2.98131943e-01,  2.34098807e-01, -7.82613382e-02,
         2.20983867e-02, -4.71771538e-01,  2.29873464e-01,
        -1.72351852e-01,  2.44529098e-01, -1.03815198e-02,
         5.76143861e-02,  1.32840942e-04,  1.16122380e-01,
        -5.11623062e-02,  4.15859073e-01,  1.30625501e-01,
         5.04176773e-04, -3.03157628e-01, -1.03406012e-01,
         3.64693224e-01, -2.60587484e-01,  1.81906000e-01,
        -2.78831691e-01, -1.34840310e-01,  1.97767541e-01,
        -3.16587090e-02, -1.98985636e-01,  2.85589725e-01,
         1.55565903e-01],
       [-8.20762739e-02,  8.24996382e-02, -1.97247237e-01,
        -6.48809075e-01, -3.19399685e-01, -2.34858245e-01,
        -3.13527644e-01, -2.06057906e-01, -2.42210805e-01,
         1.98174149e-01,  2.37669557e-01, -4.35439497e-02,
        -2.30695326e-02,  2.84577072e-01,  5.12004793e-02,
         1.15549788e-01,  1.46496892e-01,  4.06633973e-01,
        -1.53174639e-01, -3.12151194e-01,  1.48611024e-01,
         3.24358970e-01, -4.37141918e-02,  1.68343171e-01,
         2.94381499e-01, -2.19391994e-02, -2.07480833e-01,
        -9.19092149e-02, -8.89319852e-02, -9.17774960e-02,
        -1.36057902e-02,  2.91484222e-02,  6.59452528e-02,
         2.32606634e-01, -1.79909959e-01, -8.65638629e-02,
        -1.79140106e-01,  1.20269582e-01,  3.15711319e-01,
        -2.22423479e-01, -2.15851814e-01,  1.28507346e-01,
        -1.39503747e-01, -8.62121060e-02,  1.99661523e-01,
        -5.88435158e-02,  3.31411473e-02, -5.85866533e-02,
        -2.13916138e-01,  2.09251925e-01, -1.35348499e-01,
        -2.30725612e-02, -2.61488557e-01,  4.00846973e-02,
         4.73389104e-02, -6.34353280e-01, -2.55513459e-01,
        -9.19569004e-03,  1.28695101e-01,  4.19408642e-02,
         1.43480882e-01, -1.63424164e-01, -1.18749395e-01,
        -7.18922317e-02],
       [ 2.19022021e-01,  1.10418694e-02,  2.11710662e-01,
        -6.60893500e-01,  2.42797613e-01,  2.72112846e-01,
        -1.92467287e-01,  2.03774527e-01,  9.42847282e-02,
        -6.10761702e-01, -3.03487796e-02, -2.70777494e-01,
         5.62643073e-02, -5.00971302e-02,  9.35731456e-02,
         6.64837062e-02, -4.21062976e-01, -4.58677590e-01,
        -3.67757469e-01, -4.27024551e-02,  2.13466082e-02,
         2.51305729e-01,  9.82627124e-02, -6.85356379e-01,
         1.85914069e-01, -2.08393127e-01,  3.45758766e-01,
         1.06430940e-01, -4.11445498e-01, -2.18681663e-01,
        -4.92270887e-01, -2.69180894e-01,  2.22884417e-01,
         4.86974940e-02, -6.31732404e-01, -1.40112430e-01,
         1.47178426e-01,  1.46660328e-01,  7.01935589e-01,
        -2.37490013e-01,  5.19118845e-01,  3.03558763e-02,
         5.73857687e-02,  2.59921491e-01, -1.09606004e+00,
        -1.02271989e-01, -4.60479468e-01,  3.34136456e-01,
         8.27814043e-02, -1.44417793e-01,  1.10287488e-01,
         1.33788157e-02, -2.35146470e-03,  1.02961138e-01,
         2.34867543e-01, -1.47219956e-01,  1.62471235e-01,
        -1.53227985e-01,  4.00675088e-02, -1.54442817e-01,
        -7.15810299e-01,  3.56931418e-01,  9.73483086e-01,
        -3.65032613e-01],
       [ 3.72433737e-02,  4.79629517e-01,  2.70423423e-02,
        -1.81272894e-01,  7.55025595e-02, -3.87120128e-01,
         1.41205132e-01,  1.80291757e-01, -1.99614555e-01,
        -3.77432257e-01,  5.59523478e-02, -2.94348411e-02,
        -2.84262866e-01,  2.46085763e-01,  1.12053089e-01,
        -2.64457971e-01, -3.70853305e-01, -2.30313063e-01,
        -1.31663054e-01, -5.33783793e-01,  4.40198064e-01,
        -2.86137551e-01,  3.67684096e-01,  2.88214326e-01,
         2.16163546e-01,  3.85603756e-02, -1.46955356e-01,
        -3.36287208e-02, -8.56377650e-03, -1.90056130e-01,
        -5.53918302e-01, -4.86481309e-01, -4.17280614e-01,
         1.15845904e-01,  1.65507153e-01, -6.89457729e-02,
        -6.37518287e-01,  2.21275598e-01,  2.03368515e-01,
         8.00284836e-03, -1.04681051e+00,  3.50189835e-01,
        -2.72383183e-01,  1.36118069e-01, -1.38206318e-01,
        -3.43383610e-01,  3.94204557e-02, -1.46044239e-01,
        -1.15372390e-02,  2.31664395e-03,  5.00505090e-01,
        -4.94862199e-01, -2.59046555e-01, -1.32057130e-01,
         5.90830967e-02,  3.97545053e-03, -1.54259661e-02,
        -1.62467003e-01, -1.12642363e-01,  3.40446502e-01,
         9.11830962e-02, -5.51688552e-01,  2.43523151e-01,
        -3.79873477e-02]], dtype=float32), array([-0.05721715, -0.22977187, -0.17284308,  0.11996193,  0.5759527 ,
        0.8123105 , -0.01708881, -0.21966028, -0.05186568, -0.540856  ,
        0.5866009 ,  0.04962368, -0.02211538, -0.38589704,  0.11004963,
       -0.07608818, -0.37173602, -0.29431534,  0.08590579,  0.05184242,
        0.5214551 , -0.05148359,  0.17034161,  0.80441606,  0.20187117,
       -0.3373093 ,  0.09328866,  0.5164907 , -0.38335636,  0.1396934 ,
        0.24939609, -0.34676003,  0.0453706 , -0.44156015,  0.45391777,
       -0.09950211, -0.56801736,  0.04172575, -0.27591848, -0.05350299,
       -0.07039998, -0.47480416, -0.07613655, -0.00434992,  0.20650934,
        0.20287095,  0.5232132 ,  0.10838487,  0.40796947, -0.24445355,
       -0.02384164,  0.5207009 ,  0.01261557,  0.47707468,  0.22752374,
       -0.78299236, -0.15913352, -0.18966337,  0.10874926,  0.22980498,
       -0.06340242, -0.35462612,  0.32754079, -0.3517549 ], dtype=float32)]