[array([[ 3.71592402e-01,  2.06376508e-01, -1.65842921e-01,
         3.49565774e-01, -2.11471051e-01,  1.67498127e-01,
        -3.13221544e-01, -9.99867618e-02, -4.66264844e-01,
         2.20522493e-01,  1.80999592e-01,  2.51062512e-01,
        -1.28646761e-01, -9.33058918e-01,  3.27520669e-01,
        -1.58368256e-02,  5.43199964e-02, -2.01770842e-01,
        -4.52353433e-02,  4.73576218e-01,  6.00329265e-02,
        -2.38197684e-01,  2.33560175e-01,  4.46654633e-02,
         1.52836174e-01,  1.04226612e-01, -7.02230930e-01,
        -1.15145911e-02, -1.37339815e-01,  7.85200894e-02,
        -3.25703062e-02, -1.84467971e-01, -2.64226627e-02,
        -8.89058709e-02,  2.22691178e-01,  2.36787602e-01,
         2.40411356e-01,  1.99322850e-01,  1.60381287e-01,
         1.70418859e-01,  2.71771759e-01,  2.08515167e-01,
         5.39724603e-02, -3.54250908e-01,  1.45439655e-01,
         9.26052481e-02, -1.75784081e-01, -6.35649562e-02,
        -4.84088995e-02,  1.37327671e-01, -7.43187428e-01,
         7.15694502e-02,  4.84777421e-01, -2.90883660e-01,
        -3.07184815e-01, -1.24083608e-01, -3.55764747e-01,
         1.93813950e-01,  2.56529033e-01, -1.51944011e-01,
         4.98984277e-01, -5.64559281e-01, -1.90359667e-01,
        -5.20433843e-01],
       [-4.61390149e-03, -3.23701790e-03, -2.21300591e-02,
         4.46916744e-02,  3.11961621e-02, -1.82559177e-01,
         8.63565058e-02,  1.32725000e-01,  3.07093352e-01,
        -8.58826414e-02, -8.33718926e-02,  1.57559086e-02,
         3.49013805e-01, -8.43195081e-01, -1.00491971e-01,
        -1.29901960e-01, -1.40028074e-01, -2.31218249e-01,
         2.35586420e-01,  2.68339604e-01, -1.10592112e-01,
         2.07129121e-01,  4.61309738e-02,  2.44580209e-01,
         1.24039412e-01, -9.42402706e-03, -2.51770347e-01,
         6.41295537e-02,  2.99804732e-02,  2.12145895e-01,
        -1.93216518e-01,  1.30588729e-02, -8.70569889e-03,
        -4.05266345e-01, -4.23238575e-02,  5.46059310e-01,
        -2.40189955e-01,  1.37870520e-01, -1.29029438e-01,
         2.14295611e-02,  2.47846782e-01,  1.05001658e-01,
         1.37952760e-01,  3.34548466e-02, -7.08607882e-02,
         2.85032392e-01, -1.74922079e-01,  3.13676037e-02,
         6.62894323e-02, -1.62575737e-01, -6.50511026e-01,
         6.30576387e-02, -3.40920053e-02,  1.81245074e-01,
        -1.16613619e-01, -2.49037534e-01, -1.78534329e-01,
         3.01382601e-01, -3.68328094e-01, -5.80796972e-02,
        -1.25872344e-01, -1.27917349e-01, -1.01106822e-01,
        -3.50807339e-01],
       [ 1.13100009e-02, -1.62791505e-01,  8.27967897e-02,
        -1.90729395e-01, -2.60123342e-01, -1.94130182e-01,
         3.55506539e-01,  3.17682326e-01,  1.48235649e-01,
         2.04606012e-01, -1.99741602e-01,  1.22557610e-01,
        -3.82436007e-01, -1.57461786e+00, -1.80548094e-02,
         1.89464539e-02, -2.27961853e-01, -7.94382319e-02,
        -2.37043276e-01,  9.18011367e-03,  1.61110908e-01,
        -1.72512755e-01,  3.84501845e-01,  1.53764158e-01,
        -1.75849378e+00,  1.99125677e-01,  2.14428663e-01,
        -7.70713314e-02,  3.01267892e-01, -1.86954215e-02,
        -1.49877518e-01, -1.36260046e-02,  4.17662151e-02,
        -1.50733304e+00, -1.87935047e-02,  6.40732408e-01,
         1.90720528e-01,  5.39367795e-01, -1.48901805e-01,
         1.59887165e-01, -1.74775392e-01, -1.53682128e-01,
        -1.49128661e-01, -3.31093252e-01,  1.67029813e-01,
        -1.82420865e-01, -2.31854528e-01, -5.78450859e-01,
         3.86327893e-01, -2.35456869e-01, -1.77886307e-01,
         7.85945952e-02,  1.46369621e-01, -1.63577512e-01,
         1.01382881e-01,  2.28669181e-01, -1.39688885e+00,
         1.58568904e-01,  1.38952047e-01,  4.39611226e-01,
        -1.24041937e-01, -1.29532188e-01,  9.81060117e-02,
        -1.30521776e-02],
       [ 3.86951447e-01, -6.92259669e-02,  4.44111647e-03,
         1.59960136e-01, -8.45368654e-02,  3.95020619e-02,
        -5.21726251e-01, -8.75208378e-02, -5.27362347e-01,
         3.95836025e-01, -5.83082549e-02,  2.11073056e-01,
        -1.87956393e-01, -8.09640229e-01,  3.16622108e-01,
         2.04072595e-02, -2.07811251e-01,  1.12438992e-01,
         3.51324119e-02,  3.53858232e-01,  3.05256367e-01,
        -1.78328857e-01,  2.58783579e-01, -2.38884777e-01,
        -1.68105766e-01,  4.92556840e-02, -4.60711718e-01,
        -2.04552740e-01, -4.51976717e-01,  1.38159856e-01,
        -2.01856777e-01,  6.18429519e-02,  2.50916153e-01,
         1.26070127e-01,  2.04825968e-01,  1.76500008e-01,
         4.63579983e-01,  1.91090241e-01, -4.82462764e-01,
         3.67135018e-01,  5.86027145e-01,  1.89287812e-01,
        -5.47722839e-02,  2.28605479e-01,  3.33088428e-01,
         5.31821996e-02, -3.33145678e-01,  9.70938355e-02,
         2.51122952e-01, -6.31810948e-02, -7.82934502e-02,
         1.95702855e-02, -5.80809359e-03, -6.80042982e-01,
         1.81221753e-01,  2.67770767e-01,  1.06823891e-02,
        -1.06533468e-01,  3.56183141e-01, -3.05291861e-01,
         5.33263028e-01, -9.98866975e-01, -8.63534883e-02,
        -2.18215987e-01],
       [-1.00916013e-01,  1.03036493e-01,  1.24051953e-02,
         5.19894242e-01, -3.24906446e-02, -1.87324304e-02,
        -5.47870278e-01, -2.52243966e-01, -4.55520064e-01,
         2.46897042e-01,  4.57545757e-01, -5.96221276e-02,
        -2.44869441e-01, -1.57702401e-01, -1.59385771e-01,
        -1.24602094e-01,  8.99306536e-02, -2.64629602e-01,
        -1.52288452e-01,  3.44263464e-02,  1.75584987e-01,
        -3.74231726e-01,  9.57257580e-03,  4.16739076e-01,
         4.76223797e-01,  3.66782755e-01, -2.22282305e-01,
        -2.74608731e-01,  7.99856260e-02,  7.50195161e-02,
        -1.37835577e-01, -3.38087380e-01,  3.74217965e-02,
         3.46477866e-01, -5.53534366e-03, -3.86903316e-01,
        -4.09642100e-01,  2.09492579e-01,  2.34976262e-01,
         1.75356075e-01,  3.93568687e-02,  3.19434464e-01,
        -2.03183264e-01, -2.82973610e-02, -1.27995506e-01,
        -3.62049967e-01,  2.84648314e-02,  5.45764752e-02,
         2.37712085e-01,  8.49163085e-02,  1.92573115e-01,
        -1.11147784e-01,  2.91735172e-01, -3.88345897e-01,
         2.69595116e-01,  4.73458409e-01,  5.17488495e-02,
         6.65125847e-02, -9.54143703e-04, -1.01380728e-01,
         1.70927137e-01, -1.87356323e-01, -2.68525749e-01,
         4.80543226e-02],
       [-1.59834251e-01, -1.65893808e-01, -2.27302179e-01,
         2.69882739e-01,  1.27203062e-01,  2.01054942e-02,
        -4.26881127e-02, -1.99543804e-01, -3.51212442e-01,
        -1.45498976e-01,  4.33248103e-01, -1.03472151e-01,
         3.67510132e-02,  5.17293990e-01,  1.67806581e-01,
        -2.52113730e-01, -1.74041227e-01,  8.59348010e-03,
         1.75927714e-01,  2.25095600e-01, -3.81101556e-02,
        -8.68085399e-02, -2.87229121e-02,  1.43806070e-01,
         1.76123291e-01,  2.14540791e-02, -2.26725861e-01,
        -4.90005203e-02,  3.68249938e-02,  1.70107663e-01,
        -2.08281979e-01, -5.00888705e-01, -9.34420824e-02,
         2.79130667e-01,  2.11280361e-01, -1.79279327e-01,
        -8.08816776e-02,  1.60006747e-01,  2.05973610e-01,
        -1.14702694e-01,  2.05969602e-01, -3.18507068e-02,
         1.36801720e-01,  2.51627982e-01, -1.17697828e-01,
         9.15109143e-02, -1.32736862e-01, -6.81429282e-02,
         1.28540099e-01, -8.21996108e-02, -2.00922415e-01,
        -2.67038137e-01, -2.68444140e-02, -3.46155316e-01,
        -2.91648626e-01,  8.08011144e-02,  4.43346828e-01,
        -1.34426430e-01, -2.25052550e-01,  7.59726465e-02,
         3.25624704e-01,  6.63737059e-02,  2.23131463e-01,
        -4.20277327e-01],
       [ 9.64289308e-02, -2.53933340e-01, -2.65495107e-02,
        -3.39179456e-01, -8.25265981e-03, -1.83991328e-01,
         4.78364646e-01,  4.08607870e-01,  1.82931662e-01,
         1.12890132e-01, -2.15679146e-02,  1.22138113e-01,
        -8.59046131e-02, -2.08644748e+00, -9.76536050e-02,
        -1.43701881e-01,  5.82750998e-02, -6.09488562e-02,
        -7.67642781e-02, -1.12723716e-01, -2.53295541e-01,
        -1.22529574e-01,  2.21139282e-01,  4.17728662e-01,
         9.47949961e-02, -9.64557230e-02, -5.92760649e-03,
         2.82156672e-02,  9.99378413e-02,  2.35135049e-01,
        -1.37473300e-01,  5.51376641e-01, -2.47289047e-01,
        -2.14887559e-01,  1.52874082e-01,  5.18624187e-01,
        -9.03346166e-02, -1.81688666e-01, -1.80594608e-01,
        -4.23024967e-02, -2.29981959e-01, -1.07162543e-01,
         1.29563302e-01, -9.89754349e-02,  1.17496938e-01,
        -8.85400027e-02, -2.35905081e-01,  1.09008551e-01,
         3.79017591e-02, -6.01501316e-02,  3.52823228e-01,
        -1.60965487e-01,  1.93964869e-01,  4.62625504e-01,
         5.87502345e-02, -8.37122500e-02, -4.02446121e-01,
         6.07394934e-01, -2.76292205e-01,  1.63069934e-01,
        -2.28753239e-01,  9.08941627e-02,  3.49318534e-01,
         4.97450680e-01],
       [ 8.22090656e-02, -2.42106199e-01, -9.75425839e-02,
         1.90693125e-01,  2.80388705e-02, -1.22419924e-01,
        -5.34769595e-01, -3.36946040e-01, -3.47371250e-01,
         1.96183696e-01,  3.11645091e-01,  2.27893144e-01,
        -3.96973670e-01, -6.81782588e-02, -1.33033708e-01,
        -5.85248992e-02, -1.24182917e-01, -1.40620500e-01,
        -7.64782727e-02, -1.11892611e-01,  3.51645425e-02,
        -5.44648707e-01,  1.23233110e-01,  1.98970482e-01,
         5.03165424e-01,  9.78460312e-02,  3.74249630e-02,
        -4.93823409e-01,  1.75767154e-01, -2.29073167e-01,
        -1.98131457e-01, -6.46877363e-02,  1.26602858e-01,
         1.41315749e-02,  2.14925900e-01, -1.64748281e-01,
        -6.55675590e-01,  3.75252187e-01, -3.06064993e-01,
         2.38240331e-01,  2.83874273e-01,  9.81612653e-02,
        -7.43251815e-02,  3.87652457e-01,  1.37312971e-02,
        -2.86326557e-01, -3.81950885e-02,  1.98876008e-01,
         1.47993371e-01,  1.73321158e-01,  1.76937535e-01,
        -6.05409108e-02,  3.32098663e-01, -1.36841029e-01,
         8.19262341e-02,  1.72873512e-01,  1.36824474e-01,
         1.02720939e-01, -2.38089219e-01, -2.03273714e-01,
         3.46855223e-01, -1.56974614e-01,  1.62067309e-01,
         3.27539921e-01],
       [-4.66876179e-02, -9.26514789e-02, -2.45520204e-01,
         1.97629020e-01,  6.92518353e-02,  6.86032027e-02,
         1.09900966e-01, -4.96513993e-02,  1.80314668e-02,
        -1.86921790e-01, -3.45625639e-01, -3.94849032e-02,
         1.37650490e-01, -2.51042604e-01, -1.30092144e-01,
        -1.83636412e-01, -2.12939486e-01, -8.36730823e-02,
        -4.20127720e-01, -3.41515720e-01,  1.81078948e-02,
        -4.88846332e-01,  1.63705498e-01,  8.68477076e-02,
        -4.05109912e-01, -6.46744817e-02,  2.18922213e-01,
        -2.16656059e-01,  4.63182420e-01, -5.58426023e-01,
        -1.23001836e-01, -1.05476871e-01,  2.63281614e-01,
         3.90824080e-02, -3.60874891e-01, -4.49576676e-01,
        -3.58644247e-01, -3.38707060e-01, -3.69091071e-02,
         3.51064295e-01, -9.66823697e-02, -4.92116138e-02,
        -2.20570534e-01, -2.30949242e-02,  1.30154759e-01,
        -1.21165693e-01, -2.64089257e-02,  4.43332782e-03,
         4.49438542e-01, -2.41297275e-01,  4.10344541e-01,
         3.43402505e-01, -9.03442055e-02,  3.19216326e-02,
         1.73755348e-01, -3.22995543e-01, -8.46330300e-02,
         4.96625006e-02, -2.83813655e-01,  3.19087505e-01,
        -5.21690965e-01, -2.88230568e-01,  3.38540763e-01,
         2.43044898e-01],
       [-1.55547783e-01, -2.35811770e-01, -2.66696990e-01,
        -8.03722255e-03, -1.48868158e-01, -2.41737008e-01,
         2.02832773e-01,  3.01537719e-02, -3.89853716e-02,
        -1.40926003e-01, -1.74320072e-01,  1.89639833e-02,
         2.64568120e-01, -1.84951171e-01,  2.44937629e-01,
        -1.64711475e-01, -9.39962566e-02, -2.23285630e-01,
        -1.66582480e-01,  2.64668465e-01, -2.59157419e-01,
         3.85775939e-02, -8.57708454e-02,  5.35291880e-02,
        -3.20896685e-01,  2.65852302e-01,  8.06153715e-02,
        -2.37346292e-01,  2.61081457e-01,  1.06135301e-01,
        -1.52020201e-01, -3.16325665e-01,  7.99913332e-02,
         1.27601907e-01, -4.41439420e-01, -3.66104469e-02,
         4.85245101e-02,  1.08622074e-01,  3.14179093e-01,
        -5.58582470e-02,  1.39887244e-01,  2.29737699e-01,
        -9.34371650e-02, -7.47422129e-02, -1.00179076e-01,
        -3.42279643e-01,  4.63076197e-02, -1.58728734e-01,
         2.11677060e-01,  1.40281999e-02, -3.57639380e-02,
        -1.13205560e-01,  1.47886619e-01, -2.52512038e-01,
        -6.50147498e-02, -1.20854087e-01, -7.84095377e-02,
        -5.00706017e-01,  1.07051603e-01,  2.00861573e-01,
        -3.93793911e-01, -2.56907016e-01,  3.83648187e-01,
        -1.01963960e-01],
       [-4.49878052e-02, -4.19021510e-02, -2.33244486e-02,
        -1.81141064e-01, -1.38014182e-01, -1.38255879e-01,
         2.94644982e-01,  1.38356704e-02, -2.84319997e-01,
        -9.31980461e-02, -1.99366018e-01,  2.87358582e-01,
        -1.42622367e-01,  3.46203834e-01,  4.94815111e-02,
         1.18767589e-01,  4.64102179e-02,  3.65340919e-03,
        -1.39453590e-01,  1.65985242e-01, -2.23433316e-01,
         8.70462060e-02,  9.61274654e-02,  1.54616594e-01,
         2.67542958e-01, -3.46573204e-01,  5.31566888e-02,
        -1.90650955e-01, -3.40207428e-01, -8.62130597e-02,
         2.27476154e-02, -1.79150954e-01, -1.24867544e-01,
        -8.32277536e-02,  2.03709438e-01,  3.10081542e-01,
         2.13699624e-01,  3.04357708e-01, -1.52482301e-01,
        -2.51912594e-01,  2.00620353e-01, -5.67126215e-01,
         1.54825956e-01,  1.50703222e-01, -1.03369996e-01,
         2.91715592e-01,  2.46999529e-03, -3.91264409e-01,
        -1.77655712e-01, -2.35072240e-01,  1.73053443e-01,
        -3.75053771e-02,  2.22614333e-01,  4.48513538e-01,
        -2.26851285e-01, -1.05920412e-01, -2.76106328e-01,
         2.67005235e-01, -4.30675119e-01,  1.82688069e-02,
         9.18608829e-02,  2.01845780e-01,  4.51929569e-02,
         9.98063013e-02],
       [ 1.60425350e-01,  1.91411555e-01, -6.62528500e-02,
         5.49493670e-01, -1.65234171e-02, -2.05187172e-01,
        -9.15275421e-04, -5.73499240e-02, -5.93330525e-02,
        -1.66873619e-01, -1.89799458e-01, -1.19630713e-02,
         1.32551894e-01,  6.68371394e-02, -2.39808783e-02,
        -1.18726850e-01, -9.44035053e-02,  1.41087130e-01,
        -1.50276840e-01, -2.24077046e-01, -2.66552657e-01,
        -3.26416939e-01,  2.70161241e-01,  9.89312530e-02,
        -1.59027308e-01,  2.31877148e-01,  1.87520981e-01,
        -2.53998399e-01,  3.73994738e-01, -4.22577947e-01,
        -1.54210880e-01, -1.90103352e-01,  7.49042854e-02,
        -8.91913027e-02, -4.54432696e-01, -4.22351241e-01,
        -1.53119117e-01, -2.58553922e-01, -4.59291525e-02,
         1.89189866e-01, -4.86879610e-03, -1.72654063e-01,
         2.63668671e-02,  1.95402220e-01, -5.35319187e-02,
         1.47062749e-01,  1.48532987e-01, -1.04362955e-02,
         2.68860430e-01, -8.67876709e-02,  1.87326506e-01,
         4.08640176e-01,  3.22379529e-01,  3.16104263e-01,
         3.54772024e-02, -1.59954742e-01, -2.01855719e-01,
        -9.58692357e-02, -3.57455134e-01, -1.14984117e-01,
        -6.29076004e-01, -1.14455618e-01,  1.79715186e-01,
         3.57694626e-01],
       [ 1.88368512e-03,  1.32291988e-01, -4.85185161e-02,
        -1.52946517e-01,  4.42079417e-02, -4.22405228e-02,
         1.08143151e-01, -3.17089975e-01,  5.51999360e-02,
         5.49213476e-02, -5.47747575e-02, -2.23053366e-01,
         4.56268370e-01,  2.46056423e-01, -3.04981589e-01,
         5.71493842e-02, -2.01509312e-01, -8.50731060e-02,
         1.61532704e-02,  9.23918113e-02, -5.80707937e-02,
        -5.27026132e-02,  4.31393422e-02, -1.16797112e-01,
        -2.08042488e-01,  2.27529556e-01,  5.67852035e-02,
         1.76914409e-01, -3.92022699e-01,  1.42784759e-01,
        -1.18084349e-01, -1.81458995e-01,  2.73795389e-02,
        -6.18493438e-01, -9.00475264e-01, -2.05847889e-01,
        -1.05904594e-01, -1.42800122e-01, -1.09018221e-01,
        -6.86800182e-02, -9.01641473e-02, -4.98953491e-01,
         3.46891060e-02, -6.29690140e-02, -7.04319179e-02,
         1.69086054e-01,  1.89540446e-01, -3.39841783e-01,
         9.73466784e-02,  9.73573700e-02,  8.56244937e-02,
         2.98027068e-01, -2.32434794e-02,  3.58695805e-01,
         2.70263493e-01,  1.95431471e-01, -5.70612013e-01,
        -2.17308387e-01,  1.37839913e-02,  2.18382686e-01,
         3.32761207e-04,  1.44520015e-01, -1.11286238e-01,
        -2.13536341e-02],
       [ 1.11575887e-01,  1.05908908e-01, -2.71070570e-01,
        -5.76929212e-01,  2.64165271e-02, -5.06376773e-02,
         1.51199535e-01,  1.46488935e-01,  4.14803505e-01,
        -1.85536548e-01,  1.95604205e-01, -2.97944337e-01,
         7.16003925e-02,  2.56651849e-01, -1.01576723e-01,
        -2.00131193e-01, -6.35705963e-02,  1.19886078e-01,
        -2.24367499e-01, -1.00192524e-01, -1.00706428e-01,
         2.89415056e-03,  3.45188603e-02, -9.44143906e-03,
         5.11433721e-01,  1.34026423e-01, -6.50808141e-02,
        -1.22209363e-01, -2.53547519e-01,  3.09608012e-01,
        -1.63448080e-01, -1.66176222e-02,  1.73234552e-01,
        -1.25421509e-01, -1.30738482e-01,  2.10145209e-02,
         1.65132821e-01,  2.58194357e-01, -2.22373322e-01,
        -2.00310409e-01, -1.65195659e-01,  1.34360632e-02,
         1.18832611e-01, -4.46226448e-02,  2.28239745e-02,
        -1.15134001e-01, -3.30343425e-01, -1.59589976e-01,
         3.49022716e-01, -1.03488460e-01, -6.59674779e-02,
         3.26542467e-01,  2.74854392e-01,  1.35302827e-01,
        -1.56571701e-01, -2.49888927e-01, -4.78118122e-01,
        -2.24652305e-01, -2.71869302e-01,  1.70237243e-01,
        -2.60507226e-01, -1.49514213e-01,  1.10908538e-01,
        -5.08287549e-02],
       [ 7.92169496e-02,  3.06906939e-01,  5.14711477e-02,
         9.39331427e-02,  9.29164812e-02, -3.90119292e-02,
        -6.27537549e-01, -1.60526127e-01, -2.15111375e-02,
        -4.93647248e-01, -1.38237342e-01, -4.47547212e-02,
        -3.30115885e-01,  4.04542774e-01,  3.86618167e-01,
         7.91239291e-02,  7.71483108e-02,  1.14506043e-01,
        -3.45070690e-01, -1.89645767e-01,  1.30972579e-01,
         1.61323741e-01, -9.84962210e-02, -4.41630065e-01,
        -1.80740550e-01, -3.21592987e-02,  3.33970100e-01,
        -3.85914981e-01, -3.08793515e-01,  1.48258626e-01,
        -1.24760374e-01,  4.01250347e-02, -3.16200078e-01,
         6.90617025e-01,  5.68308234e-01,  4.57161695e-01,
        -1.36117917e-02, -4.83194917e-01, -1.16908923e-01,
        -8.28605145e-03,  2.47740477e-01,  1.84464216e-01,
         6.51960224e-02,  2.94312060e-01, -3.82661194e-01,
        -4.60875630e-01, -3.53986993e-02, -1.61567330e-01,
        -2.78162152e-01, -1.99178204e-01, -2.79244501e-03,
         3.24029237e-01,  1.84099242e-01, -5.48222125e-01,
         2.69662179e-02, -3.84159863e-01, -2.84609087e-02,
        -5.71811259e-01, -2.18442008e-01, -5.74514270e-01,
        -1.66930258e-01,  4.27384563e-02, -1.21874295e-01,
        -2.53269845e-03],
       [-5.65217435e-02,  2.91279495e-01,  1.18470095e-01,
        -1.08646169e-01,  6.49471804e-02, -1.15598716e-01,
         1.88427329e-01, -4.69423473e-01, -2.40292773e-02,
        -9.43530425e-02, -3.26817960e-01, -5.67791283e-01,
         2.27884859e-01, -5.93162738e-02,  1.11887053e-01,
        -1.84491053e-01, -2.54103452e-01, -1.35520950e-01,
         3.37061852e-01, -4.99600358e-02, -1.38060711e-02,
        -9.53506306e-02, -7.13644102e-02,  1.98809383e-03,
        -2.15060383e-01, -1.19005695e-01,  3.73920768e-01,
         1.41149566e-01, -8.96868587e-01,  3.06807905e-01,
        -1.80182178e-02, -5.14130257e-02,  6.71763942e-02,
        -2.70266473e-01, -2.50647336e-01, -5.59898257e-01,
         1.88504502e-01, -3.99998575e-02, -1.74276158e-01,
         2.05733687e-01,  2.37603970e-02, -1.33238971e-01,
         1.90170541e-01,  1.80167854e-01,  2.23349050e-01,
        -4.54796031e-02,  7.10640177e-02,  1.54130487e-02,
         1.11676037e-01,  3.25307809e-02,  7.49998391e-02,
         9.53277871e-02,  1.37052163e-01,  1.30298187e-03,
        -8.51071160e-03,  8.21592063e-02, -3.39849085e-01,
        -9.06525031e-02, -1.58283100e-01,  4.29756037e-05,
         2.58228898e-01,  3.86256486e-01, -1.12705268e-01,
         2.54278891e-02],
       [ 1.68070626e-02,  1.81387082e-01, -2.65695184e-01,
        -2.25441292e-01,  8.70683268e-02, -2.38215685e-01,
         1.08076446e-01,  1.85340583e-01,  2.17405647e-01,
         1.87720448e-01,  1.62056670e-01,  3.54444459e-02,
         1.31624252e-01, -3.73823971e-01,  2.92373419e-01,
         1.28759786e-01, -2.82637537e-01, -1.33621842e-01,
         2.68028617e-01, -2.83962134e-02, -1.24187022e-01,
         2.16388971e-01,  2.01948598e-01, -5.85019821e-03,
        -1.88869625e-01,  9.65887010e-02, -2.59832889e-01,
        -3.92091535e-02,  1.36539891e-01, -1.50693014e-01,
        -6.00983426e-02,  9.33411717e-03,  5.78053258e-02,
         3.45651619e-02, -1.32847503e-01,  2.10691050e-01,
         2.75117844e-01, -3.42646688e-02,  6.05999351e-01,
         1.98401645e-01, -2.43494779e-01, -1.78422421e-01,
         5.70238352e-01, -3.75605941e-01, -7.95952827e-02,
        -1.85233161e-01, -1.89786583e-01,  2.47699797e-01,
         6.38115183e-02, -1.54570878e-01, -7.92832792e-01,
         1.75372779e-01,  2.33609051e-01, -1.18754335e-01,
        -3.29021662e-02, -1.20285809e-01,  2.26992995e-01,
        -2.64600903e-01,  2.08850861e-01,  3.53278071e-02,
         1.80609912e-01, -3.58970970e-01, -3.00896913e-01,
        -1.01695263e+00],
       [-5.10172881e-02,  1.69420704e-01, -2.85472631e-01,
        -9.81895905e-03, -2.48713568e-01, -1.70470953e-01,
         4.87978198e-02,  2.01764256e-01,  5.34959063e-02,
         1.05025284e-01,  1.19493872e-01,  1.70886219e-01,
         2.11271912e-01, -1.78129628e-01, -7.23671988e-02,
        -2.36644104e-01, -2.83770174e-01,  4.52322327e-03,
        -1.76699206e-01,  1.28756642e-01, -2.19046786e-01,
         2.76186883e-01,  2.68655509e-01, -5.86707771e-01,
         1.34227611e-02,  2.97761732e-03,  2.14595571e-01,
         1.04555011e-01,  4.62417126e-01, -1.96512900e-02,
        -1.63970202e-01, -1.59299687e-01, -2.90150613e-01,
        -1.00431383e-01, -3.90687734e-02,  3.34644705e-01,
         6.82147443e-02,  1.24832280e-01, -1.08896427e-01,
        -4.96966869e-01, -2.16326281e-01,  8.06039497e-02,
         8.80404096e-03, -7.02334404e-01, -3.34881872e-01,
         1.66783005e-01, -3.48996669e-02,  4.08103764e-01,
         1.55681118e-01, -3.24312295e-03,  1.08307317e-01,
        -2.47485545e-02,  2.24183977e-01,  3.70956779e-01,
        -1.54509768e-01, -1.89598173e-01,  2.87417769e-01,
        -2.41330843e-02,  1.55003816e-01,  1.31745890e-01,
         1.52290657e-01,  9.14761871e-02, -1.05249584e-01,
        -8.64678062e-03],
       [ 1.27694696e-01, -2.46928826e-01, -1.52530983e-01,
         6.31957799e-02, -7.74703324e-02,  3.90567183e-02,
         1.94859371e-01,  3.70737500e-02, -7.60790855e-02,
         4.24347669e-02, -2.00430408e-01,  8.58739018e-02,
        -3.65259707e-01, -1.01817715e+00, -8.38524401e-02,
        -2.24980060e-02,  9.15498137e-02, -1.08988330e-01,
        -5.48452616e-01,  2.27145389e-01, -1.87405542e-01,
         1.79860130e-01, -4.54874411e-02,  8.98864716e-02,
        -9.31282163e-01,  1.68092906e-01,  3.98312688e-01,
         3.46551985e-02, -2.68995076e-01, -1.20682977e-01,
         1.59553856e-01, -4.38470393e-02,  2.33636871e-01,
        -9.86469761e-02, -9.07195956e-02, -2.58139949e-02,
         2.68625170e-02,  1.04757525e-01,  1.49838835e-01,
        -3.37681949e-01, -4.45032604e-02,  2.80264705e-01,
        -2.21883178e-01, -3.50918591e-01,  7.08369613e-02,
        -9.79179740e-02, -8.35647434e-02,  1.00563668e-01,
        -1.74370967e-02, -5.31912930e-02, -5.71503758e-01,
         2.41319269e-01,  4.00834382e-02,  5.26398458e-02,
        -5.84565401e-02, -3.04640513e-02, -5.87440312e-01,
        -1.11010866e-02, -5.00858277e-02, -7.96900839e-02,
         8.62408355e-02,  3.09187263e-01, -3.36020626e-02,
         3.23459543e-02],
       [-2.29217201e-01,  3.00716221e-01, -1.54285982e-01,
         7.23524988e-02, -2.30675146e-01,  1.15914963e-01,
         9.08730831e-03,  4.25897626e-04,  3.35417151e-01,
         1.39264300e-01,  8.07457641e-02, -4.92385030e-01,
        -1.95105061e-01, -2.41102636e-01,  1.86619177e-01,
         3.26594859e-02,  9.50446799e-02, -8.43743756e-02,
         3.77683520e-01,  1.08787298e-01, -1.08116403e-01,
         2.08000407e-01,  2.18795195e-01, -4.78087086e-03,
        -3.28606367e-01,  3.34382743e-01, -1.07957028e-01,
        -1.29112750e-01, -9.76914391e-02,  7.05382004e-02,
        -4.60344069e-02, -1.36312172e-01,  1.38694607e-02,
        -5.46393767e-02, -3.97971785e-03, -3.25224064e-02,
         3.32114697e-01,  2.05954522e-01,  2.57449657e-01,
        -1.20138880e-02, -4.08582419e-01, -2.04573378e-01,
         3.11061919e-01, -2.69854844e-01, -1.30078346e-01,
        -3.31598312e-01, -6.15555868e-02,  3.49925131e-01,
        -2.34197557e-01, -2.92355046e-02, -6.80211663e-01,
         1.25440851e-01, -4.14050557e-02,  6.47921190e-02,
         4.41923499e-01, -5.46998568e-02, -2.78545246e-02,
        -1.60108488e-02,  1.78738032e-02, -8.70236978e-02,
         5.76131009e-02, -1.15714855e-01, -2.74098486e-01,
        -5.32384455e-01],
       [ 1.13439001e-01,  5.47521887e-03, -3.01287174e-01,
        -4.59199399e-02,  8.15965608e-02, -7.02013522e-02,
         2.16386124e-01, -1.34616673e-01,  2.69577920e-01,
         3.84854794e-01, -7.67217427e-02,  1.40832037e-01,
         5.24269454e-02,  1.67123049e-01, -1.34586453e-01,
        -1.23846047e-01, -2.17411015e-02, -9.15372372e-03,
        -1.72792554e-01, -3.02130163e-01,  1.40169799e-01,
        -2.92755961e-01, -2.62393236e-01, -1.02898227e-02,
        -7.88968056e-03,  2.03965306e-01, -1.85407415e-01,
        -4.50267456e-02,  2.47853100e-01,  3.09129059e-01,
         1.15442462e-01,  8.86347070e-02,  1.19767897e-01,
         5.48338257e-02, -4.67497379e-01, -7.10290596e-02,
        -5.98750234e-01, -2.59355903e-01, -8.95154104e-02,
         2.55323738e-01,  3.27205062e-02, -5.76861165e-02,
         2.27378368e-01,  1.65367424e-01,  1.87382802e-01,
        -6.60895333e-02, -2.78926473e-02, -2.26123944e-01,
        -1.38916612e-01,  9.12318081e-02, -3.42233747e-01,
         2.69603401e-01,  5.08319922e-02,  1.87830664e-02,
         2.24022195e-01, -6.26672506e-02, -1.38414681e-01,
         1.19738191e-01, -9.57308039e-02,  1.08226508e-01,
         9.80740339e-02, -9.60591361e-02,  9.77402478e-02,
         2.07401291e-01],
       [ 8.86678919e-02, -3.36204395e-02, -1.30891502e-01,
        -3.17799710e-02,  2.40906179e-01, -1.00791939e-01,
        -2.41783693e-01, -2.64071196e-01,  1.38618961e-01,
         2.60456026e-01, -1.27261639e-01,  6.75633922e-03,
         1.43025279e-01, -1.32329226e-01, -1.84584126e-01,
         8.58092383e-02,  4.60111387e-02,  1.33359477e-01,
        -9.55226198e-02,  1.40563592e-01,  1.46091014e-01,
        -1.04847789e-01,  4.42184091e-01, -1.18050680e-01,
         1.24615349e-01, -2.93848012e-02,  5.24987459e-01,
         3.86309773e-02,  3.93118709e-01, -1.88415736e-01,
        -1.88011736e-01, -1.33653075e-01, -1.37317674e-02,
         4.17326316e-02, -1.69976100e-01, -1.91022810e-02,
        -3.74223471e-01,  9.82420295e-02,  7.30681345e-02,
         6.82042399e-03, -1.32672554e-02,  1.99268058e-01,
        -1.64434299e-01, -2.16647118e-01, -6.50907755e-02,
        -2.17165187e-01,  1.19391784e-01,  1.10891648e-01,
        -9.19564515e-02, -1.72350034e-01, -3.59833747e-01,
        -3.32199007e-01, -3.21149737e-01, -2.38147393e-01,
         1.64048821e-02,  9.66779664e-02,  1.55435175e-01,
         3.65229324e-02,  4.67847943e-01,  2.44390920e-01,
        -1.94308832e-02, -4.05518375e-02, -3.25336516e-01,
         2.16697603e-01],
       [-2.14437768e-01, -8.68913159e-03,  7.86393732e-02,
         3.13162863e-01,  2.30586566e-02,  8.71063173e-02,
        -1.95039377e-01,  1.66536495e-01,  3.10298465e-02,
        -9.30264685e-03,  2.18736574e-01,  7.15863854e-02,
        -7.67400041e-02, -1.77783862e-01,  1.62360538e-02,
         8.22208896e-02,  8.42214152e-02,  1.35323465e-01,
        -1.39144555e-01, -2.13859215e-01, -8.77563283e-03,
         1.92750424e-01,  1.56068161e-01, -2.34044001e-01,
        -3.50173801e-01, -3.91468555e-02, -1.86509237e-01,
        -2.93784171e-01,  1.00956514e-01,  3.75384510e-01,
         1.15311161e-01, -2.01513261e-01,  9.91355628e-02,
         1.12608559e-01,  1.22279853e-01, -6.87980950e-02,
         1.23912938e-01,  3.54376286e-01,  5.25864214e-02,
        -2.11504266e-01, -1.84051245e-01,  1.24115363e-01,
        -1.41906559e-01,  3.13514322e-02, -4.75506075e-02,
         8.88279453e-02,  1.74289390e-01,  8.96632671e-02,
         2.69056469e-01,  6.35743216e-02, -2.52225548e-01,
        -1.29282549e-01,  2.94606648e-02,  1.55737191e-01,
         1.78750083e-01, -3.04877698e-01, -3.63700688e-02,
         2.27680951e-01, -2.68607318e-01,  6.34425581e-02,
        -2.60039717e-01,  2.98878163e-01,  1.60958350e-01,
         1.43274181e-02],
       [-1.82404578e-01,  4.17326503e-02, -1.93928137e-01,
         1.67101324e-01,  6.17814474e-02, -1.76718121e-03,
         4.76147719e-02,  1.38016909e-01,  2.50158131e-01,
         8.21413696e-02, -3.59423948e-03, -5.69698364e-02,
        -8.88760239e-02,  3.21985304e-01, -1.21111766e-01,
        -5.37631176e-02,  5.42866476e-02, -2.68360138e-01,
         3.23571354e-01, -4.99783456e-01,  4.06420082e-02,
         5.34331687e-02, -1.79345265e-01, -1.56470180e-01,
        -4.95668873e-02,  1.33412018e-01, -1.96109386e-03,
         1.17030710e-01,  2.66737074e-01,  4.58058268e-01,
        -2.18234539e-01,  3.29389572e-01, -9.32897627e-02,
        -1.27518579e-01, -2.76202500e-01, -1.39633521e-01,
        -4.92308319e-01,  7.42045119e-02, -2.09984958e-01,
         2.88413912e-01, -2.23735094e-01, -1.17996156e-01,
         3.19973946e-01, -4.19408791e-02,  4.18775678e-02,
        -7.04719126e-02, -7.62637258e-02, -1.28091395e-01,
        -2.16512680e-01,  7.80670121e-02, -1.42160788e-01,
         1.68617263e-01, -3.35544161e-02, -1.09278865e-01,
         6.15866780e-02,  6.96611106e-02,  1.62108436e-01,
        -2.37105414e-01, -1.61715627e-01, -4.68441248e-02,
         2.33426616e-01, -1.34744748e-01, -5.03865518e-02,
        -4.79644760e-02],
       [-8.50841850e-02, -6.03984110e-03, -1.54265508e-01,
         1.51708782e-01,  9.91510600e-02, -7.95933604e-02,
         1.78037256e-01, -7.06544751e-03, -2.29932908e-02,
         1.85242116e-01, -1.62923858e-01,  2.40852043e-01,
         1.25105292e-01,  2.41159782e-01,  4.29931909e-01,
        -2.12285668e-01, -6.26274720e-02, -2.48089880e-01,
        -1.47952378e-01, -2.92702138e-01,  2.14181066e-01,
        -1.71032071e-01, -8.53754580e-03,  2.94733495e-01,
        -2.11054385e-01, -1.09872021e-01, -3.12393066e-02,
         3.21910381e-02,  3.08517963e-02, -1.10655585e-02,
        -1.03023715e-01, -2.58423239e-01,  8.19955841e-02,
        -1.11596305e-02, -3.22766632e-01, -3.91386956e-01,
        -1.98743626e-01, -1.22798355e-02, -5.40940538e-02,
        -9.09139737e-02, -2.01676682e-01, -9.02887210e-02,
        -8.92752036e-02,  4.24199775e-02,  1.47978812e-01,
         2.97014415e-01, -8.57440829e-02, -7.44706154e-01,
         2.09839251e-02,  8.00690427e-02, -1.88804775e-01,
         5.65336086e-02, -8.41964558e-02, -1.32817775e-01,
        -2.46932641e-01,  1.51528016e-01,  5.49986996e-02,
        -3.07605088e-01,  2.52499253e-01,  1.26412073e-02,
        -2.24582508e-01,  1.51256233e-01,  4.67331886e-01,
        -1.02801420e-01],
       [-4.46852118e-01,  1.69195205e-01, -1.90244526e-01,
         1.85162097e-01, -3.62379476e-02, -4.39401418e-02,
        -1.55103773e-01,  2.86749355e-03,  2.49946356e-01,
        -7.69419922e-03,  3.00469279e-01, -6.03771731e-02,
         1.39396608e-01, -8.70773643e-02, -3.65307555e-02,
         9.01200324e-02, -7.21194223e-02,  5.94917834e-02,
        -3.64351273e-01,  3.38526219e-02,  5.72372414e-02,
         2.85894573e-02,  1.56476963e-02, -1.53081611e-01,
        -1.41572312e-01,  2.87567407e-01,  2.19891593e-01,
         1.07954316e-01,  3.40504050e-01, -1.06596440e-01,
        -2.77881301e-03, -1.81421965e-01,  1.55755654e-01,
        -4.11994010e-01,  1.13174357e-01,  1.07491843e-01,
        -1.36390716e-01,  4.34416942e-02,  2.92035043e-01,
        -1.49897754e-01, -1.18143611e-01,  6.21268377e-02,
         8.35248381e-02,  4.65892367e-02,  9.58213732e-02,
        -4.56091426e-02,  1.38544291e-01, -5.96101463e-01,
        -2.61877775e-01,  2.18273606e-02, -2.21328720e-01,
        -8.92143473e-02, -3.40040803e-01, -2.92994708e-01,
        -7.68424943e-02,  1.14486635e-01, -2.09183339e-02,
        -2.39676312e-01,  4.28762823e-01, -3.70654203e-02,
         1.80796444e-01, -4.84902970e-02,  3.79754692e-01,
         1.10432833e-01],
       [ 2.02393115e-01,  8.87496993e-02,  1.87367722e-02,
        -1.35700583e-01,  1.63651720e-01,  1.24465257e-01,
         1.02898441e-01,  3.80343974e-01, -1.38264239e-01,
         1.18256092e-01, -3.94189835e-01,  1.12994434e-02,
         6.10575117e-02,  9.25686359e-02,  6.84240879e-03,
         9.21513662e-02, -1.19410530e-01,  1.46732675e-02,
         1.26981556e-01,  5.84684312e-02, -2.26088941e-01,
         5.64824082e-02,  8.76121223e-03, -1.74891837e-02,
         4.63167615e-02, -1.80592746e-01,  1.43464953e-01,
         1.45755410e-01, -1.69091254e-01, -4.80665416e-02,
        -8.00696015e-02,  3.27081345e-02, -8.88131633e-02,
         5.86440675e-02,  3.48496825e-01,  2.76380986e-01,
        -3.47199112e-01,  8.86332914e-02, -1.17319264e-01,
         1.26399975e-02, -9.85848065e-03,  7.68111348e-02,
         8.95278975e-02, -1.11475311e-01, -2.92732000e-01,
        -1.16743641e-02, -7.87583739e-02,  1.59812212e-01,
         9.33034420e-02, -6.53680414e-02,  1.59303382e-01,
        -1.86415359e-01,  3.47329527e-01, -2.18796227e-02,
         1.45451307e-01,  1.11707874e-01, -2.35105127e-01,
         3.25037807e-01, -2.27925524e-01,  2.33600810e-01,
        -3.50700915e-02,  3.22348237e-01, -7.43341297e-02,
         1.69767618e-01],
       [-4.11761075e-01, -5.89628471e-03, -1.71985522e-01,
        -1.58061370e-01, -5.41786030e-02, -1.05882935e-01,
         3.40282679e-01,  4.98271249e-02, -2.22045630e-01,
        -2.70524055e-01, -2.63083100e-01,  2.20020581e-02,
         2.81572044e-01, -7.18203560e-03,  4.73672539e-01,
        -8.84712338e-02, -3.59744765e-04, -2.63204910e-02,
        -3.09705287e-01, -3.64649355e-01,  6.58247918e-02,
         1.17395736e-01, -4.85928774e-01, -4.99223964e-03,
         4.88854572e-02, -1.41224757e-01, -2.40566600e-02,
         9.97475758e-02,  1.07163928e-01,  2.95858830e-01,
        -8.94833878e-02, -8.03450719e-02,  3.61008465e-01,
         1.49830729e-01, -4.24264278e-03, -1.83973908e-02,
        -3.38040441e-01,  1.36835366e-01, -1.64798096e-01,
        -1.90027326e-01, -3.75665426e-02,  1.64632741e-02,
         1.13651320e-01,  1.01330251e-01,  7.62317628e-02,
         5.47810011e-02, -6.49391040e-02, -6.51567221e-01,
        -4.75561656e-02,  5.20405313e-03, -3.19116592e-01,
         1.36832118e-01,  1.75088882e-01, -8.71252045e-02,
        -3.96821611e-02, -2.39477027e-02,  3.06747884e-01,
        -2.23630629e-02, -1.01594828e-01,  2.15086658e-02,
        -1.62564158e-01,  2.25024834e-01,  3.82185698e-01,
        -1.61076244e-02],
       [-5.74644387e-01,  2.23663718e-01, -2.17593298e-03,
        -3.40114385e-01, -3.31902206e-02, -1.13714233e-01,
         1.35746179e-02,  1.10876068e-01, -2.86825120e-01,
        -1.73043594e-01,  1.92353323e-01, -1.95688561e-01,
        -2.81124357e-02, -8.52055550e-02, -3.31989909e-03,
         4.76788878e-02, -2.52162158e-01,  7.73976520e-02,
         1.48546010e-01, -1.17355667e-01,  2.30037510e-01,
         6.74678013e-02, -3.60016748e-02,  4.27532606e-02,
         3.36382359e-01, -9.22089219e-02, -1.46071047e-01,
         2.56695896e-01,  2.42375564e-02, -2.57342644e-02,
        -4.14625788e-03, -4.49592769e-01,  3.38798136e-01,
         7.88778141e-02, -4.86898907e-02, -1.15164883e-01,
         2.56778896e-01, -5.53434081e-02, -1.06795162e-01,
        -9.20121446e-02,  6.75475374e-02,  4.33319435e-02,
         4.60535437e-02, -2.49754325e-01, -1.30267646e-02,
         1.47336587e-01,  1.34735912e-01, -6.54580474e-01,
         3.82597186e-02,  5.46741746e-02, -7.66509026e-02,
         8.07465538e-02,  1.12050928e-01, -3.58329490e-02,
         1.16422065e-01,  1.74710393e-01, -1.60600871e-01,
        -3.29393446e-01, -4.48412774e-03, -1.56014144e-01,
         1.00253955e-01,  3.67980540e-01, -2.87211359e-01,
         2.90283591e-01],
       [-5.39149463e-01,  7.10596442e-02, -1.65401042e-01,
        -3.25997859e-01,  4.64942604e-02,  1.57954246e-01,
         1.02106743e-01,  1.59500167e-01,  4.43135738e-01,
        -1.14999391e-01, -2.10623667e-01, -5.66333354e-01,
        -1.78156018e-01,  1.37198552e-01, -1.66269183e-01,
        -1.57161266e-01, -1.52011123e-02, -1.40062734e-01,
         1.88498423e-01, -1.12816662e-01, -1.86769605e-01,
         4.80740666e-01, -5.85943051e-02, -1.23190239e-01,
        -1.51516780e-01, -3.85505520e-02,  2.65461028e-01,
         3.11213136e-01,  7.69575164e-02,  3.83702010e-01,
        -1.83240503e-01, -1.30580425e-01,  2.39217967e-01,
        -1.89565700e-02,  1.14443332e-01,  6.41616881e-02,
         5.77076711e-02, -2.00915039e-01,  5.93374334e-02,
        -9.01194587e-02, -2.85929352e-01,  2.05543876e-01,
         1.75150946e-01,  1.02272001e-03, -1.54313341e-01,
        -3.63314718e-01,  2.43248224e-01,  2.17921704e-01,
        -3.76395315e-01, -2.07472295e-02,  3.47504835e-03,
         5.73317595e-02, -1.74858779e-01, -1.29923940e-01,
        -2.45093793e-01,  6.94736317e-02,  3.05102766e-01,
        -1.93137348e-01,  1.67332366e-01,  1.84002891e-01,
         2.05971450e-01,  1.93128332e-01,  2.13746533e-01,
        -2.23024100e-01],
       [ 7.63762414e-01, -2.33123943e-01, -4.50954847e-02,
         7.91512489e-01,  1.72032878e-01,  3.84630263e-03,
         1.02985568e-01, -1.11647537e-02, -2.72774935e-01,
        -2.31295913e-01,  3.27884585e-01,  1.26970932e-01,
        -8.43794122e-02,  2.26376578e-01,  3.73716354e-01,
        -1.93247981e-02, -4.72187474e-02, -1.96490631e-01,
        -2.89960150e-02,  1.92862585e-01, -1.00954413e-01,
        -4.92107868e-01,  3.81891161e-01, -5.97747386e-01,
         2.39521384e-01, -2.63307542e-01, -9.73926261e-02,
        -2.15662003e-01,  1.40842080e-01, -3.76099616e-01,
        -8.38564709e-02,  2.19940737e-01, -2.16632232e-01,
         4.48988736e-01,  2.65873313e-01,  1.21836260e-01,
        -8.95331278e-02, -5.21556973e-01, -2.23336861e-01,
         2.79491246e-01,  4.10552293e-01,  1.63606226e-01,
        -5.12774289e-01, -1.26234382e-01, -3.06826774e-02,
         2.08540887e-01, -4.32447225e-01,  1.21672042e-01,
         5.03811538e-01, -1.56210184e-01,  4.46957827e-01,
         3.48914057e-01,  2.95636654e-01,  5.44661377e-03,
        -2.85847217e-01, -7.79643953e-02,  2.37696946e-01,
        -3.34499806e-01,  5.67278750e-02,  6.20049015e-02,
        -7.48026192e-01,  7.37109408e-02, -2.22502857e-01,
         2.18965232e-01],
       [-2.72459388e-01,  3.98961961e-01,  1.76905841e-02,
        -3.58765237e-02,  3.47239375e-01, -3.96492407e-02,
        -5.32962196e-02,  3.19653451e-01, -3.76829624e-01,
        -3.78072530e-01,  1.75566688e-01,  1.23975493e-01,
         2.91617997e-02, -4.35621142e-02, -1.10136285e-01,
        -1.18139647e-01, -3.61769577e-03, -1.22273535e-01,
        -7.35568777e-02,  3.27167392e-01,  1.32386446e-01,
         1.34928059e-03,  5.64917289e-02, -8.17920044e-02,
         1.09687760e-01, -5.80569319e-02,  2.84994513e-01,
         3.54059756e-01,  4.38731946e-02, -1.24323331e-01,
        -4.07639854e-02, -6.81349456e-01,  2.26651296e-01,
         1.01614162e-01,  2.09032834e-01, -1.91945657e-01,
         1.26733910e-02,  1.98763609e-01,  2.81694353e-01,
        -3.59524071e-01,  5.92601448e-02, -2.31800638e-02,
        -1.49191663e-01, -1.92821890e-01,  4.68720272e-02,
         2.39837721e-01,  4.01109792e-02, -5.14775693e-01,
         7.38680214e-02, -4.80227396e-02, -2.14279696e-01,
        -9.94950831e-02,  3.73299956e-01, -2.24419549e-01,
        -1.10469144e-02, -2.10657418e-02, -4.22558010e-01,
        -4.51330096e-02,  1.20999627e-02, -1.79873928e-01,
         2.73089800e-02,  1.41255841e-01, -1.18525095e-01,
         8.44685510e-02],
       [ 2.44927600e-01,  4.93753135e-01, -1.95938244e-01,
        -1.63584471e-01,  2.56121397e-01,  1.40255198e-01,
        -7.28119090e-02,  1.42406702e-01,  1.07874528e-01,
         6.54224753e-02,  1.04846163e-02,  1.30338416e-01,
         2.34644263e-04,  2.79500395e-01, -2.29105905e-01,
        -8.43953043e-02, -1.56560317e-01,  1.47923589e-01,
        -5.70800640e-02,  3.17983091e-01, -6.21797144e-01,
         1.08791210e-01, -1.83292359e-01,  1.48430333e-01,
         6.15001507e-02,  2.63123661e-01, -1.58992454e-01,
        -1.35113060e-01, -7.60931447e-02, -5.74762464e-01,
         4.66584899e-02, -9.02075693e-02,  1.08532883e-01,
         1.83214378e-02,  5.51758222e-02,  7.35614747e-02,
         7.64183253e-02, -3.05288464e-01,  4.43872362e-01,
         2.00609028e-01, -2.61729360e-01, -1.39647186e-01,
         5.54577529e-01, -2.71272302e-01, -1.99835911e-01,
         8.83522723e-03, -5.20839468e-02,  8.08745474e-02,
        -8.93800929e-02, -1.51120499e-01,  4.15211165e-04,
         6.29561767e-02,  3.68597925e-01,  1.65352330e-03,
        -5.61368704e-01, -2.31104672e-01,  4.54746693e-01,
        -6.06150508e-01,  7.64154717e-02, -1.19717821e-01,
        -2.10702702e-01, -2.09363103e-02, -3.78251940e-01,
        -7.29211628e-01],
       [ 3.02495658e-01,  1.28009185e-01, -1.02713078e-01,
        -1.19472913e-01, -3.92560035e-01, -1.99182302e-01,
        -2.20779270e-01, -1.13897927e-01,  7.12195188e-02,
         1.36075899e-01, -3.68612818e-02,  6.04155242e-01,
        -4.75350507e-02,  2.19587654e-01, -2.77322829e-01,
        -9.94157568e-02, -3.09704477e-03, -1.19112954e-01,
        -1.53334051e-01, -7.84297511e-02, -1.28069803e-01,
        -3.90268773e-01,  3.05100605e-02, -3.20991427e-01,
         1.65086925e-01,  2.89845884e-01, -5.06854057e-02,
        -4.40376729e-01, -7.94575587e-02, -6.20616257e-01,
         1.21994093e-01,  2.23579139e-01,  3.19588296e-02,
        -1.49744809e-01, -4.81782705e-02, -1.17892213e-01,
         2.08657280e-01,  1.36522323e-01, -1.56533048e-01,
         7.33653456e-02,  2.90861905e-01, -3.01999211e-01,
         2.20122457e-01, -3.15950662e-01,  4.61850345e-01,
        -1.84101805e-01, -9.27380174e-02,  6.82458505e-02,
         1.75840512e-01,  8.44206512e-02, -1.08713806e-01,
        -3.92639339e-02,  3.98928434e-01, -5.34419566e-02,
        -1.66139737e-01,  5.36229253e-01, -1.83559321e-02,
        -4.40553248e-01,  2.01113343e-01,  1.14850765e-02,
        -3.99395227e-01, -3.12188059e-01,  3.05211395e-01,
         1.57147765e-01],
       [ 3.50098044e-01, -1.38743063e-02,  5.75292893e-02,
         7.02866539e-02, -6.54490888e-01, -1.48671463e-01,
        -2.63680458e-01, -1.31999925e-01, -2.65346706e-01,
         6.26333877e-02,  2.84956038e-01,  3.78763154e-02,
        -1.02411740e-01,  3.29889804e-01,  3.52743715e-01,
        -1.27848908e-01,  8.46315995e-02, -1.66481942e-01,
         2.08795324e-01, -1.74650803e-01, -9.45227072e-02,
        -8.78188610e-02, -2.66750455e-01, -9.86223072e-02,
        -3.32510889e-01,  4.87737358e-01,  4.88034606e-01,
        -3.74238074e-01, -2.25678861e-01,  5.40541532e-03,
        -1.65155664e-01,  2.12965533e-01,  3.11816841e-01,
         4.34856653e-01,  2.62594800e-02, -2.52445072e-01,
         1.99899618e-02, -3.80602360e-01, -2.03286149e-02,
         8.53558630e-02,  2.84535512e-02,  2.53515720e-01,
         5.39600514e-02, -2.10558008e-02,  3.21519405e-01,
        -2.07249016e-01, -1.99308798e-01,  1.24916762e-01,
         4.17218253e-04, -1.61821499e-01,  2.54932642e-01,
        -1.20420873e-01, -5.26062921e-02, -2.65578717e-01,
         6.90721273e-02,  4.74672586e-01,  2.52287179e-01,
        -2.01260999e-01,  3.51577371e-01, -3.47341835e-01,
        -7.48922601e-02,  2.60474324e-01, -1.58435360e-01,
        -5.62507689e-01],
       [-1.46002799e-01,  4.33677763e-01,  5.80807636e-03,
        -3.51954430e-01,  6.66397735e-02, -1.01824880e-01,
        -5.21427929e-01,  2.72633135e-01, -1.24725088e-01,
         2.32473820e-01,  7.81127438e-02,  7.74041638e-02,
        -1.62944019e-01, -3.11625414e-02, -1.80140119e-02,
        -1.93271771e-01,  4.73403484e-02, -1.74672175e-02,
         5.69658838e-02,  2.52592921e-01, -1.19628251e-01,
         1.41055077e-01, -1.33403450e-01,  1.64903462e-01,
        -4.72511441e-01,  1.27858654e-01,  5.29579297e-02,
         8.18418339e-02, -1.03705384e-01, -4.90447998e-01,
        -2.05202803e-01,  1.83458254e-01, -4.58913855e-02,
         2.18876913e-01,  8.36153403e-02, -2.44920611e-01,
        -1.27007023e-01, -3.11639160e-01,  4.19653594e-01,
        -2.83883989e-01, -1.83624148e-01,  9.97751206e-02,
         1.73326075e-01, -2.10860729e-01, -3.44519496e-01,
        -2.65447766e-01,  2.29002777e-02,  1.87141553e-01,
        -1.83015585e-01, -2.44884357e-01,  6.77376390e-02,
         1.43183591e-02,  8.83092657e-02, -1.42211646e-01,
        -4.21060055e-01,  4.50118119e-03,  4.30844665e-01,
        -6.73605561e-01, -1.78031623e-01, -1.62612885e-01,
         1.73818827e-01, -7.56964758e-02, -2.33030409e-01,
        -5.95736980e-01],
       [ 1.35033160e-01,  4.63168025e-02, -2.26530328e-01,
         3.37297209e-02,  5.37692666e-01,  9.86242443e-02,
         2.26312459e-01,  2.30772048e-01, -2.58777201e-01,
         1.03639230e-01, -2.16636688e-01,  1.61805227e-01,
         9.15802792e-02, -3.17105874e-02, -2.70263255e-01,
         1.15624078e-01, -7.59729445e-02, -1.41036361e-01,
         6.90485388e-02,  2.07628846e-01,  2.25658491e-01,
         1.70852944e-01, -2.13817164e-01,  2.40553468e-01,
        -7.17549920e-02, -1.60426363e-01, -3.23772162e-01,
         9.76882577e-02,  1.05243914e-01, -1.59979835e-01,
        -1.56009659e-01, -1.07059330e-02, -2.64557928e-01,
         2.63378546e-02,  4.52556498e-02,  1.68115318e-01,
        -4.01033819e-01, -3.40352654e-01, -5.95175326e-01,
        -2.41556931e-02,  4.57647480e-02,  1.65610269e-01,
         1.29017876e-02, -3.70391577e-01, -2.16087520e-01,
         2.62890816e-01,  1.21146850e-01,  1.73428543e-02,
         2.91203469e-01,  7.21804798e-02,  2.40588933e-01,
        -2.21240371e-01,  2.82718569e-01,  2.42474765e-01,
        -2.00247586e-01, -4.93291318e-01,  3.92423600e-01,
        -7.82962702e-03, -6.19142056e-01,  1.41221225e-01,
         8.59504193e-02,  6.28147721e-02, -1.64864555e-01,
        -1.15620755e-01],
       [ 9.73730311e-02,  6.90077916e-02,  1.03464767e-01,
         1.69448540e-01,  2.56122738e-01, -2.30901942e-01,
        -9.70433950e-02, -9.77178961e-02, -5.60216382e-02,
         3.51110578e-01,  5.67062646e-02,  1.39736712e-01,
        -6.71397075e-02,  1.03625081e-01, -8.69992450e-02,
        -1.78855836e-01, -2.56679002e-02,  9.72151533e-02,
        -8.60705897e-02,  9.78560895e-02,  2.59074599e-01,
        -2.41679940e-02,  2.41734199e-02,  2.77747549e-02,
        -1.65082544e-01,  8.86999071e-02, -6.85013384e-02,
         1.98587596e-01,  2.64020730e-02, -1.93373650e-01,
        -1.33507088e-01, -1.51054468e-02, -4.14872289e-01,
         8.82326066e-02, -1.63562134e-01, -2.49367848e-01,
        -9.77900781e-05, -4.10444677e-01, -2.51510501e-01,
        -5.77412732e-03,  3.42871934e-01,  5.20109618e-03,
         1.95346996e-01, -7.21693277e-01,  2.55323678e-01,
        -4.58943248e-02,  2.24500000e-01,  2.88178027e-01,
         5.82943764e-03, -8.09297040e-02, -1.88853770e-01,
         1.31666645e-01,  9.84721854e-02, -6.35817498e-02,
        -1.44843012e-01, -2.72222161e-01, -4.45029512e-03,
         1.68756336e-01, -5.32808825e-02, -3.92785072e-02,
         5.59087656e-02, -7.93290585e-02,  2.27790084e-02,
        -2.57575810e-01],
       [-8.94581550e-04, -2.68674940e-01,  8.53665695e-02,
        -2.08769709e-01, -1.06438771e-01,  8.44670609e-02,
         2.12957755e-01, -1.41405175e-02,  2.03613579e-01,
         2.61924416e-01, -2.46558666e-01, -1.43808061e-02,
         8.33420679e-02, -1.52756553e-02,  2.86750078e-01,
        -1.03671111e-01,  5.30022793e-02, -4.56407741e-02,
         1.82413220e-01,  4.83493060e-02,  3.42932008e-02,
        -1.07149845e-02, -1.21510774e-01, -2.48551294e-01,
         5.74386716e-02,  3.53025138e-01,  1.02895498e-01,
        -1.76084731e-02, -2.19584107e-01,  8.01899210e-02,
         1.72935247e-01, -8.11053142e-02, -3.53559971e-01,
         4.88191135e-02,  1.18269481e-01, -1.22047156e-01,
        -1.28037646e-01,  1.90655664e-02,  2.03985184e-01,
         1.25819653e-01, -1.01254158e-01,  4.74778526e-02,
        -1.57369658e-01,  3.54505986e-01,  1.06434703e-01,
        -2.17968002e-01,  1.98976412e-01,  2.79301703e-01,
         6.63252249e-02, -2.03164250e-01, -1.05420783e-01,
        -2.53285587e-01, -2.46601000e-01,  2.08327323e-01,
         3.72847766e-01,  5.52401841e-01, -9.21012834e-02,
         1.19567037e-01, -5.81315815e-01,  1.33424640e-01,
         8.54864195e-02,  1.15896992e-01, -4.43869419e-02,
         1.75051093e-01],
       [ 1.49916202e-01,  1.17564335e-01, -3.23565751e-02,
        -8.88626948e-02, -6.32888302e-02, -1.58605978e-01,
        -2.66962103e-04,  1.60316721e-01,  1.27597302e-01,
        -2.97444481e-02,  1.12324253e-01, -2.12173983e-01,
         6.50750697e-02,  1.67311996e-01, -1.56031653e-01,
         9.75734740e-03, -5.53268753e-02, -1.12842740e-02,
         1.25371993e-01, -2.38577053e-02,  9.80968103e-02,
        -2.20933959e-01,  8.84924177e-03, -8.97101033e-03,
         1.37653397e-02,  2.18064915e-02, -9.59724635e-02,
         4.79826704e-02, -2.15652399e-02,  1.24939129e-01,
         6.17579892e-02,  2.25151896e-01, -2.88373560e-01,
         1.69898927e-01,  2.00771928e-01,  1.30317524e-01,
        -1.08415619e-01, -3.34736891e-02, -4.03055370e-01,
        -1.40748814e-01, -1.24570593e-01,  1.86633185e-01,
        -1.11285083e-01, -2.81413406e-01, -4.17617172e-01,
         1.28422946e-01,  4.57109511e-01,  2.41676509e-01,
         1.64922521e-01, -9.83891785e-02,  3.08076441e-01,
        -1.46058902e-01, -3.17734405e-02,  4.32290137e-01,
         9.81526822e-02, -1.73226342e-01,  8.97152573e-02,
         2.19449729e-01, -3.33755910e-01,  2.02712715e-01,
         1.60252810e-01, -1.83862761e-01, -1.97255492e-01,
         2.79034346e-01],
       [ 1.64025500e-01,  1.20844528e-01, -3.01911443e-01,
        -2.07863763e-01, -2.14664981e-01, -4.79254760e-02,
         7.96371922e-02,  2.02978075e-01,  3.03558737e-01,
        -2.53508806e-01, -1.10998102e-01, -2.85866112e-01,
         4.98191625e-01,  3.12418416e-02,  2.93214440e-01,
        -1.67331055e-01, -8.03538486e-02,  7.30008110e-02,
        -3.36119771e-01, -1.98420100e-02, -2.10567027e-01,
         2.12615460e-01, -1.98674083e-01,  1.54247135e-01,
         1.77115202e-01, -8.63468274e-02, -1.80902496e-01,
        -9.27625149e-02, -7.63105154e-02,  2.75144726e-01,
        -2.39113141e-02,  1.78961948e-01, -1.64390072e-01,
        -1.57873452e-01,  2.86077648e-01,  8.76631364e-02,
        -1.39981553e-01,  2.55361259e-01,  2.08078295e-01,
         1.57437280e-01, -8.48675072e-02,  5.09364195e-02,
         1.58796385e-01,  4.50563520e-01,  3.66805866e-02,
         1.70205683e-01,  1.06599599e-01, -2.84086853e-01,
         1.32570535e-01, -4.00765985e-02,  6.21466897e-02,
        -1.68984726e-01, -4.15188015e-01,  2.15814918e-01,
        -3.76137793e-02,  1.20794401e-01,  2.18550369e-01,
         5.76212406e-02, -3.52365561e-02,  1.12188980e-01,
         2.66307630e-02,  4.46295366e-03, -3.82552624e-01,
         1.79903165e-01],
       [ 7.58087784e-02,  1.87016532e-01, -1.84396386e-01,
        -3.72639461e-03,  1.42647520e-01,  2.78225113e-02,
        -1.85767636e-02, -1.25307083e-01,  4.29251604e-02,
        -1.24060459e-01,  2.91042060e-01,  1.13451146e-01,
         1.23211689e-01,  1.37231778e-02,  3.33142728e-01,
         1.41665101e-01, -4.31677587e-02, -1.65184826e-01,
         4.01514992e-02, -4.89082128e-01, -2.59881705e-01,
        -4.41321805e-02, -6.34806231e-02, -7.96690434e-02,
         2.44729817e-01,  1.55849550e-02, -1.93320364e-01,
        -1.50909200e-01,  2.47745812e-02, -1.11312397e-01,
        -7.01644495e-02, -1.53044000e-01,  1.60774810e-03,
        -1.15907528e-01, -5.56823947e-02,  9.04332697e-02,
         9.37013850e-02,  1.90312066e-03,  3.32498342e-01,
         2.19571814e-01,  2.03975424e-01,  3.75785112e-01,
        -7.93230310e-02,  1.00519918e-01,  1.00494735e-01,
        -4.49622795e-02, -1.16385333e-01,  2.28002250e-01,
        -5.77916503e-02, -1.60835654e-01,  2.83509165e-01,
         6.35534599e-02, -1.07206665e-01, -7.65867829e-02,
         4.89970922e-01, -1.94942340e-01, -2.34226853e-01,
         1.69179603e-01,  2.73136407e-01, -3.35868210e-01,
         1.44552097e-01, -3.75980020e-01, -4.16563988e-01,
         5.07770060e-03],
       [-2.96464860e-01,  6.00131862e-02,  1.08707607e-01,
        -2.20381245e-01, -1.72207743e-01, -1.97813973e-01,
         7.04757571e-02, -1.78818256e-01, -9.63866785e-02,
         4.71014738e-01, -2.77177423e-01,  1.51097238e-01,
        -1.88678890e-01, -5.01054302e-02, -2.75056392e-01,
        -5.14098667e-02,  1.35335580e-01,  7.60311037e-02,
         1.70328349e-01,  2.43489519e-01,  4.98438597e-01,
        -4.98116240e-02,  3.32324468e-02,  9.71517339e-02,
        -6.74482286e-02,  1.65917471e-01,  6.24086428e-03,
         7.23257437e-02, -1.02208473e-01, -1.05165794e-01,
        -4.33807075e-03,  6.35340884e-02, -2.23871946e-01,
        -2.47996569e-01,  1.48797393e-01,  1.76664777e-02,
        -5.67632675e-01, -2.21551172e-02, -1.26365647e-01,
        -2.38688380e-01,  2.31944799e-01, -1.37165278e-01,
        -1.83969125e-01,  9.23758969e-02, -2.86961049e-01,
         1.72251955e-01, -6.37312755e-02, -1.72878429e-01,
        -2.03973711e-01,  1.71305299e-01, -1.32685453e-01,
        -2.78140038e-01, -8.77989829e-02, -1.32887483e-01,
        -4.14454579e-01, -1.49702519e-01, -3.69295776e-02,
         2.01865479e-01, -6.21639378e-02,  6.84846565e-02,
         6.14666566e-03,  2.82405376e-01,  1.93044305e-01,
        -4.36808586e-01],
       [ 1.51912019e-01, -1.48698762e-01,  9.10509974e-02,
        -1.45136401e-01, -2.95842618e-01,  1.02809826e-02,
        -1.37776211e-01,  1.80975363e-01,  3.11884940e-01,
        -6.32306397e-01, -1.07491486e-01,  5.77020720e-02,
         2.45154396e-01, -5.89469308e-03,  3.29676792e-02,
        -2.34610856e-01, -2.32712314e-01, -1.09406739e-01,
        -1.84133023e-01,  1.90474480e-01, -5.94202392e-02,
         1.26390196e-02, -2.65091687e-01, -1.74844027e-01,
         2.44942904e-01, -3.39669138e-01,  4.16554846e-02,
         1.42914057e-01, -1.09466121e-01,  1.79677263e-01,
        -1.91002563e-02, -2.30317358e-02, -1.97828203e-01,
         2.24808585e-02,  4.53935415e-02,  2.69538730e-01,
        -1.90141037e-01,  3.28051209e-01,  1.06177546e-01,
        -9.28080529e-02, -9.78704393e-02,  1.64380483e-02,
        -4.62422892e-02,  3.01486075e-01, -3.46609615e-02,
         3.09017505e-02,  1.68415736e-02, -3.47041428e-01,
         3.27672064e-02, -1.41799182e-01,  5.55447638e-02,
         1.80992037e-01, -3.75531465e-02,  2.94574052e-01,
        -3.12408835e-01,  2.75281489e-01,  3.53858843e-02,
         3.41427088e-01, -2.58413665e-02,  7.88839385e-02,
        -1.24535225e-01,  1.81102812e-01, -2.88095921e-01,
         1.99660912e-01],
       [ 2.52823114e-01, -6.46946728e-02, -2.67414540e-01,
        -1.77187249e-01, -2.09817395e-01, -2.24349841e-01,
        -3.03703845e-02,  2.63557106e-01,  3.85620855e-02,
        -2.48828400e-02, -1.70825422e-01,  5.91460541e-02,
        -4.60408270e-01, -4.51100588e-01, -9.35335979e-02,
        -1.10882789e-01,  3.39503251e-02, -8.60593002e-03,
        -9.28396642e-01,  1.05217762e-01, -1.46629408e-01,
         2.16558520e-02,  4.74335849e-01,  1.53409138e-01,
         4.94063757e-02, -4.72049415e-01, -1.92184076e-01,
        -8.88950676e-02, -6.45520613e-02, -1.14006780e-01,
         1.37636214e-01,  4.00389940e-01,  2.53607007e-03,
         1.25460282e-01,  9.02017951e-03, -9.72308964e-02,
         3.60927314e-01,  3.20887893e-01,  2.28298470e-01,
        -8.61527473e-02, -1.22380871e-02, -5.67804992e-01,
        -1.38040960e-01,  2.33676791e-01,  1.49110168e-01,
        -3.00618023e-01, -2.78308205e-02, -2.13759661e-01,
        -7.27735013e-02, -2.29381859e-01,  2.26201475e-01,
         1.69531181e-02, -2.01857761e-01,  1.24002568e-01,
         1.04690805e-01, -8.38856027e-02, -3.16252381e-01,
        -8.51737782e-02, -4.49030139e-02, -7.44043440e-02,
        -1.37043884e-02, -1.44043550e-01, -3.03948909e-01,
         2.60062724e-01],
       [ 5.38333366e-03, -9.57645029e-02, -2.19847858e-01,
         3.15420181e-02,  3.42864007e-01, -1.05753265e-01,
         7.34295696e-02,  1.66006405e-02,  3.78101319e-01,
        -1.60455137e-01, -7.79202208e-02, -1.75076544e-01,
        -7.91767538e-02,  6.14282340e-02, -3.10335189e-01,
        -9.68666654e-03, -2.87260503e-01, -1.90245330e-01,
         1.45371661e-01,  1.56283423e-01, -3.17391217e-01,
         9.15736333e-02,  5.50495148e-01, -2.87160426e-01,
         2.21732765e-01, -3.95077080e-01, -1.92808792e-01,
         3.25574189e-01,  1.57484382e-01, -9.47447419e-02,
         5.04333973e-02,  1.87037095e-01, -4.06617075e-02,
        -6.28967822e-01,  3.15230131e-01,  2.07827836e-01,
         1.39237881e-01, -3.94354552e-01, -1.29672706e-01,
         1.00199595e-01,  6.25077263e-02,  7.01745003e-02,
         1.63340375e-01, -1.93714648e-02,  2.37876594e-01,
         5.65132558e-01, -1.88268900e-01, -1.76027924e-01,
         2.98692614e-01,  9.93264914e-02,  2.02159241e-01,
        -1.15583867e-01, -4.36425582e-02,  7.92983472e-02,
         3.16323757e-01,  3.43427986e-01, -4.88919973e-01,
         2.68614162e-02, -3.90288889e-01,  2.87674934e-01,
         2.10047945e-01, -1.15604669e-01, -8.52171406e-02,
        -1.14234380e-01],
       [-2.82898881e-02, -4.43895608e-01, -9.48380306e-02,
         3.96892309e-01, -6.60191402e-02,  3.83645669e-02,
         1.37126207e-01,  3.89277227e-02, -7.33110428e-01,
         1.04790546e-01, -5.09559475e-02,  1.76236525e-01,
         2.03569680e-01, -4.61778253e-01,  1.34386316e-01,
        -1.21807754e-01, -1.36276051e-01,  8.29786994e-03,
         3.49541515e-01, -8.41651931e-02,  1.01115815e-01,
        -1.87841535e-01, -1.74688891e-01, -1.72232881e-01,
        -1.01977661e-01,  2.52979010e-01,  3.86552140e-02,
        -1.13777190e-01, -8.15927461e-02, -1.98091716e-01,
        -4.22268957e-02, -2.74893343e-01,  6.13283925e-02,
         3.95424843e-01, -2.29432717e-01,  3.41879725e-01,
         2.27300361e-01, -4.71138675e-03, -1.51581392e-01,
        -2.82286853e-01,  2.93204933e-01, -1.46861702e-01,
        -3.68760198e-01, -4.34358478e-01, -1.08215794e-01,
        -4.14696150e-02,  3.16653736e-02, -6.32533014e-01,
        -1.79032996e-01, -1.60721883e-01, -4.99753952e-02,
         2.00690497e-02,  4.28546071e-01, -1.21933088e-01,
        -1.71621934e-01, -1.88404471e-01,  3.32296848e-01,
        -1.82729065e-01,  3.14277947e-01, -2.27247238e-01,
        -1.98208749e-01,  2.52050906e-01,  1.97118774e-01,
         2.52444874e-02],
       [-1.05979584e-01, -5.63668236e-02, -1.90491423e-01,
         3.86608616e-02, -9.82076004e-02, -4.16276045e-03,
        -1.35908917e-01,  1.35664716e-01, -4.26295012e-01,
         7.38598481e-02,  1.17731221e-01, -1.16826847e-01,
        -2.63820648e-01, -2.81488210e-01,  1.19446650e-01,
        -2.08587617e-01, -2.73473114e-01, -1.01270258e-01,
        -9.83414948e-01,  1.32265821e-01, -7.90991932e-02,
        -1.12643063e-01,  2.77644694e-01,  7.12848902e-02,
        -2.42723644e-01, -3.36948276e-01, -3.45298320e-01,
         2.39519984e-01,  9.73419324e-02, -2.28678733e-01,
        -9.56358854e-03,  2.68147707e-01,  2.81324387e-02,
         2.17671439e-01,  1.64679065e-01, -3.95003930e-02,
         3.14282507e-01,  1.20959014e-01, -6.54605329e-02,
        -8.96540880e-02,  1.35647163e-01, -4.76809680e-01,
        -2.62077264e-02,  3.16806436e-01, -4.42719199e-02,
         8.99295807e-02, -1.48301497e-01, -2.64103971e-02,
         7.76835810e-03, -1.34904400e-01, -9.20755602e-03,
        -2.54926533e-01, -1.82325825e-01,  1.49421081e-01,
         3.10169488e-01, -3.37769799e-02, -2.32442200e-01,
         1.03651449e-01,  5.61032072e-02,  3.35720144e-02,
         3.74127366e-02, -1.41295465e-02, -2.53657073e-01,
         3.56617779e-01],
       [-1.34849265e-01,  1.88828900e-01, -1.33030981e-01,
        -5.31414926e-01,  7.42138386e-01, -2.41312519e-01,
        -9.94631462e-03,  3.74914370e-02,  9.85200629e-02,
        -3.63831706e-02, -1.10156395e-01,  3.40726078e-01,
         1.63728848e-01, -1.10781435e-02, -2.13017300e-01,
        -2.56614476e-01,  6.88275173e-02, -1.49277583e-01,
         1.12798192e-01, -3.37268353e-01, -3.19371581e-01,
         1.20889820e-01, -5.86288989e-01, -1.94178313e-01,
        -1.24144822e-01,  2.28747219e-01, -5.40392250e-02,
         4.18459892e-01,  1.27255931e-01, -3.74766082e-01,
        -1.37580127e-01, -1.24542795e-01,  1.83452759e-02,
         1.27389535e-01,  2.82068163e-01,  1.09564975e-01,
        -6.87778115e-01, -1.77385524e-01, -8.67366374e-01,
        -4.78716642e-02,  2.78195560e-01,  7.33895302e-02,
         4.53343779e-01,  5.04259884e-01,  3.43197495e-01,
        -7.29741454e-02, -2.75874168e-01, -2.13164598e-01,
        -2.94119865e-01,  1.79050177e-01,  1.84688687e-01,
         9.43228006e-02,  2.35239521e-01, -1.54352471e-01,
        -1.89800322e-01,  2.23700419e-01, -3.52019910e-03,
         3.72622907e-02, -6.98144078e-01, -8.62968341e-02,
        -1.79531291e-01, -3.13184470e-01,  3.20329219e-01,
         7.55269676e-02],
       [-1.35798156e-02,  1.34322405e-01,  1.06207579e-01,
         3.32476437e-01,  3.75791222e-01,  6.95869476e-02,
         2.85478115e-01, -3.22432876e-01,  2.98095465e-01,
        -6.14340603e-02,  2.60015279e-01, -6.73090741e-02,
        -1.58189818e-01, -2.05947876e-01, -1.14169545e-01,
        -5.25279045e-02, -9.16491786e-04, -2.84356643e-02,
         3.47197726e-02, -4.76708978e-01,  3.82877290e-01,
        -1.57572969e-04,  2.05216035e-01, -4.77908999e-01,
         3.93301040e-01,  2.52395511e-01,  1.24768190e-01,
         3.87071162e-01, -3.39014113e-01,  4.59669232e-01,
         1.15270168e-02,  1.21888541e-01,  1.02491938e-01,
        -5.04156649e-02, -3.42856705e-01,  1.41101360e-01,
         2.13736475e-01, -2.26525724e-01, -1.07071543e+00,
         5.49228966e-01,  3.12244773e-01, -6.71096295e-02,
         2.57285506e-01,  1.88794747e-01,  6.63952887e-01,
         5.13901422e-03, -5.01496136e-01, -2.53636367e-03,
        -8.04499388e-02, -2.20185265e-01, -6.08453266e-02,
         7.20810175e-01, -2.54793167e-02,  1.85340852e-01,
         6.11524820e-01, -3.39947790e-01, -5.95159233e-01,
        -1.18692005e-02, -1.71225920e-01, -2.79567480e-01,
         2.58939534e-01, -7.04071641e-01, -1.09450333e-01,
        -1.98078598e-03],
       [-8.50189552e-02,  3.23672593e-01, -1.20289102e-01,
         5.10094091e-02, -2.87643939e-01, -2.06098020e-01,
         1.15036845e-01, -3.88667673e-01, -4.70687971e-02,
         6.80502057e-02, -1.92621931e-01,  1.87788501e-01,
         1.36980200e-02,  2.91669458e-01, -1.71879649e-01,
        -5.12137003e-02, -6.27806336e-02, -1.52572230e-01,
         3.81603032e-01, -1.60031781e-01, -3.12696606e-01,
        -9.75417718e-02, -3.22124839e-01,  3.18520427e-01,
         4.52988632e-02,  5.12217522e-01, -2.26137321e-02,
        -1.52524784e-01, -1.73917696e-01,  2.93430611e-02,
        -5.26716560e-02,  1.22027971e-01, -2.33471468e-01,
         3.03183198e-01, -5.51429465e-02, -4.52176183e-02,
        -2.53999501e-01, -4.15873677e-01,  8.19555447e-02,
        -2.34249786e-01, -1.75625551e-02, -2.16496021e-01,
        -2.66274482e-01,  7.89531693e-02,  3.93916309e-01,
        -7.09998310e-02, -8.40535983e-02, -5.38203109e-04,
        -3.66349355e-04, -9.12212282e-02,  2.80680936e-02,
        -2.29295999e-01,  1.88344326e-02, -2.69526660e-01,
        -2.51684755e-01,  3.42105597e-01,  9.70904455e-02,
         1.92532614e-02,  2.46709496e-01, -3.68513092e-02,
        -1.43507019e-01,  3.58478725e-02,  2.42935881e-01,
         4.52783942e-01],
       [-1.62429258e-01, -5.83095150e-03, -1.75463766e-01,
        -3.19308907e-01,  1.33128315e-01,  5.09639531e-02,
         7.51483515e-02,  2.64602780e-01, -2.80261755e-01,
        -2.21757919e-01, -3.86445433e-01,  4.30098265e-01,
        -1.24104790e-01,  2.22076356e-01, -1.59065843e-01,
         4.90109362e-02, -1.92043617e-01, -2.12551728e-02,
         3.40267062e-01, -8.69080573e-02, -3.23412001e-01,
         8.54285881e-02, -6.50789320e-01, -1.14153944e-01,
         1.24262705e-01,  2.06759661e-01, -1.89193502e-01,
        -1.16637051e-01, -4.63665456e-01, -3.77333015e-01,
        -6.67864829e-02,  3.06836665e-01, -3.77358757e-02,
        -9.42561552e-02,  7.85104558e-02,  1.37846529e-01,
        -2.54263610e-01, -1.94285288e-01, -3.93119812e-01,
         2.04601750e-01, -1.92486718e-01, -2.74201483e-01,
         1.40585303e-01,  2.99513072e-01,  9.97327492e-02,
        -3.40223193e-01, -1.79327369e-01, -5.84552467e-01,
         1.29822806e-01,  3.59629951e-02,  1.95999354e-01,
         1.73243195e-01,  3.31737578e-01, -8.01819563e-02,
        -6.27704322e-01,  3.92506689e-01,  9.64193270e-02,
        -1.90407932e-01, -5.69907844e-01,  8.73056725e-02,
        -1.73059881e-01,  7.76510984e-02,  4.38323051e-01,
         1.06530124e-03],
       [-2.30121598e-01,  2.00391319e-02,  7.08101913e-02,
        -9.33704600e-02,  3.10427219e-01,  2.47008298e-02,
        -2.68732905e-01,  1.74649386e-03, -1.22401394e-01,
        -4.07214850e-01, -3.23686302e-02,  5.38489483e-02,
         1.39822900e-01, -1.54058821e-03,  4.86217916e-01,
        -1.38629466e-01, -1.50853172e-01, -1.98151529e-01,
         4.27564621e-01, -1.22960564e-02,  8.73094872e-02,
         1.41742796e-01, -3.12517852e-01,  9.03681517e-02,
         1.39492944e-01, -4.66701806e-01, -1.16803028e-01,
         1.05411530e-01,  2.02484220e-01, -1.46646261e-01,
        -1.37229234e-01,  1.68217584e-01,  2.02151909e-01,
        -2.41998836e-01,  1.54438987e-01,  2.88827777e-01,
        -1.75519004e-01,  1.56588584e-01, -3.07417542e-01,
        -5.33210218e-01,  5.05927503e-01,  1.64151743e-01,
         5.12165166e-02, -1.60129229e-03, -3.84590477e-02,
         1.47256916e-02,  6.73097372e-01, -1.62363783e-01,
        -2.44710669e-01, -2.31385395e-01,  6.66657090e-02,
        -1.61400840e-01, -3.03209126e-01,  1.08676016e-01,
         2.84712106e-01,  2.13472098e-01,  3.09280545e-01,
         1.17655702e-01,  2.52941608e-01, -1.12206154e-01,
         1.42259717e-01, -6.96750954e-02,  2.05069512e-01,
         2.88641095e-01],
       [ 9.87906847e-03, -2.76488990e-01,  7.62889236e-02,
         1.98525950e-01,  5.69324791e-01,  1.13821000e-01,
         4.55389589e-01,  2.74683475e-01,  1.58542067e-01,
         4.82998461e-01, -4.37530391e-02,  2.15682998e-01,
         1.49514496e-01,  3.19628954e-01,  3.58269840e-01,
         1.43105552e-01,  6.31469116e-03,  1.08057857e-01,
        -2.79234350e-01, -7.67991722e-01,  1.22401742e-02,
         9.61711630e-02,  6.34559765e-02,  1.44191951e-01,
        -1.64587691e-01,  2.22433042e-02, -3.92829090e-01,
        -4.18705530e-02,  9.49124433e-03, -3.84437054e-01,
        -1.82668418e-01,  6.74762651e-02,  2.29716450e-01,
        -2.94825416e-02, -3.61830711e-01,  3.20104927e-01,
         6.00965172e-02, -4.96097326e-01, -3.93966764e-01,
         9.94666368e-02,  2.69377857e-01, -1.19868562e-01,
        -2.10103557e-01, -1.02820352e-01,  2.38384932e-01,
         3.37637007e-01,  6.35676086e-01,  2.21560240e-01,
         1.78059593e-01, -9.46861356e-02,  2.55865157e-01,
        -1.82173863e-01, -1.57983989e-01,  4.96837944e-02,
         3.74984533e-01, -1.48992296e-02,  2.83454716e-01,
        -3.73509079e-02,  8.70535597e-02, -2.36509725e-01,
         2.11548239e-01,  1.36774391e-01,  2.67611742e-01,
         3.99175882e-02],
       [ 1.47929952e-01,  2.18635704e-02,  1.06923372e-01,
         2.92543262e-01,  9.40066501e-02, -6.52272850e-02,
         3.05931810e-02, -1.64124385e-01, -9.02670920e-02,
         2.28940472e-01, -1.60481006e-01,  1.72671333e-01,
         2.30704411e-03, -1.29442111e-01, -4.75206524e-01,
        -5.45465294e-03,  3.06753628e-02, -1.79561272e-01,
         1.24299198e-01, -5.06395325e-02,  2.91339427e-01,
        -4.57938910e-02, -1.37119815e-01, -2.98913538e-01,
         1.40879303e-01, -5.11574596e-02,  3.13759267e-01,
         3.71313184e-01, -5.83115458e-01,  2.00130388e-01,
        -1.18776642e-01, -3.41149643e-02, -3.30990046e-01,
         1.45346578e-02,  2.10137926e-02, -2.34274551e-01,
        -1.88456729e-01, -1.00191079e-01,  3.85817915e-01,
         3.64930891e-02, -1.48194805e-01,  3.91760230e-01,
        -1.51781172e-01, -1.73579574e-01,  1.79830909e-01,
         2.31137246e-01, -3.46558332e-01,  2.92216957e-01,
        -2.52470553e-01, -9.88276973e-02, -1.02876373e-01,
         1.06266439e-01, -2.12402910e-01, -9.70660821e-02,
        -9.66091901e-02, -1.10573530e-01,  8.57109427e-02,
         2.21273512e-01, -4.66291755e-01,  5.59836701e-02,
         8.11399743e-02, -3.24115694e-01, -6.22427464e-02,
        -5.54775856e-02],
       [-1.10060610e-01, -3.38752009e-02,  5.92029355e-02,
        -3.49607132e-02, -2.80713290e-01, -1.27231598e-01,
        -1.01871192e-01, -8.09239447e-02, -1.43946394e-01,
        -6.51061684e-02, -2.64514893e-01,  1.07327752e-01,
        -3.21187377e-01, -1.15331240e-01,  1.64836124e-01,
        -1.10826410e-01, -1.78705037e-01,  3.97991501e-02,
         4.46156293e-01,  1.16461597e-01,  4.75349784e-01,
        -7.05953091e-02, -3.75205278e-01,  4.37574238e-02,
        -1.94617882e-02, -2.98738033e-01, -1.53493166e-01,
        -5.26597977e-01,  1.05488680e-01, -2.41191596e-01,
        -2.11810898e-02,  3.50013338e-02,  1.56776443e-01,
         7.43654668e-02,  1.53639421e-01,  2.11239442e-01,
         3.20511572e-02,  1.26289696e-01, -3.80572379e-01,
        -9.97235626e-02,  1.54233575e-01, -1.15221143e-01,
         6.67997077e-02,  4.69811000e-02, -9.40055400e-02,
        -2.07007319e-01,  2.71654636e-01, -5.81747405e-02,
        -7.41516948e-02, -2.08061039e-01,  2.32863471e-01,
        -2.83737276e-02, -1.50203288e-01,  1.82305679e-01,
        -4.88268137e-02, -2.27172256e-01, -3.66582610e-02,
         5.93634173e-02, -1.30502611e-01,  1.93919167e-01,
        -1.92419648e-01, -1.74697489e-01,  1.70327291e-01,
         3.28549355e-01],
       [ 3.11813533e-01, -5.59212752e-02,  1.00527436e-01,
         7.67219067e-02, -4.12849337e-01, -1.06275089e-01,
         1.27663597e-01, -1.50712058e-01,  4.05879378e-01,
        -1.46884531e-01, -2.85487682e-01, -1.10122874e-01,
        -3.84198695e-01, -2.31239766e-01, -3.24381627e-02,
         7.61524662e-02, -2.23753422e-01, -9.71191674e-02,
        -8.66292510e-03,  2.49361709e-01,  8.45148638e-02,
        -3.94894302e-01,  5.23890615e-01,  1.97943375e-01,
         2.18787760e-01, -4.40468371e-01, -2.77708352e-01,
        -4.59177703e-01, -6.82276860e-02, -9.42592323e-02,
         6.39724359e-02,  1.50063753e-01,  7.69584104e-02,
         7.97934756e-02,  1.59570258e-02, -1.54690564e-01,
         3.64976019e-01,  1.25725180e-01,  5.94430745e-01,
         1.60207540e-01,  4.18870784e-02, -1.60916492e-01,
         8.41946378e-02, -9.68327373e-02, -4.99538556e-02,
        -4.28179681e-01, -1.08985536e-01,  1.71360880e-01,
         3.82253714e-02, -9.07990783e-02,  8.69740173e-02,
        -9.86586139e-02, -2.47125566e-01,  1.33070529e-01,
        -2.00526863e-01, -2.32103646e-01, -2.22868562e-01,
         2.96043307e-01,  1.84364229e-01,  3.68834227e-01,
         1.39342144e-01, -1.16296537e-01, -5.89678884e-02,
         1.49627239e-01],
       [-2.80775756e-01, -1.97218478e-01,  9.56263691e-02,
         2.09621117e-01,  2.34314457e-01, -2.23812182e-02,
         3.37190419e-01,  2.18750685e-01, -7.65116364e-02,
        -2.24749938e-01, -2.48167966e-03,  1.47340856e-02,
         5.41869365e-03, -2.68177956e-01,  5.35850003e-02,
        -3.72990817e-02, -5.64563572e-02,  1.41967610e-02,
        -3.75322670e-01, -3.08374494e-01, -3.32366437e-01,
        -3.62429805e-02,  9.24484357e-02, -4.92748499e-01,
        -5.70962653e-02, -6.25231788e-02, -2.71497238e-02,
         6.32841766e-01,  5.38026802e-02, -3.28197777e-01,
         9.34717432e-02,  1.23513803e-01, -1.51871085e-01,
         1.42178640e-01, -2.07423314e-01, -1.63086370e-01,
         4.69005406e-01, -3.54068875e-01,  7.33813703e-01,
        -3.46117079e-01, -6.54896200e-02,  3.66261095e-01,
         1.41416952e-01, -8.65876973e-01, -3.24119218e-02,
        -3.03758364e-02, -1.04678154e-01,  1.87759444e-01,
         3.17726076e-01, -1.73492536e-01,  4.94083501e-02,
        -2.81734228e-01,  1.05432728e-02,  1.54491719e-02,
        -6.39058352e-02, -1.92523018e-01,  2.21148655e-01,
        -3.42693806e-01, -1.49510652e-01,  2.35925153e-01,
        -5.54653257e-02,  7.38890246e-02, -3.37808914e-02,
         1.25822753e-01],
       [-9.08559486e-02, -5.38994133e-01,  7.67446756e-02,
        -1.52921274e-01, -3.35985750e-01,  6.67267963e-02,
        -1.21219970e-01, -1.36212362e-02,  2.17282116e-01,
         1.59391649e-02,  7.29214400e-02, -1.32854640e-01,
        -8.56890306e-02,  1.14782803e-01, -1.57403365e-01,
        -7.18685538e-02, -8.13371390e-02,  5.14553338e-02,
         4.05646294e-01,  3.24484199e-01, -1.99044600e-01,
         4.30269629e-01, -6.44256532e-01, -1.36902943e-01,
        -1.46542996e-01,  2.47666553e-01,  2.57634461e-01,
         1.25062808e-01, -2.11517051e-01,  3.44761193e-01,
         3.39904986e-02, -1.65057495e-01,  4.05418694e-01,
         1.80377677e-01,  4.56684589e-01, -1.42758965e-01,
        -3.64719890e-02,  4.39933449e-01, -4.39181656e-01,
         3.25028956e-01, -5.00122666e-01,  3.10686737e-01,
        -2.82256484e-01,  5.21801710e-01, -1.05277732e-01,
         1.61142536e-02,  1.98483393e-01,  2.81350821e-01,
        -1.59842297e-01,  7.24284202e-02,  1.53780282e-01,
        -3.30151230e-01, -3.27210128e-01,  1.90951020e-01,
         1.40554588e-02,  1.92353845e-01, -2.44383857e-01,
         2.50227749e-01, -9.92104560e-02,  6.46091849e-02,
         2.39592828e-02, -7.83819780e-02,  4.65961099e-02,
        -2.80629486e-01],
       [ 5.85383037e-04, -9.07969102e-02, -2.76446879e-01,
        -2.00941861e-01, -8.60651016e-01,  1.58426449e-01,
         1.44720778e-01, -1.59674928e-01,  2.30740264e-01,
        -7.71929398e-02, -3.02951187e-01, -3.39528590e-01,
        -3.85504156e-01, -3.90321165e-01, -3.10078740e-01,
        -1.87590793e-01, -1.72364891e-01, -2.77763698e-03,
         1.01016156e-01,  1.12405695e-01,  4.76889521e-01,
        -3.10981005e-01,  8.05459768e-02,  2.06782296e-01,
         2.14250192e-01, -3.53576571e-01,  3.49786952e-02,
        -3.94650429e-01, -1.20484671e-02,  4.08978760e-02,
         1.40230983e-01,  4.03541893e-01, -2.41688967e-01,
         2.06388980e-01,  3.26192766e-01, -5.43785840e-02,
         9.46455356e-03, -6.08285107e-02,  3.69200647e-01,
        -1.23544529e-01, -1.14118449e-01, -1.87617496e-01,
        -7.06803501e-02, -1.00241274e-01,  1.56936765e-01,
        -7.08500981e-01, -1.88527420e-01, -1.68906420e-01,
        -2.70373225e-01,  1.16735004e-01,  2.09359661e-01,
         1.72970206e-01, -2.41062105e-01, -4.30937819e-02,
        -4.45329547e-02, -5.69977164e-02, -2.38199428e-01,
         2.03766569e-01,  3.30959707e-02,  3.76943290e-01,
         2.06744950e-02,  3.12388851e-03, -2.06277251e-01,
         2.21676946e-01],
       [ 3.94065827e-01, -2.85592407e-01, -1.60255104e-01,
        -1.32509753e-01, -4.24375862e-01,  1.31520003e-01,
         4.29730974e-02,  3.62491794e-02, -3.47287543e-02,
         8.72348063e-03,  8.01892206e-02,  6.85571060e-02,
        -1.39095652e+00, -1.18568671e+00, -1.98532924e-01,
         1.88925758e-01, -2.69764006e-01,  1.63097918e-01,
        -8.40555608e-01, -8.80565569e-02,  3.93294752e-01,
        -6.89769268e-01, -7.43593872e-02,  3.14346701e-01,
        -8.62894952e-02, -1.73130885e-01,  2.12806746e-01,
        -9.45144221e-02,  8.34479779e-02, -2.77920812e-01,
        -1.33112475e-01,  3.21290851e-01, -3.88284385e-01,
         4.57976721e-02, -2.67594844e-01, -1.58789605e-01,
         1.71136439e-01, -1.59167647e-02,  1.50396302e-01,
         2.39948362e-01, -3.44034374e-01, -4.59586143e-01,
        -4.07423191e-02,  1.27640575e-01,  7.92118385e-02,
        -2.55391866e-01, -4.44092244e-01, -4.76057678e-02,
         3.66925478e-01, -1.06544876e-02,  3.42106633e-02,
        -1.09859213e-01,  1.07262380e-01, -2.98850507e-01,
        -7.45518552e-03, -6.55321451e-03, -8.32800940e-02,
         2.08048135e-01, -3.24033424e-02,  2.10405111e-01,
         2.39452478e-02,  1.20917991e-01,  3.80297661e-01,
        -2.87639022e-01],
       [ 3.36044043e-01, -2.08906010e-01, -1.59381047e-01,
        -2.13581100e-01,  4.75531578e-01,  1.07799716e-01,
         2.61255410e-02,  2.22120345e-01,  2.35434901e-03,
        -7.73856342e-01,  1.67184263e-01, -1.13318581e-02,
         1.27840832e-01, -6.63722754e-01,  5.16191795e-02,
        -1.20782927e-01, -2.35989332e-01,  1.16430581e-01,
        -4.26585853e-01, -3.63731921e-01,  1.86130494e-01,
        -1.64909199e-01, -1.39210701e-01, -3.04402232e-01,
        -3.63499492e-01, -3.09695333e-01, -1.88256145e-01,
         2.52606779e-01,  6.43238500e-02, -1.57053009e-01,
        -1.17533579e-01,  3.03759366e-01,  2.04177544e-01,
         3.67196083e-01, -1.45684540e-01, -5.97624667e-02,
        -1.05421245e-01,  2.28606731e-01, -1.46989793e-01,
        -3.06805342e-01,  3.77844721e-01,  5.32312453e-01,
        -5.32413781e-01, -4.69809175e-02,  2.53128260e-01,
         3.80955040e-01, -3.87849212e-02,  3.36508453e-01,
        -2.21066043e-01, -1.95029840e-01,  2.43489340e-01,
         6.75268844e-02, -8.10973942e-02, -2.89730668e-01,
        -7.37615824e-02, -1.62137479e-01, -2.34218717e-01,
        -1.06046021e-01, -3.30840617e-01, -2.19459146e-01,
        -5.04894853e-01,  9.56623107e-02, -4.59535360e-01,
         1.85809389e-01],
       [ 3.38238090e-01,  2.09267080e-01, -1.21684022e-01,
        -6.19576350e-02, -6.08809829e-01,  9.52621223e-04,
        -2.97503591e-01, -4.05795537e-02, -2.15940952e-01,
         4.16737914e-01,  1.95084456e-02, -3.81598115e-01,
         1.57676399e-01, -5.16747832e-01, -2.65561402e-01,
        -1.87228605e-01,  1.61247645e-02, -2.39987262e-02,
        -5.79813600e-01,  3.58213603e-01, -5.04517742e-02,
         1.47635385e-01,  1.39606789e-01,  3.91880900e-01,
         6.56510070e-02,  2.67435104e-01,  2.73539364e-01,
        -9.61501002e-02, -2.98782378e-01,  2.60020215e-02,
        -1.21999912e-01, -8.03167522e-02, -4.87126373e-02,
        -1.30960777e-01,  2.76305854e-01, -3.10857832e-01,
         1.88695714e-01,  3.52863431e-01, -3.24286282e-01,
         3.58319610e-01, -1.92048028e-01, -2.58879721e-01,
         1.65308699e-01,  3.58738989e-01, -3.17533731e-01,
        -8.68540943e-01, -1.50376201e-01,  1.78257406e-01,
        -4.52603847e-02, -1.54635623e-01,  2.07271948e-01,
         3.83109264e-02,  3.98241639e-01,  1.88943237e-01,
         1.14429675e-01,  3.61664623e-01, -3.34210426e-01,
        -3.83980460e-02,  3.35618526e-01, -3.94069627e-02,
         1.53049409e-01, -4.55272228e-01,  1.76459596e-01,
        -2.90459454e-01],
       [ 3.17185134e-01, -1.25018373e-01, -2.13381782e-01,
         5.33845685e-02, -3.19703043e-01, -1.06814884e-01,
         3.44776213e-02,  3.78414802e-02, -1.54145122e-01,
        -8.78253505e-02, -2.80881990e-02, -1.05836153e-01,
        -6.88850462e-01, -9.77677882e-01, -3.59576583e-01,
        -1.60240933e-01, -1.03280038e-01, -1.84229940e-01,
        -3.67181003e-01,  2.22605586e-01,  1.31725729e-01,
        -1.33473381e-01, -9.88898333e-03,  3.27633262e-01,
        -2.59889454e-01, -1.47665545e-01, -1.58778831e-01,
        -1.66239172e-01,  9.89633799e-02, -2.16879681e-01,
        -3.85720432e-02,  2.96481431e-01, -3.94438535e-01,
         1.81830600e-02, -3.37743759e-02, -2.11093217e-01,
         4.31329966e-01,  3.02839875e-02,  2.53230125e-01,
         1.78697854e-01, -7.02276453e-02, -6.01281643e-01,
         3.17259580e-02,  3.07537884e-01, -1.85005546e-01,
        -5.66310585e-01, -3.37667048e-01,  3.69456075e-02,
         2.69486904e-02, -1.10923639e-02,  3.39956075e-01,
         8.87656771e-03,  2.07894400e-01,  3.79577205e-02,
         7.66818672e-02, -2.69125342e-01, -1.81182310e-01,
         1.17218360e-01, -1.62731912e-02,  2.01982148e-02,
        -4.84729931e-02, -2.05450684e-01,  2.23536044e-01,
        -2.04160944e-01]], dtype=float32), array([ 0.15472767, -0.2181296 , -0.08098309, -0.01809596, -0.1246937 ,
       -0.02674405,  0.17817195, -0.16932583,  0.6391636 , -0.20684241,
       -0.14990248, -0.36141962,  0.22915672, -0.38948026, -0.21721455,
       -0.06810989, -0.0712127 , -0.03016651,  0.33596087, -0.03022297,
       -0.08527466,  0.14451678,  0.35502   ,  0.09659112, -0.43754667,
       -0.18472011,  0.05819714,  0.04368034,  0.23334995,  0.20375732,
       -0.05229134,  0.16599387,  0.1436183 , -0.48339933, -0.1379625 ,
       -0.06322604,  0.15599173, -0.20645563, -0.23057891,  0.18990883,
       -0.26025125, -0.12737168, -0.09686518,  0.50704455,  0.06058497,
        0.19067252,  0.30386984,  0.48760554,  0.09320243, -0.03705643,
        0.42267025,  0.17497693, -0.48561573,  0.45607474,  0.19507876,
        0.44480705, -0.15163672, -0.05640166,  0.03656243,  0.37543967,
       -0.11044355,  0.10565449,  0.03629138, -0.03409413], dtype=float32)]